0.0,0.0,0.0,0.0,0.0,0.0,0.0,0.0,0.0,0.0,0.0,0.0,0.0,0.0,0.0,0.0,0.0,0.0,0.0,0.0,0.0,0.0,0.0,0.0,0.0,0.0,0.0,0.0,0.0,0.0,0.0,0.0,0.0,0.0,0.0,0.0,0.0,-0.26,-5.340000000000001,-3.3200000000000007,5.840000000000001,3.1,-4.5200000000000005,3.179999999999999,15.86,10.419999999999998,0.0,0.0,0.0,0.0,0.0,0.0,0.0,0.0,0.0,0.0,0.0,0.0,0.0,-0.52,0.0,-0.1,-7.4,-19.1,-18.38,-39.12,-35.88000000000001,-38.019999999999996,-73.02,-54.19999999999998,-69.16000000000001,-80.76,-83.94000000000003,-77.68000000000002,-61.2,-57.260000000000026,-63.54,-37.82000000000001,-18.62,-22.0,-7.6,0.0,0.0,0.0,0.0,0.0,0.0,-4.04,-3.52,-10.900000000000002,-36.980000000000004,-36.16000000000001,-35.2,-80.92000000000003,-130.22,-117.45999999999992,-121.53999999999999,-3.400000000000019,-44.58000000000001,-46.26000000000007,-56.80000000000015,-44.42000000000007,-91.86000000000008,-48.220000000000034,-91.22000000000001,-102.66000000000001,-73.66,-32.54,-12.980000000000002,-8.96,-1.8800000000000001,0.0,0.0,0.0,0.0,0.0,-0.72,-41.019999999999996,-43.22000000000001,-58.66000000000002,-70.17999999999999,-50.61999999999997,-61.26,-23.51999999999996,-2.379999999999999,44.56000000000004,-49.219999999999985,20.11999999999999,-98.08000000000001,0.5400000000000111,-26.18000000000006,9.939999999999964,-33.27999999999994,-47.479999999999976,-50.719999999999956,-45.37999999999998,-64.48000000000002,-40.42,-8.4,0.0,0.0,0.0,0.0,-0.5,-9.08,-41.38000000000001,-12.080000000000007,-33.34000000000003,-39.98000000000003,16.92000000000002,38.65999999999992,-49.539999999999935,-62.35999999999993,40.78000000000001,-0.9599999999999675,47.760000000000375,-20.059999999999988,-7.7600000000000104,34.36000000000014,-58.01999999999987,-32.68000000000003,-40.66000000000001,-21.37999999999996,-34.95999999999997,-113.55999999999997,-60.6,-16.18,-8.200000000000001,0.0,0.0,-0.8200000000000001,-4.54,-23.36,-3.6199999999999863,-45.73999999999997,4.220000000000015,-0.7199999999999733,-102.52000000000001,-18.33999999999998,28.360000000000028,-55.53999999999991,52.540000000000006,11.760000000000138,-16.260000000000083,-0.38000000000000567,11.480000000000045,47.92000000000036,23.320000000000096,-27.980000000000018,31.440000000000044,63.80000000000004,-33.35999999999997,-183.88000000000002,-124.40000000000002,-66.72,-26.320000000000007,0.0,-1.72,0.0,-5.52,-37.78000000000001,0.359999999999999,-29.859999999999964,0.6600000000000138,-96.69999999999995,3.820000000000036,4.220000000000006,-29.639999999999645,14.20000000000005,53.48000000000027,-40.939999999999884,-17.719999999999988,-27.639999999999915,57.30000000000028,6.860000000000141,33.58000000000004,-65.69999999999989,-21.800000000000022,8.839999999999991,-28.120000000000037,-155.12000000000018,-160.58,-51.6,-3.66,5.300000000000001,0.0,3.12,-6.1800000000000015,-58.96000000000001,-49.239999999999995,-37.36,8.880000000000033,14.560000000000027,12.620000000000012,37.760000000000254,-21.519999999999914,18.840000000000064,-12.939999999999857,65.60000000000002,22.540000000000234,87.48000000000037,33.22000000000025,22.900000000000325,-17.599999999999888,59.780000000000236,30.899999999999967,20.160000000000068,33.26000000000006,-91.67999999999996,-143.51999999999998,-43.48,-6.4799999999999995,0.0,0.0,3.98,-18.28,-87.14,-34.53999999999999,-1.340000000000003,-87.91999999999993,-0.3800000000000121,-11.719999999999942,59.62000000000016,-51.499999999999815,-35.079999999999934,-14.75999999999991,12.260000000000108,-33.079999999999785,55.28000000000024,14.500000000000215,-0.27999999999989766,55.060000000000045,6.90000000000008,29.040000000000017,-44.59999999999992,45.840000000000124,-89.57999999999974,-138.77999999999994,-69.57999999999998,-1.56,0.0,0.0,13.900000000000002,-24.940000000000005,-35.960000000000036,3.1400000000000015,-12.079999999999997,2.839999999999933,-7.959999999999957,-14.04,-47.65999999999936,-1.239999999999918,-37.93999999999997,-22.75999999999999,-3.4599999999999316,-1.3999999999999444,16.21999999999999,70.89999999999998,45.96000000000023,13.340000000000146,34.160000000000146,55.12000000000016,77.58000000000014,102.84000000000016,-40.37999999999987,-141.52000000000004,-90.98,0.0,0.0,2.64,0.0,-8.440000000000003,-81.03999999999996,-33.480000000000025,11.600000000000016,13.780000000000026,-21.779999999999983,-33.43999999999994,-55.99999999999988,3.319999999999991,-38.35999999999979,-13.679999999999872,-79.45999999999981,-108.2199999999997,-62.019999999999996,-12.199999999999978,-7.32000000000001,54.78000000000034,-0.8799999999999288,52.14000000000005,-54.13999999999991,61.640000000000136,-12.98,-100.43999999999997,-52.78,0.0,0.0,0.32,0.0,-9.059999999999999,-90.94000000000011,11.36000000000002,-0.799999999999975,-23.099999999999945,-31.660000000000046,-15.339999999999977,-1.9999999999998748,-0.7399999999999443,4.360000000000109,27.440000000000055,-63.56000000000013,-139.5199999999998,-102.15999999999984,4.240000000000039,-15.199999999999994,49.620000000000196,57.44000000000025,11.920000000000151,-8.599999999999872,21.959999999999916,25.50000000000002,-24.540000000000006,-15.980000000000004,0.0,0.0,1.26,0.98,-13.840000000000002,-23.14,30.099999999999994,90.83999999999996,22.88000000000011,32.400000000000205,-6.659999999999911,17.320000000000068,-42.57999999999972,-22.48,-80.9400000000001,-55.8599999999997,-175.2799999999999,-39.05999999999998,-23.960000000000072,-0.6599999999999189,-31.61999999999981,-54.59999999999957,12.140000000000038,55.16000000000026,36.9200000000001,-25.060000000000006,26.680000000000003,-4.680000000000001,0.0,0.0,0.0,0.0,-42.13999999999999,2.240000000000009,35.679999999999986,-14.739999999999966,86.46000000000028,43.80000000000017,67.78000000000009,-3.4999999999999374,12.260000000000057,44.18000000000022,-37.27999999999985,-177.4400000000004,-63.319999999999766,-85.8000000000001,-17.379999999999868,1.8799999999999972,9.420000000000101,58.30000000000003,14.420000000000117,18.020000000000024,7.320000000000096,23.519999999999953,8.520000000000003,-19.759999999999998,0.0,0.0,0.0,0.0,-64.56,3.919999999999999,48.360000000000085,-29.899999999999945,73.72000000000043,17.500000000000313,42.96000000000012,81.12000000000047,-29.979999999999887,30.120000000000022,-125.09999999999987,-175.30000000000058,-32.76000000000001,-35.03999999999997,-23.260000000000012,-34.31999999999955,-27.33999999999986,20.56000000000014,19.360000000000035,26.66000000000001,-13.159999999999917,65.66000000000003,-42.81999999999999,-26.0,0.0,0.0,0.0,0.0,-59.940000000000005,-41.90000000000003,62.660000000000174,-53.01999999999985,68.02000000000018,48.54000000000048,25.92000000000022,-9.859999999999545,-13.359999999999939,-75.89999999999979,-203.0999999999997,-109.20000000000014,-32.37999999999991,-89.88000000000007,58.84000000000005,-53.25999999999956,-36.979999999999805,29.14000000000015,-18.98000000000001,-46.77999999999998,-19.399999999999967,-20.820000000000007,-80.8,-29.840000000000007,0.96,0.0,0.0,0.0,-55.69999999999998,-7.579999999999968,46.860000000000085,21.20000000000024,32.92000000000019,-38.16000000000002,18.780000000000214,15.80000000000044,-23.819999999999965,-6.3399999999999626,-153.10000000000014,-79.95999999999994,-66.48,-43.45999999999976,-7.239999999999914,-66.1999999999997,21.5200000000001,-25.960000000000058,-52.68000000000007,74.90000000000013,6.379999999999999,-31.959999999999987,-60.860000000000014,-13.499999999999998,2.76,0.0,0.0,-7.84,-105.41999999999999,-38.57999999999994,-33.16000000000003,5.46000000000007,-7.280000000000013,36.440000000000026,56.94000000000024,48.080000000000055,-21.17999999999993,-42.67999999999997,-133.96000000000018,-44.779999999999944,36.78000000000003,-29.35999999999993,-1.4799999999999756,-1.4799999999999867,-22.06,-75.51999999999954,-29.719999999999956,-1.6799999999999944,-23.820000000000064,-35.82000000000001,-44.72,-17.919999999999998,-12.08,0.0,1.04,-13.120000000000001,-106.56000000000002,-51.859999999999815,-21.099999999999966,39.76000000000011,-2.179999999999921,84.74000000000042,33.80000000000009,23.100000000000165,-20.359999999999893,67.40000000000018,-87.36000000000014,-42.279999999999774,-44.2599999999997,-1.6400000000000041,-1.0399999999998855,12.360000000000111,-10.299999999999953,24.080000000000087,11.359999999999989,1.5600000000000112,-1.9599999999999862,-28.740000000000013,-40.88000000000001,-7.76,0.0,0.0,2.62,-3.6999999999999993,-100.05999999999997,-20.339999999999986,16.619999999999997,-29.09999999999995,9.679999999999977,26.88000000000003,-0.6999999999998137,50.84000000000037,59.74000000000029,17.540000000000312,17.220000000000184,-92.59999999999987,-4.039999999999863,-96.17999999999958,-34.5199999999998,-19.69999999999988,-21.69999999999989,23.26000000000014,4.019999999999991,4.979999999999998,-57.899999999999984,-86.94000000000003,-23.060000000000002,2.7399999999999998,0.0,0.0,0.0,-11.620000000000001,-45.66,-18.96000000000004,-6.5399999999999965,27.44000000000006,-45.85999999999994,-9.439999999999898,14.96000000000007,44.280000000000456,11.640000000000267,66.26000000000028,-16.33999999999982,-14.059999999999821,-7.65999999999983,30.060000000000002,-55.69999999999973,-16.36000000000002,-90.17999999999968,-57.039999999999964,4.440000000000009,36.760000000000026,-87.58,-46.51999999999999,-3.38,14.34,0.0,0.0,0.0,-11.9,-31.08000000000001,-96.89999999999999,-4.360000000000003,37.42000000000001,5.419999999999998,16.740000000000002,-7.259999999999926,11.380000000000202,12.199999999999898,-17.079999999999888,125.5800000000001,-12.559999999999901,10.220000000000086,-45.45999999999986,-12.240000000000004,-66.5399999999999,22.339999999999968,-60.67999999999989,-36.96000000000003,-12.320000000000018,-61.999999999999986,-35.580000000000005,1.12,3.8400000000000007,0.0,0.0,0.0,-3.7600000000000002,-10.620000000000001,-86.60000000000001,-25.560000000000034,36.70000000000001,-13.179999999999987,-17.42000000000001,-26.53999999999991,27.160000000000217,14.079999999999918,-7.479999999999976,15.679999999999934,32.8000000000001,7.319999999999999,-45.38000000000001,22.000000000000043,-39.76000000000003,-70.88,-138.34000000000003,-66.24000000000001,-26.199999999999996,-45.52000000000001,-35.56000000000001,0.0,0.0,0.0,0.0,0.0,-7.699999999999999,-12.44,-37.18000000000001,-31.320000000000004,-24.599999999999998,-43.36,-51.26000000000011,14.999999999999998,-23.17999999999995,-27.21999999999997,11.920000000000003,-28.840000000000067,4.599999999999994,-16.979999999999993,-69.19999999999999,-37.40000000000004,-51.180000000000014,-70.36,-93.82000000000001,-93.97999999999999,-41.480000000000004,-32.54,-10.100000000000001,0.0,0.0,0.0,0.0,0.0,0.0,0.0,-1.5,-24.560000000000002,-67.94,-106.76000000000002,-136.71999999999994,-139.08000000000013,-212.4800000000002,-149.7999999999999,-189.30000000000007,-214.91999999999993,-205.4,-241.19999999999993,-165.74000000000004,-180.78000000000006,-140.04000000000002,-69.96000000000001,-79.80000000000001,-67.76000000000002,-28.36,-18.06,-7.0,0.0,0.0,0.0,0.0,0.0,0.0,0.0,0.0,-13.48,-15.740000000000002,-28.619999999999997,-54.10000000000001,-101.02,-80.74000000000001,-78.61999999999999,-75.75999999999999,-101.68,-112.1,-109.29999999999997,-78.24000000000001,-64.59999999999998,-52.12,-18.159999999999993,-36.08,-45.759999999999984,-28.18,-4.2,-0.56,0.0,0.0,0.0,0.0,0.0,0.0,0.0,0.0,0.0,0.0,0.0,0.0,-0.08,-3.8000000000000003,-4.02,-1.3800000000000001,-16.3,-35.160000000000004,-29.339999999999996,-18.66,-11.7,-14.64,-4.12,-5.0600000000000005,-9.18,-25.4,-5.8,0.0,0.0,0.0,0.0
0.0,0.0,0.0,0.0,0.0,0.0,0.0,0.0,0.0,0.0,0.0,0.0,0.0,0.0,0.0,0.0,0.0,0.0,0.0,0.0,0.0,0.0,0.0,0.0,0.0,0.0,0.0,0.0,0.0,0.0,0.0,0.0,0.0,0.0,0.0,-0.24,-11.68,-9.040000000000001,-4.4,0.0,0.0,0.0,0.0,-6.040000000000001,-29.92,-5.68,0.0,0.0,0.0,0.0,0.0,0.0,0.0,0.0,0.0,0.0,0.0,0.0,0.0,0.0,0.0,0.0,0.0,-4.64,-19.46,-20.22,-22.42,-12.919999999999998,-5.920000000000002,26.22,-18.439999999999998,27.54000000000001,20.640000000000008,4.820000000000003,-14.659999999999998,-3.0199999999999996,-5.840000000000001,-3.6,-0.8200000000000001,-5.08,-2.3000000000000003,0.0,0.0,0.0,0.0,0.0,0.84,0.2,0.0,0.0,-3.3000000000000003,-31.96,-48.68000000000001,-58.900000000000006,-67.94000000000003,-125.28000000000006,-59.039999999999885,-37.68000000000004,-78.46000000000011,10.040000000000031,41.37999999999999,-10.400000000000011,-44.86000000000001,-27.39999999999997,-29.07999999999998,-6.140000000000002,-17.380000000000003,-35.38,-24.340000000000003,0.0,0.0,0.0,0.0,0.0,2.88,0.7000000000000001,4.04,24.079999999999995,10.1,-15.679999999999998,-15.04,-54.93999999999999,-28.800000000000008,-38.620000000000104,-48.36000000000006,-5.819999999999959,22.320000000000007,-23.040000000000003,-18.77999999999998,-41.779999999999916,-34.839999999999996,-3.8800000000000034,-40.840000000000025,-13.160000000000007,-3.660000000000008,-24.79999999999999,-66.06000000000002,-30.380000000000006,0.0,0.0,0.0,0.0,0.4,1.82,7.359999999999999,65.38000000000001,41.720000000000006,-26.019999999999996,-52.79999999999997,-50.58000000000005,-37.980000000000054,-53.52000000000009,-44.30000000000009,4.35999999999996,-15.919999999999877,27.760000000000137,-37.619999999999884,-42.25999999999984,4.619999999999975,32.45999999999999,15.340000000000003,15.179999999999922,41.02000000000001,7.499999999999996,-20.26,-67.36,-6.960000000000001,0.0,0.0,0.0,-1.0,5.0600000000000005,-6.54,2.7600000000000042,-2.4800000000000244,-47.97999999999997,-41.419999999999824,-52.319999999999986,-2.3000000000000056,4.999999999999991,-54.19999999999999,0.44000000000001693,-51.759999999999955,-32.4799999999998,-27.67999999999991,-51.11999999999989,-27.56000000000006,-49.49999999999997,9.940000000000044,-15.279999999999983,-16.799999999999955,11.320000000000004,-33.79999999999999,-70.09999999999998,-5.68,0.0,0.0,-1.76,-4.4,0.0,3.5,-30.99999999999999,-92.16000000000004,-25.739999999999988,-74.69999999999997,-30.360000000000014,-32.320000000000086,-41.74,28.579999999999963,-53.89999999999989,-7.499999999999939,-69.5799999999997,-6.739999999999937,6.6399999999999775,-40.50000000000005,-17.48000000000001,6.60000000000004,1.0200000000000085,-12.099999999999996,-14.340000000000051,-81.16000000000003,-42.059999999999995,-4.9,-2.46,0.0,-1.44,-3.54,0.0,6.5600000000000005,-33.8,-73.69999999999999,-8.459999999999992,-43.35999999999999,-75.48000000000005,-21.4,-46.299999999999976,4.419999999999989,-27.659999999999943,-13.47999999999996,-1.2199999999999172,-53.85999999999963,17.940000000000005,-10.839999999999959,-22.219999999999963,-12.499999999999948,-24.20000000000004,-5.9000000000000306,-66.24000000000004,-102.36000000000001,-45.940000000000005,-6.06,-1.82,0.0,-7.800000000000001,-2.3000000000000003,-1.92,-14.739999999999998,-62.559999999999995,-64.15999999999997,4.559999999999993,-19.99999999999995,-30.53999999999996,-13.060000000000015,-3.5399999999999907,-3.159999999999987,-15.90000000000004,19.76000000000014,56.08000000000054,-13.83999999999987,-5.8199999999999115,4.400000000000038,-51.31999999999985,-36.15999999999991,1.880000000000007,-29.87999999999999,-52.880000000000024,-51.59999999999997,-44.78000000000001,-9.040000000000003,-4.08,0.0,-0.8999999999999999,-1.16,-19.22,-25.56000000000001,-59.739999999999995,-85.26000000000002,-54.33999999999997,9.039999999999994,-15.659999999999998,8.040000000000008,-10.49999999999999,-1.1199999999999772,-1.7799999999999625,41.30000000000024,61.56000000000069,49.80000000000022,1.560000000000115,-58.45999999999976,-31.679999999999986,-47.45999999999997,-13.12000000000001,-30.879999999999992,-64.5,-87.18000000000002,-51.480000000000004,-12.88,-1.1,0.0,0.0,0.0,-13.26,-27.300000000000008,-35.36,-74.70000000000002,-65.96,-46.29999999999997,-71.70000000000002,-43.219999999999985,-18.620000000000015,-27.180000000000078,17.839999999999986,26.70000000000044,75.04000000000062,33.96000000000031,-1.7799999999999567,-10.019999999999984,-23.879999999999935,6.859999999999993,0.05999999999999958,-17.400000000000013,-16.93999999999999,-46.279999999999994,-17.42,-0.8999999999999999,3.1200000000000006,0.0,0.0,-2.04,-2.0999999999999996,-2.5000000000000018,-20.260000000000005,-2.2400000000000038,-7.460000000000004,-39.66000000000003,-36.140000000000015,-46.49999999999994,-20.299999999999958,-25.55999999999991,16.260000000000048,85.56000000000127,31.080000000000524,40.12000000000014,8.260000000000028,15.860000000000007,-38.53999999999998,-18.860000000000042,20.740000000000006,-2.420000000000001,-0.13999999999999968,-18.46,-18.48,-19.520000000000003,-0.09999999999999987,0.0,0.0,-0.68,1.62,10.620000000000001,-6.539999999999999,9.98,-14.139999999999999,-11.119999999999996,9.320000000000036,-66.91999999999996,-76.5599999999996,24.05999999999995,19.420000000000414,30.38000000000087,53.000000000000625,29.820000000000007,49.33999999999992,-31.75999999999988,-68.81999999999991,-24.999999999999986,-13.520000000000003,-30.56,-16.7,-22.34,-21.759999999999998,-16.36,0.0,0.0,0.0,0.22,3.9800000000000004,8.52,2.1800000000000006,-14.720000000000002,-48.08000000000002,8.280000000000003,-33.02000000000001,-102.62000000000002,-62.76000000000015,34.98000000000003,29.22000000000027,21.880000000000187,44.20000000000043,-10.059999999999889,-9.100000000000014,-71.57999999999994,-64.66000000000001,-14.819999999999997,-21.3,0.3999999999999999,3.599999999999999,5.819999999999999,-2.8600000000000003,0.54,0.0,0.0,0.0,1.28,0.26,0.0,-17.52,-34.39999999999999,-22.9,27.119999999999987,-27.44,-65.31999999999987,19.280000000000005,32.52000000000008,80.82000000000026,45.64000000000056,2.840000000000171,68.60000000000062,-33.73999999999998,-79.42000000000004,-79.75999999999998,-35.37999999999998,-7.46000000000001,-2.5399999999999987,-10.520000000000001,-9.88,-0.040000000000000036,0.4,0.0,0.0,0.0,0.84,0.0,3.44,-14.519999999999998,-21.560000000000002,-26.559999999999988,-51.08000000000002,1.8800000000000052,-16.739999999999966,11.680000000000032,2.359999999999984,8.500000000000153,40.8400000000003,-80.25999999999979,4.880000000000022,-46.779999999999845,-49.69999999999988,-46.00000000000003,-15.600000000000005,-13.119999999999997,-21.959999999999994,-24.18,21.619999999999997,-8.240000000000002,9.239999999999998,0.0,0.0,0.0,0.0,0.0,0.74,-28.0,-49.30000000000002,-36.199999999999974,-19.14,-68.98000000000005,14.140000000000024,-53.13999999999971,41.340000000000074,72.54000000000056,65.14000000000071,39.38000000000007,-11.120000000000026,-103.57999999999981,-9.14000000000007,-7.739999999999975,-22.619999999999962,-13.439999999999982,0.9800000000000018,-21.280000000000015,9.420000000000003,-36.24,3.579999999999999,0.0,0.0,0.0,-0.9199999999999999,-3.1999999999999997,-2.8000000000000003,-66.43999999999997,-165.34000000000006,-27.920000000000023,11.800000000000026,-13.380000000000004,-31.859999999999758,-9.219999999999914,-20.199999999999925,28.06000000000023,42.480000000000416,-19.699999999999974,-68.19999999999973,7.6999999999999424,30.799999999999926,19.940000000000033,5.13999999999999,-1.639999999999993,-33.10000000000001,-47.36000000000001,-1.0200000000000031,5.900000000000004,11.1,8.96,0.0,0.0,-5.779999999999999,-13.52,-8.139999999999999,-93.85999999999999,-70.0200000000001,41.48000000000003,-25.639999999999993,0.6400000000000405,-15.87999999999991,-34.81999999999989,5.399999999999968,3.2200000000000792,-27.759999999999824,-4.9399999999999356,47.259999999999934,-63.859999999999935,-20.819999999999993,-20.200000000000017,12.639999999999993,1.9599999999999778,-70.72000000000001,-38.64000000000001,-1.5599999999999996,17.04,3.619999999999999,3.84,0.0,0.0,-4.12,-15.92,-10.039999999999992,-99.54000000000008,-16.759999999999966,-12.77999999999995,43.96000000000008,-5.3999999999999835,17.600000000000296,43.76000000000028,48.30000000000017,-2.7599999999999416,-0.07999999999994944,-78.27999999999969,7.000000000000004,52.55999999999988,41.59999999999984,21.219999999999928,8.3,27.340000000000007,-15.360000000000017,-27.620000000000005,-2.019999999999997,-0.26000000000000023,13.9,0.0,0.0,0.0,-1.36,8.64,24.19999999999997,26.85999999999996,42.43999999999996,-14.839999999999975,15.140000000000054,-27.00000000000005,31.4400000000002,-44.25999999999994,-15.57999999999979,24.100000000000154,26.219999999999978,38.340000000000224,1.1200000000000139,-34.57999999999995,31.639999999999915,-45.259999999999984,25.080000000000002,39.71999999999996,-54.15999999999995,-26.899999999999995,21.020000000000007,21.88,2.1,0.0,0.0,0.0,-0.02,1.2199999999999998,9.12,94.4799999999999,28.91999999999998,-23.839999999999996,-11.139999999999985,25.39999999999997,-49.15999999999994,-17.400000000000006,-70.73999999999957,-10.559999999999981,-3.7399999999999194,3.960000000000038,-0.4599999999999733,50.720000000000105,83.5200000000001,-4.919999999999994,45.919999999999995,-1.6999999999999933,-53.76000000000006,-5.279999999999999,12.060000000000002,10.24,2.7,0.0,0.0,0.0,0.0,-10.259999999999998,-52.82000000000002,47.52000000000005,52.46000000000002,-3.0600000000000023,-21.080000000000034,6.220000000000001,-12.859999999999925,-26.019999999999996,39.66000000000005,2.58000000000001,-30.099999999999863,66.10000000000007,32.39999999999995,46.78000000000001,3.539999999999977,-20.540000000000006,-27.46000000000002,-43.839999999999996,-28.58000000000002,-19.939999999999998,3.2999999999999994,10.18,18.7,0.0,0.0,0.0,0.0,-5.36,-23.119999999999997,-23.87999999999997,-1.2399999999999936,-6.480000000000009,-32.399999999999984,-21.69999999999999,-66.13999999999994,-32.999999999999915,-65.93999999999991,-74.99999999999977,-23.03999999999996,-72.34000000000002,-112.2600000000001,-28.119999999999987,-0.9999999999999916,-0.7999999999999989,-10.2,-12.019999999999994,-11.44,-5.46,-4.22,-0.7000000000000001,0.0,0.0,0.0,0.0,0.0,-1.02,-18.44,-31.08,-32.82000000000001,-60.86000000000001,-109.53999999999999,-140.59999999999997,-169.98000000000002,-165.57999999999998,-126.05999999999992,-107.42000000000014,-82.04000000000018,-126.32000000000005,-90.58000000000004,-83.22000000000001,-58.94000000000002,-51.620000000000005,-27.28,-3.98,0.0,0.0,0.0,0.0,0.0,0.0,0.0,0.0,0.0,0.0,-7.5,-10.6,-3.88,-4.36,-20.24,-20.519999999999996,-35.120000000000005,-51.680000000000014,-79.46000000000001,-74.03999999999999,-69.32,-55.20000000000001,-40.01999999999998,-24.88,-31.46,-14.72,-5.0600000000000005,-1.86,0.0,0.0,0.0,0.0,0.0,0.0,0.0,0.0,0.0,0.0,0.0,0.0,0.0,0.0,-2.98,-4.44,-2.48,-3.16,0.0,-0.58,-3.44,0.0,0.0,-3.54,-11.52,-0.12,0.0,0.0,0.0,0.0,0.0,0.0,0.0,0.0
0.0,0.0,0.0,0.0,0.0,0.0,0.0,0.0,0.0,0.0,0.0,0.0,0.0,0.0,0.0,0.0,0.0,0.0,0.0,0.0,0.0,0.0,0.0,0.0,0.0,0.0,0.0,0.0,0.0,0.0,0.0,0.0,0.0,0.0,0.0,0.12,-1.6000000000000005,-12.920000000000002,-20.360000000000003,-12.100000000000001,-6.540000000000001,-37.32,-63.339999999999996,-23.240000000000006,-3.0600000000000014,-17.76,-8.52,-6.66,-3.36,-4.12,-2.84,0.0,0.0,0.0,0.0,0.0,0.0,0.0,0.0,0.0,0.0,0.0,0.0,-8.139999999999999,-18.16,-5.560000000000001,-97.06000000000006,-83.21999999999998,-75.64000000000006,-90.30000000000001,-111.1600000000001,-30.55999999999992,-42.179999999999936,-84.76000000000005,-86.75999999999993,-89.85999999999999,-62.800000000000004,-22.980000000000004,-26.820000000000007,-7.140000000000001,0.0,0.0,0.0,0.0,0.0,0.0,0.0,0.0,-0.48,-9.08,-6.14,-6.319999999999999,-28.740000000000013,16.300000000000026,4.520000000000015,-20.740000000000027,-17.320000000000007,-3.159999999999977,-21.85999999999995,-59.01999999999989,-22.48000000000004,-3.0799999999999956,-36.37999999999985,9.58000000000005,-43.37999999999995,-35.82000000000001,-38.68000000000001,-43.38,-14.540000000000001,-0.14,0.0,0.0,0.0,0.0,0.0,-7.600000000000001,-29.639999999999997,-15.81999999999999,42.22000000000002,27.76000000000002,10.879999999999994,82.93999999999977,8.899999999999958,-21.140000000000008,18.559999999999974,1.759999999999938,13.479999999999956,-52.37999999999998,3.2199999999999513,-12.759999999999902,-8.080000000000206,-35.420000000000044,-43.95999999999981,-88.67999999999974,-88.77999999999992,-77.4,-64.72,-20.580000000000002,-1.26,-1.26,0.0,0.0,0.0,1.9800000000000009,10.360000000000003,-24.239999999999995,5.97999999999999,27.020000000000003,7.420000000000087,-89.79999999999998,-0.29999999999989857,42.919999999999824,7.100000000000106,25.620000000000033,25.00000000000034,33.66000000000013,43.46000000000005,14.800000000000137,62.639999999999986,0.06000000000001382,26.300000000000054,-2.0799999999999947,27.72000000000001,-75.24000000000002,-87.28000000000002,-19.24000000000001,-5.58,-1.86,0.0,0.0,-11.8,-21.2,2.700000000000003,-70.97999999999998,-35.09999999999994,26.840000000000003,16.940000000000012,-4.49999999999998,38.32000000000015,30.600000000000072,-22.879999999999875,41.64000000000013,5.440000000000107,-8.779999999999864,14.140000000000313,-23.740000000000105,-23.30000000000004,15.920000000000181,-32.01999999999975,-7.579999999999999,-49.020000000000124,-70.88000000000002,-74.38000000000002,-22.34000000000001,-1.96,0.0,0.0,0.0,25.78000000000001,-6.000000000000005,42.58000000000002,-15.839999999999966,40.58000000000007,-47.84000000000009,43.24000000000002,20.10000000000006,-17.92,47.62000000000016,8.240000000000068,-6.319999999999826,33.16000000000015,-55.11999999999929,53.58000000000033,-73.1199999999998,12.279999999999914,-52.37999999999983,9.040000000000184,6.100000000000047,48.62000000000009,-118.4799999999995,-134.16000000000003,-23.02,-2.8,0.0,0.0,0.0,3.6399999999999997,-32.4,44.980000000000054,-32.000000000000014,9.760000000000023,-15.000000000000005,8.420000000000009,5.719999999999999,17.820000000000228,7.960000000000083,-17.340000000000003,-10.739999999999917,-6.320000000000007,-11.239999999999934,-25.36000000000006,-8.220000000000146,-64.86000000000013,-2.760000000000148,91.48000000000016,-9.73999999999998,-18.51999999999999,-21.239999999999988,-177.6599999999999,-52.79999999999999,-4.54,0.0,0.0,-8.040000000000001,-22.619999999999994,-24.12000000000001,-22.819999999999997,24.480000000000032,-64.78000000000002,-29.980000000000075,-10.360000000000067,20.579999999999984,2.7600000000000167,38.02000000000006,-16.400000000000073,-24.339999999999932,-9.179999999999927,23.05999999999993,30.52000000000001,-32.04000000000006,25.480000000000025,-0.45999999999994434,-8.519999999999712,-50.139999999999596,-7.01999999999998,-7.179999999999966,-131.17999999999995,-52.10000000000003,1.5599999999999994,0.0,0.0,-10.82,-17.0,-41.94000000000003,-49.96,-8.600000000000028,79.77999999999996,-31.899999999999995,63.54000000000034,-1.2200000000000388,1.200000000000014,32.83999999999993,5.659999999999887,-12.380000000000049,2.4599999999999875,-61.879999999999974,-17.299999999999997,9.299999999999983,18.059999999999974,0.19999999999995488,26.36000000000015,43.560000000000066,-62.18000000000014,-53.58000000000004,-78.26000000000008,-34.35999999999999,9.14,0.0,0.0,-1.98,-5.499999999999999,-88.23999999999998,-49.54000000000001,69.88000000000021,64.54,-44.35999999999996,-79.26,-45.69999999999973,-148.25999999999956,-122.37999999999974,-128.7599999999998,-137.74000000000004,-97.2399999999999,-6.259999999999894,-30.400000000000126,-39.69999999999999,9.620000000000001,39.32000000000028,-36.75999999999973,-7.099999999999959,-19.51999999999998,-34.839999999999996,-46.52000000000002,20.519999999999992,7.8199999999999985,-13.100000000000001,0.0,0.0,-2.6799999999999997,-102.48000000000002,-36.279999999999966,-0.6400000000000219,-188.4200000000006,-162.42000000000073,-56.95999999999983,-69.58000000000003,-84.45999999999955,-107.10000000000059,-105.76000000000039,-33.62000000000041,-130.35999999999962,-81.9199999999998,-41.96000000000008,-66.06000000000026,5.999999999999946,44.720000000000034,22.520000000000024,19.500000000000014,-22.579999999999938,-174.60000000000002,19.42000000000001,90.84,34.92,-6.7,0.0,0.0,-0.56,-94.58,-184.66000000000025,-196.67999999999978,-168.14000000000024,-117.91999999999963,-38.06000000000031,-7.820000000000039,-16.27999999999992,14.540000000000072,10.459999999999932,17.740000000000038,-33.20000000000024,-49.63999999999979,-53.97999999999996,9.420000000000067,-8.19999999999998,-48.879999999999605,-23.599999999999987,-14.23999999999991,-27.30000000000007,-57.06000000000021,45.64,128.17999999999998,104.26000000000005,44.9,0.0,-14.780000000000003,-6.9,-70.68,-120.61999999999995,-133.1200000000001,-60.53999999999989,21.900000000000023,-6.239999999999984,25.37999999999998,-32.7199999999997,2.039999999999971,-4.379999999999968,-3.3400000000000065,16.57999999999985,-39.3799999999999,-18.25999999999997,-56.75999999999951,20.140000000000178,-24.660000000000117,7.9799999999999365,-15.120000000000072,-18.920000000000176,-4.220000000000068,-47.320000000000064,77.17999999999998,103.80000000000001,3.0000000000000004,0.0,-22.6,-21.419999999999998,-20.72000000000001,16.660000000000007,99.90000000000013,77.45999999999984,-66.5799999999998,-20.360000000000017,44.91999999999995,8.900000000000048,55.1400000000002,2.199999999999976,-20.819999999999922,-6.059999999999965,-10.979999999999539,9.960000000000123,-38.059999999999945,-27.219999999999665,20.35999999999992,-47.04000000000011,-25.919999999999952,-47.9600000000001,-66.58000000000023,37.77999999999999,79.57999999999983,141.42,26.82,0.0,-10.700000000000001,-49.500000000000014,40.58,3.0399999999999445,-27.160000000000053,39.65999999999992,51.00000000000003,-22.68000000000014,20.08,17.58000000000007,-11.719999999999878,-11.57999999999992,42.099999999999945,-24.040000000000052,-7.499999999999995,13.600000000000453,11.819999999999984,-38.240000000000016,-12.559999999999878,-65.42,18.180000000000106,9.279999999999891,-2.4800000000000226,1.4599999999999858,104.61999999999996,150.88000000000002,25.220000000000002,0.0,-3.7,-48.42,7.9600000000000035,-38.93999999999997,16.100000000000048,39.06000000000044,-17.90000000000008,16.29999999999993,2.599999999999927,-1.7399999999999962,16.320000000000054,10.440000000000168,26.52000000000026,29.159999999999865,56.600000000000314,-13.71999999999992,-65.23999999999982,15.619999999999958,-37.79999999999979,-23.719999999999953,-50.05999999999999,-32.38000000000002,6.67999999999998,16.159999999999926,184.67999999999995,82.10000000000002,5.68,0.0,0.0,-45.36,-43.22000000000005,33.33999999999993,55.980000000000125,37.23999999999996,12.219999999999809,-17.47999999999993,26.78,23.28000000000015,-20.160000000000096,36.56000000000031,19.760000000000083,22.460000000000257,40.84000000000001,32.9000000000001,50.419999999999916,-2.4799999999999134,48.980000000000004,10.460000000000084,1.8400000000000314,25.080000000000172,36.47999999999987,146.40000000000018,129.83999999999995,4.919999999999989,0.0,0.0,-2.08,-32.88000000000002,-58.66,29.70000000000006,2.3200000000000793,-2.3799999999999377,-11.260000000000032,-1.3599999999999703,22.439999999999948,30.699999999999747,13.400000000000235,-3.7200000000000326,42.12000000000006,2.540000000000142,10.979999999999938,19.44000000000001,68.64000000000001,13.860000000000031,-17.019999999999953,33.36000000000003,8.039999999999882,-3.5999999999998877,-2.600000000000029,41.13999999999997,115.65999999999998,33.52,-0.52,0.0,-5.24,10.040000000000001,-12.460000000000033,41.179999999999964,-1.45999999999994,78.50000000000011,100.70000000000023,32.720000000000084,32.92000000000008,2.6199999999999513,18.320000000000373,21.06000000000014,6.4400000000000315,46.66000000000003,-28.839999999999822,10.02000000000007,-90.94000000000011,-5.640000000000018,3.7999999999999994,-4.64,35.54000000000004,16.380000000000045,52.47999999999997,118.39999999999992,49.48000000000005,13.36,-2.04,0.0,0.0,16.619999999999994,-46.58000000000002,-19.22000000000008,-24.079999999999963,-22.1799999999999,-28.339999999999854,-25.779999999999852,29.359999999999957,-2.119999999999986,-7.479999999999806,-42.74000000000008,-38.34000000000013,-22.620000000000086,-43.88000000000011,4.420000000000157,-19.08000000000011,-22.459999999999948,61.360000000000205,-6.400000000000058,24.280000000000058,76.22000000000068,107.25999999999986,18.080000000000055,28.660000000000036,5.88,0.0,0.0,0.0,0.06000000000000094,-55.38000000000001,2.5399999999999885,-7.739999999999995,51.88000000000017,51.23999999999998,64.58000000000024,26.00000000000027,-13.760000000000005,27.399999999999746,-19.859999999999765,4.4000000000000945,-16.800000000000026,-46.80000000000014,-31.1000000000002,18.940000000000058,-18.460000000000036,-0.8800000000000789,16.639999999999805,-0.7999999999999585,87.2200000000001,34.38000000000011,43.93999999999997,22.34000000000001,-5.4399999999999995,0.0,0.0,0.0,0.2,-32.739999999999995,9.319999999999993,-38.20000000000001,12.919999999999982,-27.96000000000007,-6.279999999999927,-15.979999999999766,-37.979999999999876,-39.15999999999988,-18.539999999999967,-61.49999999999969,-18.819999999999858,-34.88000000000007,1.880000000000031,-44.77999999999996,50.83999999999993,26.580000000000055,51.5799999999999,77.41999999999996,73.16,-4.200000000000015,25.600000000000016,20.939999999999994,-4.12,0.0,0.0,0.0,-4.2,-59.19999999999999,-75.31999999999998,-78.28000000000009,-98.59999999999994,-87.97999999999993,-59.97999999999996,-29.379999999999992,-17.319999999999947,-69.06000000000009,13.65999999999999,-3.0199999999999587,2.260000000000043,-6.900000000000011,-75.98000000000003,-25.039999999999957,28.659999999999968,-16.340000000000014,-39.85999999999997,17.540000000000017,3.480000000000004,4.600000000000006,79.14000000000001,42.72,0.0,0.0,0.0,0.0,0.0,-25.759999999999998,-50.43999999999999,-83.30000000000001,-76.53999999999999,-111.86000000000007,-146.85999999999996,-152.25999999999993,-129.66,-121.94,-154.92000000000016,-128.40000000000015,-53.57999999999999,-44.64,-54.780000000000044,-31.560000000000027,-124.99999999999989,-94.16000000000003,-44.320000000000014,-63.98000000000002,-68.03999999999999,-36.84,-2.4200000000000004,0.0,0.0,0.0,0.0,0.0,0.0,0.0,-6.720000000000001,-8.940000000000001,-11.939999999999998,-32.18,-33.92,-32.64,-49.71999999999999,-60.90000000000001,-40.81999999999999,-45.94,-41.72,-56.42,-51.98000000000001,-29.820000000000007,-22.4,-14.18,-15.72,-15.180000000000001,-3.3000000000000003,0.0,0.0,0.0,0.0,0.0,0.0,0.0,0.0,0.0,0.0,0.0,0.0,-2.8000000000000003,-5.08,-1.26,-6.0600000000000005,-8.52,-1.3800000000000001,-1.28,-3.7600000000000002,-4.5200000000000005,-0.48,0.0,0.0,0.0,0.0,0.0,0.0,0.0,0.0,0.0,0.0,0.0
0.0,0.0,0.0,0.0,0.0,0.0,0.0,0.0,0.0,0.0,0.0,0.0,0.0,0.0,0.0,0.0,0.0,0.0,0.0,0.0,0.0,0.0,0.0,0.0,0.0,0.0,0.0,0.0,0.0,0.0,0.0,0.0,0.0,0.0,0.0,0.0,0.0,0.0,0.0,0.0,0.0,0.0,0.0,0.0,0.0,0.0,0.0,0.0,0.0,0.0,0.0,0.0,0.0,0.0,0.0,0.0,0.0,0.0,0.0,0.0,0.0,0.0,0.0,0.0,0.0,-12.9,-16.88,-3.3200000000000003,2.6599999999999997,-5.379999999999999,-10.799999999999997,-46.859999999999985,-20.799999999999997,-17.58,-29.80000000000001,-35.46000000000001,-21.04,-14.24,-8.0,-4.88,0.0,0.0,0.0,0.0,0.0,0.0,0.0,0.0,0.0,4.600000000000004,-16.76000000000001,13.02,36.499999999999986,-17.91999999999996,-10.460000000000033,15.079999999999998,31.06000000000001,-70.26000000000008,39.72000000000004,48.099999999999966,-19.099999999999998,2.4799999999999445,14.080000000000021,59.94000000000003,108.46000000000001,-14.340000000000007,-60.14000000000003,-22.36,-6.18,0.0,0.0,0.0,0.0,0.0,0.0,4.5,12.299999999999997,34.92000000000001,-13.619999999999997,21.339999999999982,52.57999999999989,22.00000000000002,18.299999999999955,14.299999999999953,73.24000000000008,-3.359999999999945,33.59999999999993,-11.240000000000157,26.719999999999985,-36.879999999999775,44.699999999999896,-46.699999999999946,-38.88000000000006,-44.85999999999984,-49.9400000000001,-121.29999999999998,-19.120000000000005,-2.96,0.0,0.0,0.0,0.0,-2.12,19.180000000000003,48.94000000000004,73.45999999999991,27.899999999999874,33.95999999999996,-15.359999999999937,-5.820000000000034,32.90000000000023,38.48000000000012,49.520000000000124,-29.919999999999856,30.18000000000015,5.380000000000024,13.419999999999952,-69.47999999999996,-37.079999999999885,28.419999999999966,-30.039999999999836,-69.63999999999974,-19.360000000000007,-86.71999999999989,-34.33999999999999,-6.98,0.0,0.0,0.0,0.28,-3.34,-11.299999999999999,50.74000000000005,-24.57999999999999,13.799999999999994,-42.159999999999876,-2.219999999999997,26.65999999999998,0.7799999999998484,34.06000000000027,4.560000000000062,68.42000000000047,-13.819999999999782,47.50000000000054,19.94000000000026,6.240000000000073,35.160000000000515,-74.4199999999995,30.639999999999944,-21.559999999999985,24.07999999999992,-54.419999999999945,-24.94,-17.96,-1.42,0.0,-0.9400000000000001,5.619999999999999,-42.880000000000024,-30.06,38.7599999999999,24.119999999999933,40.3200000000001,-17.780000000000058,12.020000000000108,20.35999999999989,-38.57999999999978,20.900000000000205,15.140000000000098,25.420000000000094,37.820000000000256,11.699999999999918,4.220000000000143,27.219999999999864,-16.120000000000186,26.080000000000048,5.4600000000000515,-88.75999999999983,-51.59999999999998,-114.46000000000006,-115.12000000000003,-35.20000000000001,-5.16,0.0,-3.8200000000000003,-20.56,-89.71999999999998,-47.87999999999997,39.920000000000016,-30.499999999999957,8.439999999999944,10.420000000000062,-16.379999999999747,-42.9999999999998,-1.9799999999999,-6.860000000000017,54.20000000000043,2.7200000000000144,9.380000000000326,31.700000000000557,-21.35999999999984,-37.98000000000023,88.59999999999997,-7.059999999999938,-17.55999999999984,-23.540000000000116,40.56000000000011,-175.83999999999972,-210.2000000000001,-67.66,-3.64,0.0,-0.62,-15.34,-42.880000000000024,-2.7599999999999985,23.93999999999993,24.68000000000002,63.68000000000011,-10.680000000000089,-46.33999999999998,-13.780000000000038,-22.82,-84.05999999999979,-53.45999999999979,-16.139999999999855,-47.47999999999983,17.460000000000043,15.480000000000267,47.7800000000004,-43.319999999999844,7.920000000000064,51.58000000000046,52.18000000000016,58.40000000000017,-159.54000000000008,-237.16,-47.780000000000015,-6.540000000000001,0.0,0.0,-10.14,-23.320000000000004,44.83999999999999,27.02000000000004,-4.639999999999977,4.499999999999962,-0.4799999999999432,14.519999999999989,-102.4399999999997,-60.61999999999994,-57.99999999999936,-124.35999999999936,49.82000000000007,23.540000000000536,5.5600000000001994,9.380000000000132,29.49999999999997,21.440000000000428,-6.699999999999911,24.499999999999993,37.080000000000204,52.96000000000011,-47.36000000000007,-124.2400000000001,-23.259999999999994,-3.8200000000000003,0.0,0.0,-8.52,-40.14000000000001,61.28,33.139999999999965,-30.379999999999974,-57.08000000000009,-108.97999999999995,-111.09999999999948,-68.17999999999947,-65.05999999999966,-62.559999999999434,10.380000000000113,4.819999999999907,0.2800000000001788,79.66000000000021,32.24000000000007,70.28000000000027,47.60000000000069,-3.1199999999998793,1.3799999999999795,-2.779999999999981,-20.220000000000013,-114.44000000000018,-83.08000000000001,16.4,0.0,0.0,0.0,-8.7,-38.400000000000006,-11.159999999999984,-37.46000000000007,-50.73999999999991,-80.81999999999987,-81.85999999999979,-78.98000000000005,-20.219999999999878,-0.05999999999988237,-23.139999999999787,44.000000000000114,-23.879999999999775,66.36000000000064,24.380000000000187,30.820000000000558,-23.059999999999814,-14.439999999999955,18.34000000000023,-33.01999999999971,-118.21999999999991,-181.39999999999984,-171.23999999999998,-64.68000000000002,12.879999999999999,0.0,0.0,0.0,-15.180000000000001,-32.78,-27.44,-68.03999999999998,-56.79999999999994,-27.760000000000144,-15.660000000000005,-25.800000000000022,-35.68,-43.42000000000005,-4.3999999999999595,12.840000000000261,32.660000000000494,0.16000000000064651,-43.339999999999094,38.16000000000052,44.70000000000015,-19.039999999999782,-51.73999999999941,-37.51999999999982,-101.21999999999991,-197.91999999999996,-98.58000000000013,-56.23999999999999,3.66,-2.980000000000001,-7.000000000000001,-2.2600000000000002,-5.279999999999999,-18.52,7.160000000000002,-40.78000000000001,-53.599999999999966,-64.82000000000008,-14.339999999999966,-30.659999999999926,-6.839999999999902,-18.439999999999422,-0.019999999999809503,94.64000000000021,-10.839999999999637,8.860000000000213,-16.379999999999697,31.600000000000392,17.28000000000023,-59.87999999999958,-38.499999999999936,-122.18000000000015,75.19999999999995,-2.840000000000061,-3.5199999999999925,-52.37999999999999,-22.160000000000004,-30.34,-5.2,-0.74,4.16,14.219999999999999,34.66000000000002,-45.45999999999998,-25.83999999999999,1.9999999999999463,-26.239999999999938,-27.200000000000045,-39.3599999999999,-6.299999999999953,-40.679999999999886,35.18000000000014,8.040000000000354,37.66000000000014,43.140000000000036,17.42000000000016,-72.03999999999908,-31.40000000000004,-29.519999999999932,95.29999999999968,31.88000000000003,91.6200000000001,80.51999999999991,-32.059999999999995,-91.70000000000002,-45.12,-1.8800000000000001,0.0,2.14,53.70000000000001,72.91999999999996,13.559999999999965,11.020000000000007,-64.39999999999998,-77.51999999999995,-132.45999999999995,57.160000000000096,6.460000000000017,26.50000000000012,23.32000000000024,26.300000000000068,-60.539999999999615,-24.65999999999949,-62.27999999999956,-25.639999999999816,36.53999999999958,32.68000000000008,73.28000000000017,2.5000000000000417,-11.519999999999984,39.38000000000004,-6.600000000000016,-109.35999999999999,-43.199999999999996,-2.06,0.0,0.74,56.54,64.17999999999999,22.719999999999917,20.000000000000107,-52.85999999999994,27.839999999999975,33.31999999999993,-118.09999999999991,-109.33999999999959,-103.76000000000045,-29.399999999999878,-70.98000000000012,-86.16000000000041,-72.21999999999966,26.70000000000023,28.62000000000002,-21.979999999999947,9.520000000000058,20.359999999999985,39.839999999999876,84.28000000000004,54.47999999999997,-56.840000000000124,-98.47999999999999,-17.199999999999996,0.0,0.0,0.0,22.199999999999996,109.40000000000009,-48.58000000000003,45.56000000000004,1.0000000000000782,-49.33999999999989,-34.11999999999994,-37.18000000000025,-89.87999999999998,-122.35999999999973,-143.1600000000011,-139.8999999999997,-68.46000000000001,-3.259999999999948,45.980000000000466,-20.559999999999956,23.100000000000644,54.30000000000035,-2.319999999999932,97.14000000000043,72.51999999999991,-31.50000000000005,-127.65999999999998,-64.42,-6.32,0.0,0.0,0.0,-11.100000000000007,111.43999999999994,-3.2400000000000393,59.699999999999854,-8.240000000000027,-0.1599999999999806,-48.62,-51.16000000000003,-28.279999999999973,-33.279999999999475,-14.659999999999915,-21.959999999999663,-51.85999999999982,-8.359999999999559,16.90000000000009,93.32000000000086,40.820000000000356,27.180000000000206,8.780000000000047,55.72000000000001,-4.859999999999966,42.19999999999999,-81.44000000000005,-61.44,-22.4,0.0,0.0,0.0,-6.320000000000002,101.90000000000006,65.75999999999993,9.039999999999953,22.799999999999997,-1.8800000000000665,-9.759999999999923,36.18000000000019,-24.319999999999887,-7.339999999999966,-48.89999999999988,-36.519999999999875,17.020000000000326,-15.45999999999974,-41.33999999999962,6.680000000000065,88.01999999999987,-47.079999999999814,70.42,-32.53999999999983,-70.32000000000006,-1.8799999999999066,-105.74000000000005,-31.620000000000005,-9.44,0.0,0.0,0.0,-11.980000000000006,10.180000000000028,-5.13999999999996,15.379999999999908,15.060000000000064,0.12000000000003563,16.540000000000184,-34.71999999999985,1.8400000000000913,-13.839999999999844,-20.69999999999996,-33.5399999999995,33.34000000000025,-20.259999999999838,22.78000000000016,-34.09999999999983,15.819999999999924,58.9200000000001,-53.65999999999987,-60.25999999999995,-6.359999999999929,-104.52000000000008,-116.86000000000007,-4.120000000000001,0.0,0.0,0.0,0.0,-32.419999999999995,9.460000000000031,51.41999999999991,-11.86000000000004,-9.039999999999885,47.04000000000007,-45.899999999999885,-7.579999999999946,6.259999999999915,0.3000000000002543,41.84000000000022,12.440000000000046,-18.479999999999695,-10.679999999999952,34.380000000000166,-3.339999999999833,-2.179999999999903,-32.29999999999994,52.61999999999996,-30.179999999999964,5.540000000000062,-58.840000000000025,-70.26000000000002,-5.22,0.0,0.0,0.0,0.0,-1.2400000000000004,8.860000000000003,72.22000000000003,14.040000000000017,38.77999999999999,47.560000000000045,-27.560000000000038,6.9399999999999205,10.420000000000007,-16.939999999999948,-30.939999999999763,36.78000000000016,-41.16000000000008,9.82000000000015,-61.85999999999989,-23.939999999999934,49.92000000000013,36.42000000000004,-34.21999999999983,-43.38000000000002,-66.07999999999993,-47.36000000000001,-28.200000000000003,-0.08000000000000002,0.0,0.0,0.0,0.0,-8.600000000000001,47.279999999999994,74.81999999999998,-32.74,69.09999999999965,78.20000000000009,51.60000000000022,-22.35999999999996,55.7000000000001,27.880000000000116,-0.6599999999998847,-10.259999999999973,13.060000000000077,-10.159999999999965,31.140000000000057,8.259999999999954,-105.9799999999995,-59.74000000000021,-72.39999999999995,-36.7,-16.279999999999998,1.0599999999999996,-2.06,0.0,0.0,0.0,0.0,0.0,0.0,-1.08,-13.32,-27.740000000000002,-34.07999999999999,-10.82,27.23999999999997,50.58000000000009,-6.700000000000015,-0.2800000000000354,-5.059999999999961,-22.57999999999995,5.279999999999997,-10.139999999999983,-43.16000000000003,-45.05999999999993,-29.919999999999938,3.9,-26.539999999999996,-37.040000000000006,-10.540000000000003,-2.08,0.0,0.0,0.0,0.0,0.0,0.0,0.0,0.0,-2.1,1.1799999999999997,-2.34,-2.1799999999999993,-35.06,-73.10000000000001,-66.33999999999999,-86.44,-123.35999999999993,-139.64,-159.26000000000002,-148.77999999999986,-111.32000000000008,-55.27999999999997,-21.55999999999999,-12.42,-8.899999999999999,-6.68,-0.12000000000000005,0.0,0.0,0.0,0.0,0.0,0.0,0.0,0.0,0.0,0.0,0.0,0.0,0.0,0.0,-6.640000000000001,-14.06,-6.48,-3.4000000000000004,-16.08,-15.020000000000001,-15.74,-22.120000000000005,-22.880000000000003,-11.72,-11.66,-3.84,0.0,0.0,0.0,0.0,0.0,0.0,0.0
0.0,0.0,0.0,0.0,0.0,0.0,0.0,0.0,0.0,0.0,0.0,0.0,0.0,0.0,0.0,0.0,0.0,0.0,0.0,0.0,0.0,0.0,0.0,0.0,0.0,0.0,0.0,0.0,0.0,0.0,0.0,0.0,0.0,-0.8,-21.960000000000004,-31.28000000000001,-8.040000000000001,-9.06,-19.900000000000002,-30.74,-49.540000000000006,-23.260000000000005,-4.1800000000000015,-35.099999999999994,-14.540000000000001,-5.180000000000001,-5.5600000000000005,-18.28,-10.760000000000002,-14.7,-32.5,-21.200000000000003,0.0,0.0,0.0,0.0,0.0,0.0,0.0,-1.7399999999999998,-13.4,-3.12,-27.940000000000005,-99.86000000000001,-80.67999999999999,-44.36000000000001,-115.43999999999998,-134.32,-138.04,-87.56,-60.77999999999998,-67.48000000000002,-106.68000000000005,-108.86000000000003,-93.46,-64.47999999999998,-36.180000000000014,-32.82000000000001,-64.74,-28.06,-3.1,0.0,0.0,0.0,0.0,0.0,0.0,-6.34,-1.6800000000000002,-16.26,-54.75999999999999,-112.93999999999998,-122.96000000000005,-122.43999999999991,-107.30000000000004,-123.29999999999997,-206.43999999999988,-250.65999999999985,-149.56000000000006,-108.32000000000004,-133.1,-183.32,-119.86000000000014,-55.48000000000002,-56.98000000000003,-24.979999999999997,-45.80000000000001,-23.22,-20.22,0.0,0.0,0.0,0.0,0.0,0.0,-1.42,2.34,-21.479999999999997,-74.1,-74.74000000000001,-105.94,-103.25999999999999,-48.52000000000002,-60.68000000000001,-66.55999999999986,1.7799999999999967,-126.83999999999999,-38.700000000000074,-19.20000000000001,-64.63999999999997,-75.90000000000002,-36.91999999999997,4.780000000000035,14.639999999999995,22.46,19.739999999999995,36.960000000000015,1.2400000000000002,-3.8199999999999994,0.0,0.0,0.0,-4.7,3.4200000000000004,9.780000000000005,7.7199999999999935,-32.26,-43.17999999999999,-5.460000000000005,-16.859999999999978,-11.760000000000067,13.580000000000032,-47.98000000000011,-45.11999999999996,-10.139999999999906,26.159999999999872,5.659999999999981,29.980000000000004,13.89999999999996,31.259999999999916,5.019999999999971,-0.3200000000000221,9.340000000000003,46.92000000000002,-27.27999999999999,-64.29999999999998,-22.66,-0.84,0.0,0.0,-7.739999999999999,-15.14,22.860000000000017,55.020000000000046,-52.53999999999998,38.27999999999999,-1.9799999999999947,-23.020000000000188,-46.84000000000009,-64.9399999999998,-75.44000000000014,-51.54000000000002,-68.99999999999912,-110.06000000000007,-57.920000000000094,-47.37999999999995,-52.099999999999845,-13.159999999999963,7.679999999999962,-2.1999999999999993,20.400000000000006,115.75999999999985,-34.31999999999995,-56.1,9.939999999999994,-0.22,0.0,0.0,-19.6,-0.2799999999999976,2.9999999999999885,36.62000000000002,-48.70000000000004,20.019999999999996,3.480000000000031,11.180000000000014,-18.740000000000176,-12.359999999999928,-95.83999999999995,-19.60000000000008,-79.49999999999943,-72.16000000000052,-45.78000000000001,10.860000000000127,0.7400000000000357,11.499999999999977,12.05999999999999,63.839999999999954,-0.8599999999999879,39.84000000000004,-25.760000000000005,-67.12000000000002,-25.08,-3.2600000000000002,0.0,-5.5,2.06,-6.599999999999993,-30.220000000000013,19.91999999999999,8.979999999999988,30.960000000000083,-60.75999999999996,15.52000000000007,-21.459999999999937,2.0800000000000547,-56.63999999999994,-64.65999999999993,-61.200000000000415,-38.47999999999992,-75.38000000000012,-1.4000000000001949,12.259999999999916,-2.8400000000000887,-41.960000000000136,-28.379999999999956,-43.81999999999995,-35.41999999999997,-48.280000000000015,-66.77999999999999,-27.780000000000005,-16.06,0.0,-1.6600000000000006,-8.18,-53.260000000000026,-60.860000000000035,1.040000000000016,-10.660000000000029,-16.760000000000005,-12.279999999999935,-35.700000000000095,-63.64000000000016,-50.97999999999997,-15.580000000000082,-41.69999999999988,-87.09999999999968,-64.22000000000007,-34.20000000000009,-36.860000000000014,53.05999999999992,-10.800000000000026,42.560000000000024,23.43999999999991,12.419999999999979,-13.960000000000033,-108.07999999999976,-68.35999999999996,-10.639999999999997,-5.0,0.0,-0.46,-39.779999999999994,-87.56000000000003,5.799999999999995,-52.87999999999989,-61.66000000000007,-7.000000000000025,6.279999999999989,26.960000000000026,-31.660000000000142,-1.6199999999999786,26.319999999999975,-29.51999999999997,-101.89999999999972,18.520000000000003,-39.20000000000021,5.020000000000036,-49.89999999999984,45.06000000000006,-36.27999999999993,-35.3399999999999,-18.97999999999994,-54.05999999999993,-33.779999999999895,-73.00000000000001,-35.179999999999986,0.0,0.0,-1.32,-26.720000000000006,-9.879999999999992,-13.259999999999945,17.000000000000036,-38.18000000000001,-26.11999999999994,-30.91999999999971,20.939999999999884,11.020000000000179,-5.119999999999854,22.779999999999916,-113.93999999999987,-96.2999999999997,35.87999999999984,17.739999999999824,-23.319999999999887,0.5399999999998485,34.16000000000011,-79.42000000000019,-15.660000000000025,-58.33999999999996,-135.0999999999999,-121.67999999999996,-54.97999999999999,-22.6,-0.36,0.0,-8.68,-29.76000000000001,-54.38000000000003,-71.1600000000001,-6.160000000000003,-29.939999999999962,17.839999999999964,-4.46000000000006,-57.32000000000022,37.080000000000204,12.060000000000068,133.9600000000001,-0.2999999999999725,-80.64000000000021,33.49999999999992,60.34000000000011,-25.840000000000117,-26.880000000000102,-19.00000000000012,-43.47999999999985,17.879999999999956,2.81999999999997,-40.83999999999997,-37.21999999999999,-58.800000000000004,-19.2,-3.66,0.0,-12.180000000000001,-20.339999999999996,-91.15999999999993,-109.0399999999998,29.480000000000064,45.42000000000013,27.19999999999993,15.299999999999873,26.039999999999804,68.52,66.97999999999944,43.060000000000116,-56.32,-1.7800000000001823,50.87999999999989,2.879999999999897,6.15999999999992,3.1199999999998953,6.900000000000059,41.55999999999997,21.980000000000018,15.599999999999945,-72.28000000000002,-88.45999999999988,-26.840000000000007,-29.66,-9.72,0.0,-7.5200000000000005,-19.64,-59.29999999999995,64.67999999999996,79.57999999999998,68.86000000000007,74.05999999999979,16.560000000000045,22.619999999999653,-7.959999999999947,25.46000000000012,70.15999999999993,-76.18000000000013,-1.86000000000017,51.17999999999988,29.039999999999914,11.75999999999979,-9.939999999999989,52.360000000000184,8.140000000000025,29.02000000000002,1.9400000000000281,-45.53999999999999,-81.9000000000001,-23.54000000000001,-63.6,-1.08,0.0,0.0,-5.1000000000000005,-6.759999999999997,55.45999999999993,44.64,31.420000000000055,51.88000000000004,21.6400000000002,40.16000000000013,54.24000000000003,16.260000000000186,55.93999999999943,-36.50000000000013,29.560000000000052,-3.8799999999999666,65.29999999999984,22.62000000000021,-17.199999999999974,63.83999999999981,13.480000000000052,-79.09999999999981,56.52000000000006,47.13999999999996,-128.97999999999985,-60.999999999999986,-9.200000000000001,0.24,0.0,0.0,-5.860000000000001,-55.86,-74.18000000000008,-15.620000000000037,-15.399999999999924,16.720000000000148,68.98000000000016,-0.10000000000012599,29.25999999999968,-60.58000000000022,35.51999999999973,5.13999999999999,54.18000000000037,65.02000000000011,31.639999999999972,-9.599999999999804,-0.8800000000000472,-24.239999999999984,63.20000000000025,108.64000000000001,10.76000000000001,6.599999999999987,-73.84000000000002,-96.79999999999998,-63.14,-0.76,0.0,0.0,4.899999999999997,-92.94,-38.41999999999988,48.400000000000055,23.499999999999964,43.92000000000033,26.70000000000045,-28.720000000000155,-10.040000000000006,-21.86000000000003,21.719999999999928,35.97999999999961,57.000000000000085,10.3400000000001,38.019999999999904,39.20000000000007,39.439999999999934,-38.79999999999999,-1.099999999999997,37.12000000000005,-47.00000000000003,33.81999999999998,-95.95999999999995,-108.87999999999995,-38.160000000000004,-13.680000000000001,-3.5999999999999996,0.0,-10.420000000000002,-56.100000000000016,-77.73999999999994,-7.840000000000001,-26.720000000000002,-2.260000000000094,-27.760000000000044,33.51999999999996,-73.03999999999986,-69.37999999999971,42.29999999999984,35.640000000000725,62.47999999999959,7.020000000000037,-6.800000000000033,-60.35999999999968,-67.88000000000005,19.419999999999902,7.739999999999988,4.6800000000000015,-46.939999999999955,13.719999999999978,-70.17999999999998,-80.33999999999997,-3.440000000000001,-1.3599999999999999,0.0,0.0,-18.38,6.140000000000011,-56.00000000000002,64.75999999999998,3.5199999999999827,-56.699999999999996,-65.18000000000006,-51.79999999999994,-60.57999999999998,4.600000000000088,-100.29999999999991,-21.040000000000095,6.219999999999925,-26.86000000000012,5.440000000000031,-35.10000000000004,-52.88000000000003,-48.140000000000036,-42.97999999999993,18.83999999999997,-134.38000000000008,-37.16,-25.17999999999999,-35.86,-0.96,0.0,0.0,0.0,-5.84,-12.020000000000001,-70.28000000000003,-65.41999999999999,0.5999999999999766,-55.44000000000008,-93.9000000000001,-78.17999999999996,-78.1399999999997,9.580000000000037,-13.240000000000004,-38.35999999999997,15.119999999999935,-26.79999999999989,6.5600000000001675,22.739999999999938,8.240000000000002,-4.919999999999993,-60.66000000000004,-78.80000000000007,-42.779999999999966,-34.12000000000005,-42.50000000000002,-10.040000000000001,0.0,0.0,0.0,0.0,-3.38,-38.32000000000001,-55.57999999999998,5.319999999999996,-112.54000000000006,-98.87999999999991,29.18000000000002,0.7999999999999903,14.04000000000003,-27.000000000000107,-35.10000000000027,-23.49999999999981,2.4799999999999516,17.02000000000009,-42.92000000000003,3.0799999999999876,-17.640000000000008,30.11999999999999,-11.139999999999986,-20.839999999999996,17.720000000000017,-3.379999999999994,-44.98000000000002,-11.840000000000002,0.0,0.0,0.0,0.0,0.0,-41.18000000000001,-50.38,-48.219999999999985,-60.67999999999997,-26.740000000000038,-10.819999999999986,-110.66000000000007,-8.74000000000003,-10.600000000000053,-46.26,-8.720000000000022,-23.319999999999947,-26.47999999999999,7.480000000000044,20.919999999999987,9.87999999999999,63.11999999999989,11.099999999999925,94.51999999999991,56.319999999999986,-4.5000000000000036,-49.680000000000014,-18.38,0.0,0.0,0.0,0.0,0.0,-11.88,-21.56,-15.159999999999997,27.74000000000002,10.360000000000019,-14.779999999999996,-36.900000000000034,-20.88000000000005,-28.58000000000008,-23.900000000000063,-40.91999999999994,19.039999999999992,21.020000000000074,29.839999999999947,-14.500000000000012,32.98000000000014,-2.819999999999923,7.060000000000002,-2.6600000000000352,-55.50000000000001,-21.720000000000006,-26.999999999999996,-4.28,0.0,0.0,0.0,0.0,0.0,0.0,-7.46,23.92,71.72000000000007,-2.4599999999999955,52.239999999999924,11.360000000000028,-40.30000000000004,23.55999999999996,-18.780000000000072,-43.180000000000156,-6.15999999999995,-56.9000000000002,2.439999999999985,-15.400000000000048,-7.120000000000014,23.200000000000095,-4.87999999999998,-54.339999999999975,-27.020000000000017,12.419999999999995,-32.78000000000001,1.1400000000000001,0.0,0.0,0.0,0.0,0.0,0.0,3.2800000000000002,0.7799999999999998,-12.659999999999993,-63.33999999999997,-98.73999999999994,-84.58000000000008,-65.39999999999998,-35.85999999999999,-84.03999999999984,-70.98000000000022,-76.25999999999972,-79.20000000000033,-81.99999999999999,-58.07999999999997,-89.32000000000028,-124.86000000000006,-113.10000000000015,-139.1800000000001,-41.71999999999999,6.060000000000002,-28.640000000000008,0.0,0.0,0.0,0.0,0.0,0.0,0.0,6.800000000000001,15.820000000000004,-5.760000000000004,-47.01999999999998,-95.19999999999999,-109.75999999999996,-109.40000000000006,-174.19999999999996,-137.54000000000005,-165.60000000000008,-195.62,-186.4799999999999,-166.87999999999997,-137.78,-107.32000000000004,-88.61999999999999,-81.04000000000002,-66.54000000000002,-34.36,-10.100000000000001,-2.8000000000000003,0.0,0.0,0.0,0.0,0.0,0.0,0.0,0.0,0.0,-4.1000000000000005,-25.38,-33.78,-16.460000000000004,-14.4,-17.04,-13.980000000000002,-14.220000000000002,-46.3,-18.980000000000004,-8.32,-9.18,-19.78,-23.4,-0.44,-7.48,-4.76,0.0,0.0,0.0,0.0,0.0
0.0,0.0,0.0,0.0,0.0,0.0,0.0,0.0,0.0,0.0,0.0,0.0,0.0,0.0,0.0,0.0,0.0,0.0,0.0,0.0,0.0,0.0,0.0,0.0,0.0,0.0,0.0,0.0,0.0,0.0,0.0,0.0,0.0,0.0,0.0,0.0,0.0,0.0,0.0,0.0,-13.32,-12.240000000000002,-1.8800000000000001,0.0,0.0,0.0,0.0,0.0,0.0,0.0,0.0,0.0,0.0,0.0,0.0,0.0,0.0,0.0,0.0,0.0,0.0,0.0,0.0,-4.5,-24.2,-20.720000000000002,-19.480000000000008,-35.86,-51.80000000000001,-71.39999999999999,-79.38000000000002,-75.1,-86.58000000000004,-34.520000000000024,-3.2599999999999967,-52.62000000000001,-43.120000000000005,-30.779999999999998,-12.240000000000002,-4.8,-3.1,0.0,0.0,0.0,0.0,0.0,0.0,-0.9000000000000001,4.76,-11.040000000000001,-5.62,-19.560000000000002,-35.58000000000001,-50.74000000000001,-58.680000000000064,-89.32,-21.67999999999993,-4.780000000000035,-21.539999999999985,-74.79999999999995,-82.55999999999992,9.880000000000017,-17.160000000000014,-45.79999999999998,-22.599999999999994,15.520000000000021,28.58,-66.38000000000001,-38.760000000000005,4.82,2.8200000000000003,0.0,0.0,0.0,0.0,-2.1999999999999997,-23.32,-45.660000000000004,-52.920000000000016,-32.939999999999976,-83.22000000000014,-52.10000000000002,-35.30000000000002,30.159999999999975,-37.33999999999979,-85.51999999999994,-23.43999999999996,-4.899999999999982,33.380000000000024,-17.119999999999894,53.20000000000015,-4.199999999999976,-63.31999999999986,48.11999999999999,27.26000000000007,57.200000000000024,57.38,3.3599999999999937,6.140000000000001,0.0,0.0,0.0,-2.92,-5.140000000000001,-65.41999999999999,-68.51999999999991,-63.47999999999999,-51.91999999999993,-12.039999999999987,-11.019999999999937,8.920000000000016,7.420000000000023,-12.77999999999997,-24.159999999999997,-10.000000000000004,-76.72000000000006,-39.7200000000002,20.679999999999875,41.879999999999804,-55.820000000000014,61.07999999999961,-2.1600000000000437,41.20000000000004,49.47999999999996,17.499999999999986,15.719999999999988,30.20000000000001,0.0,0.0,0.0,-2.6799999999999997,-19.62,-60.039999999999985,-11.76,10.919999999999948,-18.079999999999956,-39.959999999999866,9.640000000000063,2.279999999999918,-9.860000000000044,-18.840000000000067,-14.360000000000035,-5.3800000000001305,-42.66000000000044,-45.02000000000008,-22.300000000000285,-3.7000000000003017,36.77999999999992,12.159999999999933,0.9000000000000075,57.719999999999885,18.099999999999902,125.4200000000001,6.380000000000019,2.1000000000000023,2.12,0.0,0.0,-11.06,-43.02,-167.46000000000006,-7.020000000000014,-32.4599999999999,37.62000000000006,-3.5600000000000147,-35.39999999999995,21.900000000000027,-10.619999999999933,-4.639999999999922,-29.660000000000046,-7.2800000000000455,-29.22000000000011,14.06000000000007,0.16000000000001996,21.039999999999825,17.659999999999812,3.199999999999805,5.579999999999877,23.239999999999913,35.959999999999944,77.799999999999,86.02000000000002,-35.420000000000016,8.82,0.0,0.0,-9.36,-66.24000000000001,-187.34000000000006,-84.09999999999994,20.06000000000003,-48.38000000000004,16.540000000000116,-28.53999999999988,31.92000000000001,13.999999999999833,-34.42000000000038,-2.060000000000157,-35.1400000000002,2.03999999999974,-31.680000000000373,56.020000000000046,-26.080000000000048,-2.440000000000028,44.01999999999977,4.859999999999781,-5.660000000000214,47.07999999999972,127.97999999999949,138.78000000000003,22.159999999999958,-24.98,0.0,0.0,-21.3,-68.15999999999998,-116.86000000000001,-8.460000000000036,36.52000000000002,-34.720000000000006,-19.37999999999994,3.300000000000044,-2.5800000000000223,-11.620000000000024,3.239999999999828,-39.2400000000001,-16.500000000000483,-61.33999999999983,2.5599999999997065,-14.880000000000376,-35.120000000000346,17.079999999999842,-20.80000000000014,52.3999999999998,43.659999999999656,-5.720000000000299,93.85999999999933,106.80000000000038,27.04000000000004,-6.6800000000000015,0.0,-0.06,-9.3,-61.04,-15.760000000000016,-34.279999999999944,-26.79999999999997,36.88000000000001,47.70000000000009,36.660000000000075,-20.899999999999952,2.5399999999994693,64.37999999999928,57.87999999999973,-17.65999999999992,4.939999999999933,-26.32000000000037,-23.820000000000224,-84.020000000001,-61.280000000000314,-128.2400000000007,-29.480000000000032,35.959999999999916,78.29999999999957,211.30000000000075,315.80000000000035,115.73999999999998,1.82,0.0,-2.56,-13.38,-64.27999999999999,-26.46,12.979999999999972,87.30000000000013,0.8799999999999755,5.219999999999914,15.780000000000143,30.67999999999947,-6.9600000000007025,12.359999999999424,14.799999999999836,8.89999999999974,-36.61999999999995,-35.82000000000001,-29.92000000000008,-23.860000000000106,-92.19999999999976,-158.5800000000004,-232.8399999999983,-129.12000000000032,28.29999999999984,77.97999999999996,320.81999999999954,82.38000000000007,2.24,0.0,-4.4,-25.300000000000004,-23.120000000000005,-18.23999999999998,-7.299999999999962,76.41999999999993,66.40000000000018,9.139999999999963,-57.479999999999905,43.87999999999977,13.799999999999551,-11.60000000000023,21.859999999999616,-75.58000000000031,17.03999999999982,-49.719999999999786,-30.48000000000024,-53.69999999999977,-76.68000000000004,-95.70000000000014,-164.2599999999997,-313.07999999999913,-467.47999999999934,-505.47999999999996,-24.860000000000003,62.32000000000003,0.0,0.0,-0.5,-7.860000000000001,-6.1000000000000005,12.539999999999987,64.3999999999998,6.160000000000057,45.04000000000003,-38.15999999999991,32.53999999999996,5.019999999999778,2.3399999999993377,30.63999999999983,-32.620000000000175,-37.82000000000018,-17.780000000000204,-25.440000000000133,-39.78000000000042,-14.059999999999977,12.460000000000111,22.619999999999976,22.839999999999968,-20.960000000000203,-328.83999999999946,-409.7400000000001,-93.46,8.14,0.0,0.0,0.0,0.0,3.0000000000000004,32.13999999999998,30.959999999999983,1.3000000000000784,-47.47999999999972,34.84000000000012,11.040000000000079,69.35999999999969,-37.74000000000006,-42.360000000000205,-59.480000000000175,0.13999999999994994,4.700000000000051,-48.80000000000025,-13.979999999999807,3.4799999999999645,-35.13999999999979,26.939999999999912,-6.099999999999973,69.13999999999992,-15.0000000000002,-114.88000000000008,-98.20000000000002,-7.36,0.0,-0.14,0.0,-0.08,-13.979999999999997,32.81999999999999,-90.24000000000001,-39.94000000000007,-31.16000000000022,9.279999999999983,5.900000000000258,6.82000000000007,18.80000000000006,8.680000000000058,-57.12000000000001,-52.100000000000186,4.779999999999932,-15.359999999999994,-15.68000000000016,45.35999999999946,-27.99999999999998,-45.580000000000005,-34.5200000000002,35.42000000000005,47.32000000000001,38.199999999999974,-61.320000000000014,-24.34,-7.22,-0.8,0.0,-5.420000000000001,-9.800000000000004,-4.039999999999995,-57.920000000000094,-45.72000000000026,-79.10000000000046,-62.400000000000176,-36.02000000000004,-32.72000000000006,2.3200000000000207,7.63999999999998,47.03999999999994,-77.92000000000014,0.9399999999999595,-49.180000000000284,-3.4599999999999698,10.019999999999918,-16.20000000000003,47.93999999999992,4.160000000000057,20.960000000000065,26.15999999999993,-0.09999999999999254,-69.98,-42.8,-16.18,0.0,0.0,-25.480000000000004,-26.10000000000001,6.78,60.64000000000004,110.34000000000017,-32.26000000000014,-54.32000000000069,-28.660000000000238,-72.12000000000047,-72.84000000000029,-66.24000000000005,-75.54000000000066,-70.74000000000055,-7.120000000000234,4.299999999999932,1.0599999999998522,32.05999999999988,19.48000000000008,-34.79999999999986,0.30000000000012494,12.960000000000047,26.6799999999999,45.92000000000002,-104.86000000000006,-18.32,-0.8400000000000001,0.0,-2.16,-18.5,-50.94,14.060000000000032,29.839999999999836,30.90000000000022,17.98,1.820000000000002,-104.44000000000054,-41.58000000000061,-42.32000000000008,18.119999999999962,-0.01999999999995472,23.419999999999852,-37.72000000000008,-11.120000000000157,38.21999999999958,19.99999999999994,12.84000000000006,-25.899999999999945,-7.259999999999987,0.6999999999999984,31.740000000000087,22.00000000000003,-106.58,-0.2,0.0,0.0,-4.96,24.099999999999994,-54.90000000000002,49.50000000000006,-58.57999999999993,-11.740000000000041,-20.28000000000009,9.719999999999848,19.78000000000004,42.760000000000005,-25.02000000000006,36.1799999999998,-38.12000000000004,-55.400000000000254,45.99999999999973,-39.1800000000005,-82.38000000000007,-1.2800000000000962,-33.06000000000032,21.059999999999896,45.30000000000018,-17.67999999999998,9.340000000000007,32.51999999999998,-62.73999999999999,-3.8200000000000003,0.0,0.0,0.0,12.5,-37.97999999999999,-48.480000000000025,43.899999999999935,-49.17999999999995,-28.520000000000167,15.77999999999987,3.2399999999995965,-18.980000000000107,61.69999999999961,16.35999999999992,56.39999999999971,-12.340000000000172,-31.960000000000022,43.9599999999996,56.220000000000056,-31.8800000000001,24.520000000000046,8.580000000000144,-40.75999999999989,75.31999999999987,35.87999999999989,1.1399999999999884,11.100000000000007,-5.32,0.0,0.0,0.0,-6.399999999999999,-46.33999999999999,8.039999999999964,24.539999999999928,9.460000000000047,-44.120000000000196,-10.780000000000124,36.49999999999955,43.67999999999989,7.120000000000114,-19.67999999999991,38.88,34.03999999999997,19.620000000000164,-46.58000000000009,9.80000000000009,9.719999999999974,20.320000000000125,69.04,65.6799999999997,61.639999999999816,11.979999999999968,10.179999999999994,26.76,-3.9999999999999996,0.0,0.0,0.0,-1.6600000000000001,-43.66000000000002,-4.459999999999998,9.760000000000025,-68.38000000000007,9.860000000000024,54.819999999999645,9.539999999999807,19.759999999999827,42.87999999999953,25.779999999999514,37.53999999999961,10.699999999999832,-2.8599999999999905,25.02000000000021,-53.17999999999997,38.74000000000004,-28.480000000000004,11.89999999999994,6.860000000000031,71.78000000000009,15.520000000000012,6.419999999999997,21.240000000000002,7.4399999999999995,0.0,0.0,0.0,3.2000000000000006,-7.180000000000001,23.519999999999975,63.72000000000002,-2.439999999999981,-33.85999999999992,18.939999999999923,-11.840000000000014,64.41999999999993,-10.180000000000337,9.579999999999718,-9.660000000000071,27.220000000000184,6.019999999999939,57.71999999999998,-16.079999999999963,-63.47999999999999,-25.319999999999943,19.979999999999954,-13.45999999999999,14.739999999999993,20.32000000000002,16.699999999999992,20.779999999999994,5.8,0.0,0.0,0.0,-1.22,13.34,-26.840000000000003,13.4,-16.620000000000005,19.46,-26.019999999999996,73.14000000000011,-31.64,12.399999999999984,-53.1800000000002,10.680000000000064,40.98000000000011,24.759999999999987,-77.6200000000003,18.040000000000166,7.8200000000000855,-58.059999999999995,-55.20000000000003,-56.73999999999994,13.47999999999999,-13.459999999999997,8.340000000000002,-10.8,-1.08,0.0,0.0,0.0,0.0,25.4,23.319999999999997,4.619999999999999,-7.62,1.7600000000000038,-25.99999999999998,16.560000000000045,-31.980000000000018,33.47999999999997,18.199999999999967,44.27999999999998,-21.96,34.23999999999993,-0.23999999999999666,8.580000000000013,-11.000000000000007,0.459999999999984,-45.200000000000045,-17.88,34.36,46.32000000000001,39.46000000000001,0.0,0.0,0.0,0.0,0.0,0.0,0.0,0.0,0.0,-20.82,-58.76000000000001,-102.92000000000003,-93.09999999999994,-48.98000000000002,-6.920000000000011,-29.45999999999998,-32.560000000000024,-76.27999999999999,-14.900000000000007,-36.58,-28.659999999999997,-36.71999999999999,-29.86,-29.87999999999998,-36.72,-8.04,0.2,0.0,0.0,0.0,0.0,0.0,0.0,0.0,0.0,0.0,0.0,0.0,0.0,0.0,0.0,4.5600000000000005,8.96,5.0200000000000005,-20.62,-20.560000000000002,-10.48,-8.5,-1.24,-9.5,-22.440000000000005,-8.78,-18.700000000000003,-11.899999999999999,0.0,0.0,0.0,0.0,0.0
0.0,0.0,0.0,0.0,0.0,0.0,0.0,0.0,0.0,0.0,0.0,0.0,0.0,0.0,0.0,0.0,0.0,0.0,0.0,0.0,0.0,0.0,0.0,0.0,0.0,0.0,0.0,0.0,0.0,0.0,0.0,0.0,0.0,0.0,0.0,-0.32000000000000006,8.16,16.8,20.479999999999997,16.3,0.7399999999999993,-6.739999999999999,-40.54,-16.699999999999996,-11.0,6.259999999999997,2.04,0.2,4.9,10.280000000000001,0.84,0.0,0.0,0.0,0.0,0.0,0.0,0.0,0.0,0.0,0.52,0.76,18.760000000000005,10.340000000000002,15.599999999999993,24.86,32.799999999999976,1.7199999999999998,31.01999999999999,42.37999999999998,10.779999999999998,2.9599999999999884,27.19999999999997,40.81999999999997,40.84000000000003,-14.04,77.73999999999995,89.29999999999995,42.419999999999995,18.06,-17.640000000000004,-16.5,0.0,0.0,0.0,0.0,-3.36,1.8,9.840000000000002,2.9400000000000004,20.919999999999987,42.620000000000005,62.30000000000002,-33.419999999999995,-25.49999999999999,42.32000000000004,-23.039999999999957,-27.85999999999996,5.199999999999976,-2.720000000000012,-24.02000000000004,-10.239999999999934,-32.10000000000004,-11.060000000000002,15.459999999999967,33.21999999999998,29.38000000000001,94.40000000000002,70.54000000000003,-13.780000000000006,8.34,0.0,0.0,0.0,-11.52,-1.8800000000000003,14.440000000000005,1.340000000000002,-22.499999999999993,-16.50000000000001,18.01999999999997,-76.82000000000006,-33.80000000000006,-54.70000000000012,-71.25999999999996,-41.640000000000015,-62.2199999999999,-37.57999999999995,-53.51999999999982,-5.27999999999999,-7.159999999999968,12.33999999999998,-3.6599999999999158,-24.62000000000008,-21.800000000000075,12.019999999999996,-69.0,-49.820000000000014,-6.800000000000001,6.3,0.0,0.0,-1.6,-10.86,14.539999999999996,-26.08,-43.79999999999996,-94.66000000000014,49.41999999999998,-15.720000000000054,34.04000000000006,-83.9000000000001,-1.100000000000044,-74.53999999999981,32.42000000000025,-37.97999999999992,-18.319999999999986,8.999999999999984,31.159999999999993,25.240000000000084,21.280000000000236,7.600000000000084,-29.839999999999975,35.68000000000005,-68.27999999999996,-60.18000000000001,3.120000000000001,9.3,0.0,0.0,0.0,-15.640000000000002,-7.96000000000001,-23.639999999999976,-87.21999999999994,-69.08000000000003,-19.759999999999984,14.42000000000001,-110.09999999999954,28.82000000000007,-22.44000000000009,-32.339999999999804,-47.459999999999944,-59.499999999999716,-35.74000000000012,2.680000000000037,-58.77999999999992,-15.499999999999968,-66.05999999999992,-38.37999999999999,8.940000000000062,-23.399999999999995,-90.03999999999995,-72.04000000000003,-16.52,15.9,0.0,0.0,0.0,-52.16,-31.28000000000004,-10.099999999999998,-97.18000000000005,32.90000000000001,2.3200000000000203,-12.499999999999883,-14.040000000000123,-52.72000000000001,-59.32000000000024,-23.36000000000002,0.3599999999997543,29.659999999999954,-91.99999999999946,-7.7399999999999,-46.89999999999972,-20.180000000000096,-18.059999999999945,-40.43999999999986,-100.53999999999996,-62.200000000000045,-12.340000000000005,-38.39999999999998,19.700000000000003,9.9,0.0,0.0,0.0,-41.28000000000001,-17.499999999999982,-62.500000000000036,-120.51999999999983,-18.420000000000144,-31.200000000000024,-49.480000000000096,10.64,-7.559999999999948,-9.91999999999998,-16.73999999999971,-52.560000000000095,-63.159999999999826,-56.840000000000316,-27.059999999999974,-96.1200000000002,-107.15999999999967,-100.39999999999979,-135.20000000000016,-145.97999999999982,-218.89999999999978,-164.58,-69.82000000000001,-19.479999999999997,-7.12,0.0,0.0,-0.54,-43.1,-17.36000000000001,-74.76000000000005,-57.46000000000025,70.31999999999996,10.900000000000013,1.4199999999999129,-16.71999999999993,-28.520000000000284,49.72000000000001,-44.73999999999975,-43.2200000000001,-78.48000000000036,-68.32000000000018,-151.62000000000043,-133.7000000000004,-119.37999999999958,-62.60000000000019,-10.160000000000135,0.739999999999875,-66.29999999999987,-123.56000000000013,-110.25999999999998,-57.91999999999998,-5.08,0.0,0.0,-2.7800000000000002,-43.14,-33.58000000000003,-21.660000000000025,-20.400000000000023,-16.419999999999998,24.79999999999999,-63.0,0.24000000000000377,-35.8400000000001,-39.91999999999979,34.120000000000076,-23.100000000000126,-27.760000000000076,-48.52000000000022,-102.01999999999992,-19.760000000000097,-98.3799999999997,-23.76000000000008,-15.439999999999927,-79.06000000000012,29.299999999999905,-46.860000000000014,-120.24000000000008,-81.96000000000001,-19.18,0.0,0.0,0.0,-40.620000000000005,-24.059999999999974,44.49999999999995,42.619999999999955,-21.16000000000006,-32.100000000000016,17.760000000000026,1.1800000000000592,-30.579999999999973,12.879999999999963,10.320000000000038,-43.09999999999995,-61.34000000000022,9.320000000000068,-14.900000000000007,-2.3600000000000083,-35.73999999999994,-16.199999999999875,-38.51999999999994,-44.6399999999999,69.37999999999987,-38.900000000000084,-91.40000000000006,-92.44000000000003,-12.04,0.0,0.0,0.0,-51.660000000000004,-91.24000000000004,-66.46000000000001,13.760000000000021,3.160000000000017,64.0199999999999,5.099999999999991,-10.69999999999995,78.9400000000001,49.48000000000027,38.26000000000013,-23.93999999999982,-43.98000000000013,-24.91999999999997,15.080000000000055,57.060000000000095,1.6800000000001338,-42.6800000000002,30.979999999999997,31.84000000000005,57.37999999999986,36.03999999999998,-68.16000000000008,-105.84000000000003,-14.5,0.0,0.0,0.0,-28.02,-91.33999999999997,-29.72000000000001,71.47999999999993,16.400000000000002,32.099999999999994,-19.200000000000202,27.900000000000084,-60.100000000000165,1.4999999999999636,-11.760000000000092,-65.31999999999988,40.08000000000025,-22.339999999999822,-11.179999999999493,-10.959999999999955,30.420000000000023,5.219999999999992,62.74000000000002,58.319999999999965,129.18000000000035,24.81999999999997,-114.12000000000013,-116.14000000000003,-25.32,0.0,0.0,0.0,-0.48,-66.64000000000003,-40.339999999999975,38.07999999999984,7.879999999999967,-4.019999999999954,26.600000000000293,17.29999999999998,81.9000000000001,-7.399999999999937,12.920000000000124,-67.63999999999983,-18.95999999999997,7.719999999999974,-3.339999999999978,-2.5599999999999943,65.28000000000009,-50.59999999999997,-3.9800000000000093,92.64000000000009,-18.219999999999953,5.800000000000036,39.72000000000003,-83.9,-2.7,0.0,0.0,0.0,-6.299999999999999,-57.38,-74.02000000000007,-8.13999999999991,123.50000000000004,27.72000000000003,12.180000000000017,-14.46000000000001,43.57999999999992,27.300000000000036,-73.97999999999993,63.16000000000029,6.099999999999892,-27.09999999999978,8.119999999999983,-60.219999999999594,-23.81999999999991,50.37999999999994,110.3599999999999,-5.18000000000004,-1.1000000000000174,-16.020000000000024,-30.659999999999933,-108.02,-7.3000000000000025,0.0,0.0,0.0,-13.92,-26.160000000000032,-93.44000000000004,61.51999999999985,30.72,-46.90000000000031,33.36000000000007,-14.480000000000006,80.84000000000016,-6.840000000000139,11.779999999999996,26.300000000000075,-6.919999999999993,2.6800000000000113,-23.880000000000145,20.1199999999999,62.759999999999984,36.57999999999994,-30.09999999999995,6.760000000000095,14.480000000000008,15.860000000000063,-88.03999999999996,-119.70000000000002,-17.439999999999998,0.0,0.0,0.0,-14.779999999999998,-77.71999999999996,-8.120000000000049,21.000000000000036,-75.39999999999989,101.45999999999992,-25.540000000000063,79.90000000000016,66.2799999999996,-9.519999999999966,36.360000000000056,46.460000000000086,-31.119999999999685,-22.39999999999992,4.760000000000048,12.180000000000007,10.979999999999965,52.03999999999994,-2.819999999999916,-21.020000000000017,105.38000000000015,-30.79999999999993,-68.62,-70.59999999999998,-8.66,0.0,0.0,0.0,-27.660000000000007,-59.98000000000006,-42.27999999999998,-7.940000000000013,34.700000000000166,24.819999999999865,45.140000000000164,23.339999999999954,-6.10000000000009,76.00000000000021,26.61999999999997,-36.000000000000036,53.840000000000245,-8.040000000000024,-30.09999999999994,7.699999999999969,-24.520000000000167,-0.31999999999998074,31.340000000000167,-23.21999999999997,9.519999999999948,-112.01999999999975,-39.13999999999998,-40.25999999999999,-9.26,0.0,0.0,-2.88,-33.839999999999996,-13.419999999999998,-54.78000000000004,10.119999999999976,33.73999999999994,3.579999999999904,60.92000000000019,53.4199999999999,70.96000000000046,67.46000000000097,-6.759999999999905,40.92000000000039,39.04000000000018,-29.100000000000136,47.84000000000013,51.33999999999981,-4.940000000000158,6.580000000000083,-5.680000000000041,29.040000000000028,0.1999999999999793,-70.02000000000002,-99.06000000000003,-65.00000000000001,-7.26,0.0,0.0,-4.8,-28.44,-3.1799999999999997,-38.91999999999995,-50.380000000000095,23.46000000000007,-34.82000000000016,24.09999999999991,33.85999999999995,-6.900000000000008,104.22000000000014,-24.879999999999797,56.08000000000015,11.620000000000106,-0.43999999999999856,-16.580000000000044,-4.960000000000068,12.160000000000078,24.419999999999924,-18.54,-95.55999999999999,-14.36000000000006,-54.08000000000003,-40.37999999999999,-12.3,0.0,0.0,0.0,-0.76,-20.16,-19.359999999999992,-36.38000000000003,-85.09999999999992,-55.76000000000007,14.819999999999933,-6.43999999999999,21.580000000000098,36.819999999999865,-1.100000000000068,57.699999999999775,73.15999999999987,-4.160000000000025,15.99999999999995,50.75999999999969,53.919999999999966,-25.50000000000003,59.45999999999991,-34.239999999999974,-32.32,-53.199999999999946,-47.7,-20.920000000000005,-1.52,0.0,0.0,0.0,0.0,-14.5,-11.080000000000002,-27.600000000000005,-78.46000000000001,-26.720000000000024,-53.179999999999986,-4.93999999999999,37.78000000000009,-35.70000000000015,26.34000000000001,7.90000000000006,-68.74000000000007,38.840000000000074,43.339999999999954,-1.9199999999999768,10.439999999999978,-22.619999999999983,43.71999999999998,38.46,-50.46000000000001,-90.74,-69.01999999999998,-21.819999999999997,0.0,0.0,0.0,0.0,0.0,0.0,-1.1,-7.44,-47.98000000000001,-81.82,-88.80000000000001,-23.140000000000065,-62.379999999999995,-75.3199999999999,-63.4000000000001,-3.059999999999976,-36.64000000000002,15.099999999999971,10.63999999999998,-101.01999999999983,28.239999999999988,-35.36000000000006,-43.220000000000034,-45.100000000000016,-23.28,-34.62,-31.119999999999997,-3.42,0.0,0.0,0.0,0.0,0.0,0.0,0.0,0.0,-9.1,-13.660000000000004,-20.039999999999996,-37.6,-81.34,-86.42000000000004,-46.55999999999999,-104.58000000000004,-136.16,-104.88000000000002,-53.060000000000024,-31.96,-26.180000000000003,-72.98000000000003,-60.77999999999999,-37.379999999999995,-10.7,-7.78,-1.42,0.0,0.0,0.0,0.0,0.0,0.0,0.0,0.0,0.0,-0.22,0.0,-6.12,-9.5,-7.08,-10.4,-19.099999999999998,-29.759999999999998,-23.500000000000004,-31.080000000000002,-28.420000000000005,-18.200000000000003,-14.840000000000002,-13.66,-11.72,-9.36,0.0,0.0,0.0,0.0,0.0,0.0,0.0,0.0,0.0,0.0,0.0,0.0,0.0,0.0,-1.34,-5.04,-1.58,0.0,0.0,-3.44,-3.08,-5.0,-5.4,-9.3,-5.82,-5.5,-5.3999999999999995,-9.84,-3.12,0.0,0.0,0.0,0.0,0.0,0.0,0.0,0.0,0.0,0.0,0.0,0.0,0.0,0.0,0.0,0.0,0.0,0.0,0.0,0.0,0.0,0.0,0.0,0.0,0.0,-0.44,-7.48,-4.76,0.0,0.0,0.0,0.0,0.0
0.0,0.0,0.0,0.0,0.0,0.0,0.0,0.0,0.0,0.0,0.0,0.0,0.0,0.0,0.0,0.0,0.0,0.0,0.0,0.0,0.0,0.0,0.0,0.0,0.0,0.0,0.0,0.0,0.0,0.0,0.0,0.0,0.0,0.0,0.0,0.0,0.0,0.0,0.0,0.0,0.0,0.0,0.0,0.0,0.0,0.0,0.0,0.0,0.0,0.0,0.0,0.0,0.0,0.0,0.0,0.0,0.0,0.0,0.0,-1.7399999999999998,-0.6000000000000001,0.0,0.0,0.0,0.0,0.0,-1.72,-3.1,-0.84,0.0,-0.04,-6.18,-12.5,-9.759999999999998,-6.04,-4.38,-0.64,0.0,0.0,0.0,0.0,0.0,0.0,0.0,0.0,0.0,0.0,-5.04,-1.6800000000000002,0.0,0.0,-3.0,-7.0600000000000005,-18.619999999999997,-21.6,-17.080000000000002,-16.8,-21.44,-24.240000000000002,-28.06,-27.3,-9.360000000000001,-9.0,-6.4399999999999995,-0.76,0.0,0.0,0.0,0.0,0.0,0.0,0.0,0.0,0.0,0.0,0.0,-2.16,-3.84,-4.040000000000001,-9.88,-21.319999999999997,-49.06000000000001,-83.46000000000001,-68.48,-37.06,-33.3,-75.75999999999999,-61.24000000000001,-58.92000000000001,-59.760000000000005,-73.06,-69.32000000000001,-51.24,5.2,-3.3,-8.1,-4.22,-0.7000000000000001,0.0,0.0,0.0,0.0,0.0,-0.4,-23.0,18.64,3.5799999999999974,-26.720000000000002,24.300000000000008,24.540000000000003,-26.720000000000013,-11.999999999999922,-6.459999999999949,3.039999999999902,-6.840000000000076,-15.179999999999934,-29.619999999999955,-98.14000000000028,-96.19999999999985,-136.3400000000001,-125.87999999999987,-71.49999999999999,-59.680000000000014,-44.81999999999999,-9.28,0.0,0.0,0.0,0.0,0.0,13.419999999999998,45.88000000000002,17.22,24.639999999999986,51.199999999999925,17.140000000000025,57.8799999999999,-8.500000000000053,-0.40000000000000946,37.95999999999982,36.02000000000005,-39.55999999999997,7.239999999999966,19.79999999999996,12.959999999999994,30.819999999999958,-32.500000000000085,-2.200000000000042,-4.640000000000027,-17.619999999999983,-53.87999999999998,-106.29999999999998,-38.35999999999999,-18.800000000000004,-8.42,0.0,0.0,0.88,18.82,87.46000000000002,-0.45999999999997154,-31.900000000000023,17.979999999999983,31.020000000000024,-21.96000000000005,24.460000000000093,23.440000000000076,-31.340000000000003,-2.1399999999998824,17.37999999999998,-44.54000000000006,-1.8399999999999528,4.639999999999969,7.899999999999926,10.219999999999969,-22.720000000000063,63.75999999999994,-1.2799999999999763,21.400000000000087,-13.260000000000021,-45.38000000000001,-53.760000000000005,-9.94,0.0,0.0,15.280000000000001,18.06000000000001,85.21999999999997,-7.580000000000005,17.240000000000016,-21.639999999999986,86.3000000000001,38.199999999999896,18.900000000000123,37.50000000000007,25.60000000000003,47.07999999999988,-8.599999999999923,-19.67999999999993,32.51999999999986,-3.720000000000187,16.95999999999982,28.819999999999883,8.660000000000014,36.08,1.5399999999999094,47.28000000000001,41.68,-52.40000000000001,-85.97999999999998,-30.68,0.0,0.0,28.12,9.680000000000003,79.33999999999992,66.47999999999993,5.639999999999962,-11.699999999999964,52.160000000000046,22.15999999999993,17.279999999999838,-2.8200000000001193,29.22000000000002,108.94000000000001,-16.319999999999897,74.79999999999997,-6.580000000000037,19.359999999999786,102.54000000000018,5.499999999999833,34.74000000000007,10.959999999999917,5.879999999999988,45.939999999999934,16.159999999999997,-38.52000000000008,-30.36,-11.46,16.84,0.0,21.88,44.06000000000002,20.520000000000003,26.960000000000107,66.01999999999997,24.079999999999963,-13.48000000000002,-12.480000000000093,-0.779999999999959,-7.2999999999999545,-62.120000000000346,-51.800000000000075,78.24000000000035,5.579999999999895,18.79999999999982,89.34000000000019,-0.6600000000002877,-4.919999999999846,-4.860000000000038,57.70000000000001,37.89999999999985,42.359999999999964,4.080000000000008,-0.5600000000000048,9.860000000000001,-19.7,5.120000000000001,0.0,34.28000000000001,109.00000000000001,83.04000000000009,-41.96000000000006,21.480000000000008,-1.5000000000000155,-2.9400000000000355,-35.48000000000002,1.4399999999999658,39.21999999999997,32.84000000000003,-60.48000000000002,48.88000000000006,36.53999999999991,39.60000000000032,13.060000000000091,25.859999999999744,29.919999999999746,10.599999999999717,48.039999999999715,-14.059999999999993,52.91999999999995,-22.560000000000038,-31.180000000000014,-34.660000000000004,-36.400000000000006,1.7999999999999998,0.0,23.78,89.06000000000002,137.0600000000001,50.88000000000011,16.599999999999998,-50.1,35.319999999999936,91.02000000000007,-40.35999999999994,-66.73999999999988,11.020000000000081,-73.25999999999979,-88.74000000000011,3.6999999999997812,60.840000000000295,16.800000000000516,43.740000000000066,36.01999999999996,-10.940000000000062,-9.080000000000169,7.87999999999996,46.40000000000003,-98.01999999999994,-27.64,-11.359999999999996,-3.4799999999999978,6.7,0.0,22.800000000000004,44.94000000000001,97.79999999999995,23.599999999999937,22.87999999999999,64.12000000000002,-27.919999999999995,-68.75999999999972,-31.41999999999998,5.479999999999985,7.800000000000015,-91.03999999999928,-114.76000000000002,-68.95999999999992,-14.139999999999958,16.599999999999845,18.96000000000008,-44.699999999999875,-87.79999999999954,9.179999999999911,36.1599999999999,7.739999999999995,-73.4000000000001,0.4200000000000057,-0.7800000000000045,3.7600000000000002,0.0,0.0,15.040000000000001,25.880000000000003,46.020000000000024,-12.140000000000022,-9.459999999999994,-38.47999999999997,2.4600000000000444,12.520000000000001,-50.94000000000003,-51.9199999999998,-49.219999999999935,-65.2,-64.39999999999993,-45.240000000000016,-18.77999999999987,1.6799999999999629,-0.1599999999999424,37.43999999999982,100.87999999999975,34.91999999999994,-24.81999999999991,64.22,17.820000000000004,-79.58000000000004,-23.68,-2.38,0.0,0.0,0.0,2.3199999999999985,7.419999999999991,-19.780000000000026,-49.96000000000004,-40.54000000000026,-65.75999999999993,-64.7999999999999,-39.59999999999978,-33.10000000000012,-81.56000000000002,-31.540000000000088,-103.0999999999998,-57.799999999999955,-4.139999999999906,-49.8800000000003,89.10000000000029,-1.639999999999982,-6.400000000000034,44.139999999999986,39.239999999999995,65.92000000000006,23.16000000000002,-38.099999999999966,-59.840000000000025,-6.14,0.0,0.0,0.0,-4.92,-40.28,5.879999999999991,-35.84000000000007,6.880000000000029,-5.559999999999914,-62.21999999999997,-2.1000000000000183,-41.18000000000014,-167.92000000000104,-4.679999999999988,31.42000000000001,-72.65999999999984,24.040000000000074,-27.299999999999912,4.859999999999991,31.659999999999915,27.75999999999972,28.98000000000001,49.31999999999999,-22.219999999999963,8.820000000000007,4.000000000000005,-51.56,-16.040000000000003,-3.2800000000000002,0.0,0.0,-0.6799999999999999,-14.779999999999994,16.52000000000001,17.359999999999985,22.399999999999984,-27.820000000000075,-52.81999999999999,-5.939999999999948,-103.50000000000007,-58.62000000000011,1.7599999999999705,-15.75999999999996,-24.499999999999936,-0.6799999999999704,-22.779999999999916,-0.8600000000000048,37.44000000000011,-3.0399999999999303,5.320000000000067,-15.220000000000029,6.639999999999992,-75.09999999999998,-68.19999999999996,-39.98000000000001,-8.540000000000001,-8.16,4.8,0.0,5.960000000000001,2.38,10.340000000000002,8.820000000000007,-91.65999999999997,-23.240000000000023,-23.060000000000027,-65.74000000000002,-110.3199999999998,-45.12000000000008,-87.02000000000014,13.29999999999982,-10.800000000000043,-39.34000000000019,-74.72000000000014,8.040000000000116,-10.40000000000007,15.400000000000015,-9.959999999999987,18.78,-18.51999999999994,-137.82000000000005,-91.94000000000003,-9.679999999999998,12.700000000000001,0.0,0.0,10.639999999999999,9.78,-3.5600000000000027,21.04,-32.26000000000002,-97.16000000000001,-111.75999999999975,-13.92000000000002,-41.99999999999995,-82.76000000000005,-22.34000000000003,-3.139999999999941,-11.280000000000008,17.65999999999995,15.060000000000116,-24.74000000000012,-11.480000000000015,-78.70000000000041,-4.500000000000001,-23.320000000000036,-56.780000000000044,-71.4399999999999,-85.35999999999993,-14.899999999999999,-19.579999999999995,0.0,0.0,0.0,0.18,-1.62,-49.480000000000004,-63.559999999999995,-29.600000000000023,-80.48000000000005,-145.28000000000017,19.760000000000023,-104.2200000000001,-35.06000000000014,16.319999999999784,2.8200000000000918,-68.4599999999999,-2.399999999999947,-13.960000000000058,-82.79999999999976,-78.74000000000014,-72.92000000000048,-97.56000000000013,-81.03999999999998,-64.76000000000005,-87.45999999999994,-49.28000000000001,7.719999999999999,-4.120000000000001,-2.88,0.0,0.0,0.0,-14.34,-79.99999999999997,-77.28,-47.64,-30.860000000000028,-92.05999999999982,-22.120000000000097,-50.85999999999997,-23.499999999999915,-19.399999999999984,-33.71999999999998,-33.180000000000156,-55.78000000000024,-23.220000000000013,-13.880000000000038,-54.820000000000014,-9.60000000000005,-111.43999999999998,-44.59999999999991,-67.82000000000006,-86.65999999999998,-61.80000000000001,-7.380000000000005,3.3800000000000003,-6.960000000000001,0.0,0.0,0.0,-38.66,-101.43999999999998,-129.41999999999993,-22.12000000000001,-88.63999999999989,-43.24000000000002,-18.379999999999985,14.099999999999987,-6.6399999999999775,-60.5799999999999,4.419999999999947,-51.2800000000002,4.759999999999947,20.88000000000002,-31.540000000000045,-55.86000000000008,-16.90000000000012,0.2000000000000801,-20.599999999999987,-88.73999999999995,-88.03999999999996,-64.98,-5.240000000000001,1.2199999999999995,-3.04,0.0,0.0,0.0,-40.7,-87.44,-14.980000000000008,-14.620000000000006,20.919999999999966,51.14000000000008,-76.84000000000005,-33.13999999999998,-3.600000000000059,-58.03999999999988,-49.7799999999999,-17.259999999999984,-33.62000000000007,-33.79999999999995,-2.539999999999897,34.24000000000007,-23.180000000000035,-70.5,-62.81999999999988,-115.45999999999992,-84.37999999999995,-79.12000000000002,-4.64,-3.3600000000000003,0.0,0.0,0.0,0.0,-38.32000000000001,-24.180000000000007,16.539999999999992,85.00000000000009,97.7400000000001,-16.579999999999927,13.45999999999999,-71.44000000000023,3.8599999999999843,-1.3199999999999994,-51.5599999999998,-1.6400000000000383,17.559999999999953,29.180000000000042,-16.65999999999999,17.760000000000044,-49.72,-22.619999999999962,-22.780000000000022,-41.18000000000004,-36.55999999999998,-65.66000000000001,-22.64,-11.34,0.0,0.0,0.0,0.0,-6.6,10.739999999999998,2.600000000000007,9.82,-35.02000000000001,10.919999999999998,17.279999999999987,46.04000000000002,-7.040000000000024,60.51999999999995,65.02000000000002,-1.6999999999999846,-18.979999999999983,6.599999999999985,6.94000000000003,4.69999999999999,15.039999999999957,-8.680000000000007,-36.66,5.76000000000001,40.660000000000004,-16.980000000000004,-3.8400000000000003,0.0,0.0,0.0,0.0,0.0,0.0,0.0,-21.740000000000002,-54.84000000000001,-92.33999999999997,-0.7200000000000006,1.9199999999999986,25.699999999999996,4.020000000000003,-0.46000000000000124,-15.359999999999973,31.299999999999937,1.2400000000000313,34.97999999999998,13.24000000000003,9.379999999999999,20.9,6.240000000000014,-28.440000000000012,2.4599999999999937,39.16,-7.1000000000000005,-0.06,0.0,0.0,0.0,0.0,0.0,0.0,0.0,0.0,3.54,7.08,4.98,3.44,-1.6999999999999997,34.33999999999999,-5.4,-14.5,37.919999999999995,47.30000000000001,24.780000000000012,40.919999999999995,40.4,21.260000000000005,23.340000000000003,18.340000000000003,29.660000000000018,41.42,10.76,0.0,0.0,0.0,0.0
