0.0,0.0,0.0,0.0,0.0,0.0,0.0,0.0,0.0,0.0,0.0,0.0,0.0,0.0,0.0,0.0,0.0,0.0,0.0,0.0,0.0,0.0,0.0,0.0,0.0,0.0,0.0,0.0,0.0,0.0,0.0,0.0,0.0,0.0,0.0,0.0,0.0,-19.5,-340.5,-63.0,-2.0,-53.0,-226.0,177.5,576.5,360.75,0.0,0.0,0.0,0.0,0.0,0.0,0.0,0.0,0.0,0.0,0.0,0.0,0.0,-19.5,0.0,-1.5,-111.0,-296.5,-221.5,-1215.5,-1281.3333333333333,-1354.3333333333333,-2667.5833333333335,-2685.25,-2663.5,-2989.1666666666665,-2839.8333333333335,-2731.5,-2061.1666666666665,-1839.9999999999998,-2029.9166666666667,-1334.25,-629.5,-550.0,-190.0,0.0,0.0,0.0,0.0,0.0,0.0,-159.5,-248.0,-520.5,-985.6666666666666,-1114.5833333333333,-958.3333333333334,-3213.7499999999995,-4683.0,-3535.0833333333335,-4326.500000000001,-935.833333333333,-1424.1666666666667,-1635.6666666666663,-2533.7500000000005,-1769.75,-2189.583333333334,-1700.999999999999,-3042.666666666668,-3597.7499999999995,-1904.4999999999998,-737.25,-461.0,-291.0,-47.0,0.0,0.0,0.0,0.0,-80.0,-64.0,-1237.1666666666667,-1377.4166666666665,-1382.4166666666667,-1380.3333333333335,-1809.8333333333328,-2041.333333333333,-668.8333333333337,-891.2500000000011,1090.333333333334,-1760.8333333333353,524.5833333333333,-2108.5,1076.0833333333333,-209.5833333333337,-49.8333333333332,269.9999999999999,-222.49999999999955,-402.66666666666674,-1261.9166666666672,-2582.5833333333335,-1388.9999999999998,-405.0,0.0,0.0,0.0,0.0,-305.0,-831.3333333333334,-1727.4166666666665,-167.49999999999994,-2039.0833333333335,-830.2499999999998,825.7500000000005,1648.416666666667,-687.6666666666667,-1172.5000000000002,1621.8333333333337,-98.91666666666646,1130.0833333333333,-1483.749999999999,-563.4166666666666,341.2500000000001,-755.1666666666661,-1106.0000000000025,-831.7500000000001,64.41666666666686,-1711.3333333333333,-4093.0,-2281.0833333333335,-598.0,-205.0,0.0,0.0,-50.0,-275.0,-1284.5,-335.0833333333333,-135.16666666666669,210.00000000000006,-8.666666666666686,-2797.583333333337,897.0000000000005,498.2500000000002,-1815.166666666669,2132.333333333332,-408.0833333333335,561.75,-79.25000000000028,941.2500000000007,520.9999999999993,737.6666666666679,155.0833333333336,1539.2500000000018,1863.333333333333,-1156.4166666666672,-5389.333333333337,-3682.4999999999995,-2087.9166666666665,-785.0,0.0,-107.5,-166.0,-442.0,-1586.9166666666667,226.66666666666669,-93.08333333333343,117.75,-2025.333333333334,853.0000000000005,-131.00000000000023,-1387.0833333333312,-314.8333333333337,1504.0000000000002,-591.666666666667,-620.2499999999998,-1599.583333333334,1739.6666666666652,384.8333333333335,1464.3333333333317,-1204.416666666671,-820.4999999999991,-2.3333333333337123,-243.08333333333326,-5017.750000000002,-5058.833333333334,-1855.9166666666667,-128.0,163.41666666666666,0.0,-12.75,-236.08333333333334,-1881.0833333333335,-1488.333333333333,-813.0833333333342,281.16666666666646,199.5833333333331,2.666666666666515,1066.0000000000007,-246.8333333333344,1084.6666666666656,-264.58333333333246,1211.1666666666636,294.66666666666606,2271.9166666666683,1034.750000000002,740.3333333333348,-281.4999999999995,678.916666666667,727.6666666666672,396.5833333333345,1069.916666666666,-4692.333333333335,-4966.666666666667,-1669.25,-226.0,0.0,0.0,98.25,-218.25,-2221.333333333333,-567.5000000000001,775.0833333333335,-1301.1666666666667,270.16666666666754,627.8333333333339,1260.9999999999995,-1285.9999999999995,-672.5833333333333,204.7499999999992,732.916666666667,-1594.583333333336,1463.6666666666702,86.41666666666788,189.91666666666663,1937.166666666666,881.9999999999973,112.00000000000125,-2146.500000000002,1422.6666666666652,-3799.3333333333317,-4734.666666666666,-2392.3333333333335,-78.0,0.0,0.0,428.5833333333333,-432.41666666666663,-1042.4999999999995,754.416666666667,-154.66666666666652,-134.41666666666657,-516.9999999999993,588.6666666666667,-1069.3333333333346,1040.9166666666665,-191.58333333333348,-549.7500000000005,-501.7500000000001,-65.33333333333348,922.0000000000002,2182.8333333333353,220.2499999999999,-1193.5000000000005,-219.49999999999966,750.8333333333314,1753.7499999999989,3077.5000000000027,-1552.9166666666674,-4738.416666666668,-2853.583333333333,0.0,0.0,85.25,0.0,-476.33333333333337,-3123.0,-711.1666666666666,488.0000000000007,-608.9999999999992,176.33333333333348,-325.2500000000003,-578.0000000000014,637.5000000000007,-1500.6666666666686,650.1666666666679,-1950.750000000001,-2348.166666666664,-571.5000000000002,14.083333333333826,-47.16666666666629,1636.4999999999977,-138.16666666666674,1527.0833333333323,-2738.5833333333326,1720.9166666666647,-682.1666666666661,-3780.3333333333335,-1190.8333333333333,0.0,0.0,16.0,0.0,-394.75,-3210.916666666666,535.9999999999999,1071.6666666666656,-731.7499999999991,110.50000000000011,-705.5000000000005,-1024.1666666666686,245.08333333333303,165.25000000000023,927.8333333333339,-710.6666666666679,-3255.583333333334,-1593.2500000000005,512.8333333333344,-1121.333333333333,1004.1666666666665,2160.333333333338,-96.83333333333326,321.58333333333394,314.00000000000045,515.1666666666669,-1238.1666666666667,-79.83333333333333,0.0,0.0,63.0,0.0,-361.9166666666667,-792.3333333333326,82.58333333333366,2233.2500000000005,1207.4166666666656,966.9166666666647,372.00000000000045,1234.4999999999982,-1385.75,478.66666666666674,-2137.166666666666,-1777.9166666666656,-3961.2500000000045,-785.4166666666679,265.8333333333335,577.5833333333335,-1077.0833333333342,-1978.9999999999968,-646.6666666666658,2379.4166666666674,906.75,-1027.8333333333335,146.66666666666669,-146.0,0.0,0.0,0.0,-129.0,-1464.75,94.75000000000006,1254.9166666666665,-1494.4166666666692,2693.1666666666765,522.8333333333317,1088.5833333333308,-807.3333333333335,216.16666666666646,936.0833333333339,251.66666666666674,-3568.333333333336,-1302.4166666666679,-2072.250000000001,426.4166666666663,437.58333333333326,427.1666666666674,1447.333333333333,-71.16666666666606,58.41666666666691,1173.3333333333342,32.83333333333337,67.5,-654.6666666666666,0.0,0.0,0.0,-152.25,-2600.5,-549.1666666666671,1567.499999999999,-1233.333333333337,1715.4166666666652,7.58333333333394,1420.166666666666,2752.2500000000014,-1012.5833333333328,2513.5833333333326,-3423.7499999999964,-4595.749999999998,-1140.583333333333,-1648.250000000001,-1226.2500000000002,-872.4166666666661,-783.3333333333328,842.3333333333321,817.8333333333319,602.0000000000006,-69.41666666666649,1455.9166666666672,-944.8333333333335,-692.6666666666666,0.0,0.0,0.0,0.0,-2230.333333333333,-1444.5833333333333,2019.833333333334,-1445.2500000000011,1269.0,784.8333333333312,1318.9166666666645,-344.33333333333326,332.1666666666663,-636.9166666666672,-5454.666666666664,-2662.583333333335,1194.8333333333326,-1664.166666666665,2552.8333333333358,-1739.0000000000036,-617.8333333333337,932.8333333333317,-451.9999999999998,-1129.75,-1322.166666666667,-411.41666666666686,-2219.166666666666,-1130.25,25.0,0.0,0.0,0.0,-2509.5,34.499999999999886,1615.416666666666,1207.9999999999957,1107.083333333333,-901.0833333333326,-221.75000000000068,540.5833333333326,-462.8333333333336,128.58333333333348,-3129.4166666666697,-2114.250000000002,-1289.8333333333344,-1927.9166666666652,-259.2500000000001,-1137.2499999999989,892.3333333333339,-173.75,-1020.6666666666663,2458.4166666666683,-698.6666666666669,-696.0833333333331,-2082.083333333333,-624.6666666666666,75.0,0.0,0.0,-174.0,-3916.5,-1677.9999999999995,-1279.166666666667,-541.6666666666666,-1302.9166666666672,1022.4166666666681,845.7499999999991,2189.2500000000023,-336.49999999999955,-674.6666666666669,-3525.2499999999955,-1229.4166666666672,411.000000000001,-1260.1666666666663,326.1666666666671,760.083333333333,-945.0833333333337,-2827.4166666666683,-332.9166666666665,182.66666666666652,-70.83333333333337,-1227.749999999999,-1716.8333333333333,-832.5833333333334,-442.5833333333333,0.0,52.0,-186.33333333333334,-3578.75,-1828.6666666666647,-504.0833333333335,601.5000000000001,-335.1666666666663,1931.1666666666688,-747.9166666666652,277.3333333333337,22.916666666666174,2365.4999999999973,-2278.749999999996,-1029.8333333333321,-863.2499999999989,217.58333333333326,-599.0833333333335,119.91666666666708,-381.58333333333337,1683.7499999999995,-1628.2499999999995,-33.833333333333314,-133.7499999999999,-1370.0833333333333,-1566.9166666666665,-437.0833333333333,-128.0,0.0,131.0,-98.33333333333333,-3314.1666666666665,-1222.416666666667,489.49999999999966,-512.0833333333335,787.5833333333337,774.4999999999999,449.6666666666672,1188.166666666664,915.7499999999982,1208.1666666666642,761.5000000000009,-1987.1666666666606,-258.08333333333246,-2457.999999999999,-448.91666666666674,-206.16666666666606,-533.6666666666667,627.7500000000003,-220.75,131.58333333333348,-1595.833333333333,-2761.3333333333335,-779.5,137.0,0.0,0.0,0.0,-323.6666666666667,-1673.1666666666667,-942.3333333333328,-327.6666666666667,560.0833333333339,-1279.666666666667,-131.58333333333326,-18.6666666666664,691.416666666665,311.41666666666833,1246.833333333333,-317.83333333333303,-304.5833333333336,-1071.0000000000005,926.6666666666672,-1740.6666666666642,-1071.9166666666679,-2446.2499999999973,-1183.499999999999,136.58333333333331,911.5000000000002,-2137.666666666666,-1344.3333333333333,-114.0,531.0833333333333,0.0,0.0,0.0,-161.33333333333334,-897.5833333333333,-3525.666666666666,41.41666666666663,1265.666666666667,116.91666666666686,265.66666666666663,244.91666666666737,756.916666666667,-432.75000000000045,-482.3333333333336,3363.9999999999973,-667.5000000000005,337.3333333333338,-2005.8333333333312,537.166666666667,-2087.083333333336,812.6666666666665,-280.9999999999998,-242.25000000000023,-223.0,-1478.0,-1120.75,56.0,172.83333333333334,0.0,0.0,0.0,0.0,-22.0,-2463.9999999999986,-1109.3333333333333,167.0000000000001,-973.5000000000005,-1682.9999999999998,-356.9999999999999,1581.3333333333323,-327.25,-731.4166666666656,-120.9166666666672,502.8333333333337,-321.08333333333337,-1292.5000000000011,1642.0833333333314,-679.5833333333339,-1944.4166666666665,-3189.8333333333326,-1598.8333333333333,-995.25,-1215.583333333333,-1285.6666666666665,0.0,0.0,0.0,0.0,0.0,0.0,0.0,-810.0,-962.4166666666665,-636.0000000000001,-1001.4166666666661,-1088.5,710.4166666666669,-856.4999999999995,-735.583333333333,1004.0000000000009,-322.1666666666665,926.1666666666663,-42.4166666666668,-2520.9166666666642,-1595.4166666666667,-2424.6666666666674,-2744.1666666666674,-3675.333333333334,-3328.833333333333,-1611.7500000000002,-851.8333333333334,-527.0,0.0,0.0,0.0,0.0,0.0,0.0,0.0,-240.25,-647.1666666666666,-2224.166666666667,-3685.2500000000005,-5393.916666666666,-4901.250000000001,-6930.833333333335,-4741.500000000001,-6647.166666666666,-8029.749999999998,-7754.083333333334,-8131.25,-5592.833333333333,-6133.333333333334,-4800.916666666667,-1983.8333333333335,-2559.083333333333,-2482.5,-1063.5,-473.75,-350.0,0.0,0.0,0.0,0.0,0.0,0.0,0.0,0.0,-236.0,-695.0,-1070.5,-1757.0,-3076.0,-2479.6666666666665,-2682.6666666666665,-3013.3333333333335,-4104.0,-4342.5,-3426.833333333333,-2465.0,-2267.5833333333335,-1864.75,-758.5833333333334,-1578.3333333333333,-1634.0833333333333,-809.8333333333334,-86.75,-28.0,0.0,0.0,0.0,0.0,0.0,0.0,0.0,0.0,-57.0,-245.0,-158.0,0.0,0.0,0.0,0.0,-64.0,-638.0,-1122.0,-711.5,-622.0,-647.0,-572.0,-206.0,-253.0,-329.0833333333333,-905.1666666666666,-209.83333333333334,0.0,0.0,0.0,0.0
0.0,0.0,0.0,0.0,0.0,0.0,0.0,0.0,0.0,0.0,0.0,0.0,0.0,0.0,0.0,0.0,0.0,0.0,0.0,0.0,0.0,0.0,0.0,0.0,0.0,0.0,0.0,0.0,0.0,0.0,0.0,0.0,0.0,0.0,0.0,-3.0,-146.0,-113.0,-55.0,0.0,0.0,0.0,210.0,90.0,-533.25,-73.0,0.0,0.0,0.0,0.0,0.0,0.0,0.0,0.0,0.0,0.0,0.0,0.0,0.0,0.0,0.0,0.0,0.0,-58.0,-434.0,-664.0,-469.0,-576.0833333333333,-18.083333333333336,1081.25,-62.41666666666667,1109.5833333333333,652.5,-478.66666666666674,-840.1666666666666,5.0,-508.41666666666663,-360.0,0.0,0.0,0.0,0.0,0.0,0.0,0.0,0.0,45.5,10.833333333333332,0.0,-31.666666666666664,-55.0,-665.0,-1259.4166666666667,-1826.6666666666667,-2598.166666666667,-4455.916666666666,-2214.5833333333353,-618.0833333333339,-2556.833333333333,-602.0833333333335,724.7500000000002,-440.2500000000001,-1135.2499999999998,-592.2500000000001,-1067.0833333333333,-128.08333333333334,-109.83333333333334,-603.5833333333334,-605.0,-184.5,-252.08333333333331,0.0,0.0,0.0,156.0,-6.833333333333334,-78.25,320.4166666666667,231.83333333333331,-353.41666666666674,80.41666666666666,-1903.5833333333335,-565.5833333333337,-707.0833333333335,-1065.8333333333342,127.91666666666652,200.99999999999994,-1230.5833333333342,-568.5833333333333,-584.7499999999994,-1922.4166666666665,218.75,-1210.0,-906.583333333333,-591.5000000000001,-845.6666666666666,-2052.75,-1054.1666666666665,-82.66666666666666,-47.25,0.0,0.0,3.4166666666666643,124.66666666666666,220.75000000000003,1447.1666666666667,733.25,-770.4166666666666,-1420.3333333333333,-1621.25,-1253.0833333333333,-1565.333333333334,-1845.1666666666656,-380.5833333333335,-1149.3333333333344,788.0000000000014,-1122.5833333333326,-1800.1666666666679,642.4166666666661,-54.74999999999977,-634.7499999999999,546.833333333333,1153.666666666666,542.9166666666666,-146.66666666666674,-1783.0833333333333,-377.5,-69.75,0.0,0.0,-247.91666666666666,267.08333333333337,-137.33333333333331,-490.75,-698.2499999999999,-1504.5833333333337,-920.0833333333335,-1246.3333333333333,441.75000000000006,51.66666666666663,-1357.333333333333,-104.66666666666652,-374.8333333333337,-1312.8333333333337,-631.4999999999998,-2014.500000000001,-405.1666666666665,-1531.6666666666679,-766.6666666666665,-261.9166666666666,-1171.9166666666677,-211.8333333333336,-1204.5833333333335,-2167.0,-130.0,0.0,0.0,0.0,-341.25,-147.33333333333331,-58.83333333333333,-1271.0,-2976.666666666667,-700.6666666666665,-2126.5833333333335,-766.9166666666663,-386.5833333333328,-753.583333333333,1475.2500000000005,-1610.583333333335,262.5833333333335,-1831.749999999999,896.5833333333342,-330.2499999999998,-513.9166666666671,-177.58333333333405,237.58333333333394,307.66666666666663,-403.58333333333337,-1129.916666666667,-2908.333333333333,-1398.8333333333333,-48.0,-123.0,0.0,0.0,-191.75,0.0,-266.08333333333337,-1059.3333333333333,-2063.5833333333335,-464.75,-1840.8333333333335,-1732.2500000000005,-96.91666666666663,-1410.1666666666672,594.666666666667,-692.7499999999992,-125.91666666666657,-201.8333333333337,-1807.333333333333,816.9999999999995,493.16666666666697,-18.833333333333258,-203.3333333333332,-906.5833333333335,-312.75,-2468.166666666668,-3302.5,-2025.0,-217.0,-91.0,0.0,-240.5,-124.58333333333333,-38.0,-882.1666666666666,-1706.4166666666665,-1595.5833333333335,-194.91666666666657,-598.8333333333331,-708.9166666666673,263.9166666666669,-138.08333333333343,-438.33333333333303,-473.41666666666697,783.6666666666677,1028.5833333333317,-660.7500000000011,-68.41666666666691,-860.4166666666649,-1070.6666666666667,-491.2499999999999,585.8333333333333,-317.3333333333335,-1868.083333333334,-1755.9166666666663,-1355.5,-223.0,0.0,0.0,-27.75,-62.83333333333333,-375.25,-1017.3333333333333,-1822.3333333333335,-2684.166666666667,-1728.8333333333333,563.8333333333335,-306.0833333333336,-301.91666666666674,-142.50000000000006,-214.33333333333326,921.6666666666654,293.5833333333335,1981.0833333333399,914.0000000000007,92.24999999999977,-1500.833333333335,-915.2500000000014,-1101.8333333333333,137.91666666666674,-845.75,-1981.666666666667,-2700.0833333333335,-1650.0,-507.75,0.0,0.0,0.0,0.0,-243.83333333333331,-788.25,-1603.9166666666665,-2716.0000000000005,-1682.0833333333333,-850.3333333333342,-2060.833333333332,-1124.7500000000014,489.5000000000002,-953.4166666666665,1184.1666666666656,1270.1666666666626,1885.1666666666679,790.7499999999993,247.41666666666788,-416.3333333333333,-1059.8333333333335,96.74999999999994,247.58333333333331,-622.5833333333334,-666.25,-1424.75,-753.25,-141.0,51.5,0.0,0.0,-119.0,-38.0,-163.41666666666669,-1054.4166666666665,-273.9166666666667,-6.750000000000114,-686.1666666666669,-792.8333333333336,-1371.916666666667,7.916666666666629,-1328.8333333333321,501.00000000000057,2377.0833333333435,748.0000000000031,526.0000000000016,-132.2499999999999,749.2499999999995,-768.2499999999995,-965.7499999999998,182.5,-192.75,-357.4166666666667,-679.6666666666666,-659.5,-637.6666666666666,-52.33333333333333,0.0,0.0,-39.666666666666664,0.0,487.49999999999994,-107.16666666666666,670.0,-480.58333333333326,693.9166666666667,1260.25,-1911.0000000000005,-2010.7500000000005,1144.4999999999982,-850.0833333333335,564.3333333333359,1470.9166666666604,340.4166666666672,1671.0833333333337,-151.9999999999999,-2131.4166666666665,-1691.25,-499.58333333333337,-917.6666666666666,-572.3333333333334,-688.25,-568.75,-317.5,0.0,0.0,0.0,0.0,12.666666666666666,651.0,327.0,56.75,-966.3333333333333,1196.7500000000002,30.333333333333314,-2447.2500000000014,-1684.5000000000005,50.75000000000102,949.9166666666677,150.08333333333331,957.9166666666606,180.74999999999966,281.5833333333335,-2157.166666666667,-2169.9999999999995,-653.1666666666667,-571.7499999999999,-282.5833333333333,82.0,282.0,95.66666666666667,52.08333333333333,0.0,0.0,0.0,0.0,4.333333333333333,80.0,-350.5833333333333,-443.9166666666667,-544.0833333333335,908.8333333333331,-754.083333333333,-2432.2499999999986,776.5833333333326,486.8333333333335,1171.6666666666626,851.9999999999959,-203.16666666666657,2094.083333333338,-1742.2500000000023,-2362.0,-2251.083333333334,-836.0833333333335,-370.99999999999994,-395.0,-425.1666666666667,-245.16666666666666,12.833333333333332,-3.166666666666667,0.0,0.0,0.0,0.0,0.0,-175.33333333333334,-544.2500000000001,-678.25,-1213.2500000000002,-1836.9166666666665,820.0833333333335,-216.41666666666669,243.16666666666777,-898.9166666666679,-381.5833333333326,1108.58333333333,-2329.4166666666597,671.0833333333339,-2011.1666666666647,-2204.8333333333326,-1581.7500000000005,-319.3333333333333,-359.83333333333326,-791.5000000000001,-1241.0833333333333,-104.25000000000006,-656.0833333333333,-512.5,0.0,0.0,0.0,0.0,0.0,-185.0,-708.5,-2075.4166666666665,-1007.25,-625.3333333333334,-1996.7499999999995,767.583333333334,-1458.5,500.0,1296.2499999999964,1817.999999999999,960.1666666666677,-165.33333333333314,-1791.7499999999982,-62.75000000000057,617.8333333333335,-472.58333333333337,-115.33333333333326,-137.5,-799.9999999999998,-431.5,-1543.0,-240.91666666666669,0.0,0.0,0.0,0.0,0.0,-290.6666666666667,-2034.7499999999995,-5109.5,-564.0000000000001,360.2500000000001,-1013.9166666666674,-1572.0000000000007,289.66666666666674,-297.9166666666647,-180.50000000000023,619.7500000000002,-134.25000000000045,-2215.083333333331,983.3333333333342,2051.083333333333,1050.8333333333335,423.25,420.7500000000002,-999.7500000000002,-755.0833333333333,462.58333333333326,718.0000000000001,213.33333333333331,149.33333333333331,0.0,0.0,0.0,-81.25,-782.0,-3113.5000000000005,-2094.333333333332,1287.333333333334,276.99999999999966,856.4166666666665,-287.7500000000003,-1319.8333333333344,-574.9999999999986,-103.9166666666664,-1198.7500000000011,539.2500000000001,1116.0833333333323,-1903.6666666666656,-724.5833333333333,-65.5,535.5833333333333,-1.2500000000000568,-1505.3333333333333,-582.0000000000002,1249.583333333333,1371.3333333333335,72.08333333333333,64.0,0.0,0.0,-109.0,-201.5,-1.1666666666666714,-2709.583333333334,249.25,-1065.9166666666665,1182.4166666666665,-224.5000000000001,607.6666666666679,587.1666666666663,1326.9166666666638,-990.7499999999995,729.8333333333337,-2111.416666666667,1137.9999999999984,2116.5833333333358,878.3333333333344,1843.7499999999998,921.166666666667,587.5833333333328,-949.0833333333335,-416.08333333333326,715.1666666666665,147.25000000000006,142.58333333333331,0.0,0.0,0.0,-254.0,450.16666666666663,909.583333333333,121.58333333333337,1824.8333333333335,-93.50000000000011,716.5000000000009,-832.833333333333,1366.249999999997,-364.41666666666674,137.33333333333337,402.6666666666674,683.2499999999991,1168.3333333333328,-176.75000000000068,-1125.25,693.1666666666656,-1730.1666666666677,1086.9166666666663,1486.2499999999995,-2244.8333333333326,-1221.0,760.9166666666665,797.3333333333333,22.75,0.0,0.0,0.0,-255.0,59.25,96.83333333333343,2988.2499999999995,1513.1666666666663,-1425.0000000000002,-225.08333333333337,1554.7499999999982,-1742.4166666666667,-112.66666666666663,-1930.166666666661,-949.3333333333333,-372.75000000000045,337.41666666666674,-122.58333333333326,707.5000000000002,2910.3333333333326,113.66666666666652,2016.1666666666665,418.3333333333332,-2117.5833333333335,-952.5833333333336,422.9166666666667,397.75,83.25,0.0,0.0,0.0,0.0,-732.4166666666666,-1966.2500000000005,599.3333333333336,1264.3333333333328,-471.6666666666664,-918.4166666666683,441.66666666666674,-646.8333333333335,-83.66666666666589,1782.416666666666,548.4166666666671,-1558.0833333333344,1314.6666666666654,547.5833333333329,1905.666666666667,-546.0833333333333,-980.8333333333339,-1306.333333333333,-1942.833333333333,-1592.3333333333335,-1086.9166666666665,-144.0,166.83333333333331,499.66666666666663,0.0,0.0,0.0,0.0,-412.1666666666667,-691.2499999999999,-701.5833333333333,-84.33333333333331,144.0000000000001,-941.25,-459.16666666666697,-1330.500000000001,-1071.0000000000007,-2046.8333333333335,-1875.3333333333312,-452.4166666666663,-1942.499999999999,-3542.6666666666656,-1187.0833333333335,-971.0833333333333,-317.4999999999999,-459.5,-649.2500000000001,-643.9166666666666,-273.0,-211.0,-35.0,0.0,0.0,0.0,0.0,0.0,0.0,-303.3333333333333,-966.0833333333333,-1442.083333333333,-2577.3333333333335,-2877.25,-3604.9166666666665,-5345.666666666666,-5264.666666666665,-4267.333333333334,-2605.9999999999995,-1831.1666666666665,-3297.083333333334,-3307.666666666667,-2707.5,-2222.4166666666665,-1737.6666666666667,-837.3333333333334,-86.16666666666666,0.0,0.0,0.0,0.0,0.0,0.0,0.0,0.0,0.0,0.0,-335.6666666666667,-491.3333333333333,-232.33333333333334,-342.0,-349.66666666666663,-709.0,-779.0,-1527.5,-2925.9166666666665,-2169.6666666666665,-2017.5833333333333,-1435.1666666666665,-1089.9166666666667,-752.75,-1001.5833333333334,-378.6666666666667,-84.33333333333333,-31.0,0.0,0.0,0.0,0.0,0.0,0.0,0.0,0.0,0.0,0.0,0.0,0.0,0.0,0.0,0.0,0.0,-79.0,-19.0,-110.0,-254.0,-206.0,0.0,0.0,-181.91666666666666,-592.0,-6.166666666666667,0.0,0.0,0.0,0.0,0.0,0.0,0.0,0.0
0.0,0.0,0.0,0.0,0.0,0.0,0.0,0.0,0.0,0.0,0.0,0.0,0.0,0.0,0.0,0.0,0.0,0.0,0.0,0.0,0.0,0.0,0.0,0.0,0.0,0.0,0.0,0.0,0.0,0.0,0.0,0.0,0.0,0.0,-57.0,-80.75,-103.0,-298.75,-385.75,-275.6666666666667,-680.9166666666666,-1049.8333333333335,-1637.3333333333333,-791.7499999999999,-245.75,-792.0,-483.6666666666667,0.0,0.0,0.0,0.0,0.0,0.0,0.0,0.0,0.0,0.0,0.0,0.0,0.0,0.0,0.0,-23.5,-324.0,-543.0833333333334,-882.8333333333336,-3093.2499999999986,-2246.5,-1829.0000000000002,-1517.6666666666658,-2974.833333333334,-199.50000000000023,-645.5833333333336,-2632.583333333333,-3132.0833333333335,-2288.9166666666665,-1980.5000000000005,-1254.0,-1008.0,-175.0,0.0,0.0,0.0,0.0,0.0,0.0,0.0,0.0,-16.0,-386.5,-688.1666666666666,-534.5,-780.3333333333334,342.0000000000001,484.3333333333335,-252.33333333333337,-124.33333333333326,24.750000000000227,433.83333333333326,-1831.9999999999986,-233.3333333333337,314.0,-437.8333333333329,-118.58333333333348,-1304.166666666667,-1185.583333333333,-328.08333333333337,-1358.0,-674.5,0.0,0.0,0.0,0.0,0.0,-32.0,-158.5,-738.9166666666666,-157.6666666666666,651.5833333333333,821.1666666666673,744.0833333333328,2019.3333333333303,-814.2499999999999,-1272.4166666666672,718.8333333333339,-20.000000000000455,288.33333333333337,-767.083333333333,449.7500000000023,-387.7500000000018,105.7499999999992,-186.25000000000068,-563.7499999999986,-1369.833333333332,-2527.500000000001,-2939.583333333333,-2110.833333333333,-493.1666666666667,-63.0,-63.0,0.0,0.0,-76.0,85.08333333333333,576.0833333333334,-466.7500000000002,-352.6666666666665,-23.250000000000114,531.7499999999998,-1688.8333333333337,-321.5833333333332,1294.166666666667,-265.24999999999955,386.83333333333314,416.83333333333417,266.91666666666833,556.749999999997,257.25,1184.1666666666672,-779.6666666666658,725.5833333333335,68.66666666666652,2156.5833333333326,-2523.6666666666642,-3558.083333333334,-930.5833333333334,-212.0,-93.0,0.0,0.0,-341.5833333333333,-376.49999999999994,416.3333333333334,-726.0833333333335,-783.6666666666666,398.5000000000001,-63.58333333333343,-375.66666666666674,726.3333333333344,-241.83333333333326,-148.4999999999991,1067.3333333333342,-651.5833333333363,-227.75,236.50000000000136,-270.3333333333344,-1044.1666666666674,535.6666666666662,-1422.583333333336,-859.9166666666674,-741.2500000000003,-2671.333333333333,-2766.416666666666,-930.3333333333334,-78.0,-78.0,0.0,-97.0,592.9166666666666,-413.24999999999983,916.0000000000005,-579.3333333333329,677.0000000000002,-986.2499999999993,1290.9166666666656,-801.4999999999998,-1389.6666666666677,228.41666666666686,180.41666666666777,50.916666666667425,829.7500000000009,-1450.0000000000045,1224.166666666663,-1704.1666666666686,886.5000000000009,-1226.0000000000014,-349.99999999999955,403.4166666666674,1718.6666666666679,-4097.333333333338,-3703.6666666666665,-520.5,-121.0,-95.0,0.0,-107.0,57.91666666666667,-1562.25,1832.1666666666663,-558.8333333333335,-534.0833333333333,-38.500000000000114,184.0833333333337,-61.0833333333328,926.3333333333289,205.91666666666703,-639.8333333333314,417.0833333333327,598.8333333333346,-141.16666666666697,-1082.3333333333326,41.500000000000796,-1317.916666666666,197.75000000000114,1492.666666666665,-621.4999999999995,-220.8333333333336,-453.0833333333337,-4896.75,-1689.2499999999998,-69.75,0.0,0.0,-222.75,-688.4166666666666,-1483.0833333333333,-1092.3333333333337,1928.583333333333,-2392.8333333333335,-358.6666666666656,-837.6666666666649,210.9166666666663,-205.75000000000148,749.8333333333325,-507.916666666668,-306.5000000000002,-459.2499999999983,238.9166666666668,1527.5833333333333,-1173.9166666666679,572.0000000000005,163.25,71.3333333333328,-1477.9166666666652,-120.33333333333314,-254.08333333333383,-3938.7499999999995,-2145.8333333333335,3.5,0.0,0.0,-365.75,-625.6666666666666,-1226.8333333333333,-2135.8333333333344,240.91666666666617,1472.166666666667,186.33333333333348,1117.3333333333355,58.000000000000455,420.91666666666833,1218.5833333333326,-20.916666666666742,-105.4166666666672,745.916666666669,-1539.8333333333376,-932.4166666666663,208.33333333333212,735.0,-1029.7500000000016,322.58333333333405,810.2499999999982,-809.4166666666673,-834.0833333333344,-2711.8333333333335,-1974.5,117.0,0.0,0.0,-66.0,-444.5,-2370.083333333333,-1725.8333333333335,2638.166666666667,2805.5833333333335,-335.33333333333485,-1531.2499999999968,-1729.2500000000036,-2667.833333333332,-2306.1666666666642,-2453.5833333333335,-2088.4999999999986,-1379.9166666666663,386.5833333333338,-500.33333333333417,-854.2500000000008,-72.99999999999977,637.5000000000018,-1052.2500000000018,-352.08333333333314,-473.08333333333405,-726.8333333333333,-1458.9166666666667,-64.33333333333333,94.08333333333336,-403.9166666666667,0.0,0.0,-136.0,-2882.9166666666665,-1035.5833333333337,461.7499999999998,-4586.999999999995,-4869.583333333333,-690.5000000000009,-1272.08333333333,-1562.4999999999973,-1404.4166666666667,-2047.666666666666,-118.66666666666708,-2426.16666666667,-1524.6666666666686,-130.5000000000016,-1775.3333333333312,-708.0,1281.5833333333342,980.1666666666677,1244.2499999999995,114.00000000000023,-4811.083333333328,562.5833333333331,2522.833333333333,752.6666666666667,-276.16666666666663,0.0,0.0,-7.0,-2775.0000000000005,-4468.583333333333,-5300.416666666665,-3436.0,-2155.166666666664,-781.8333333333323,-755.7500000000005,-273.5000000000002,224.91666666666714,446.4166666666665,49.166666666666515,-71.58333333333474,-1071.3333333333344,-1167.8333333333348,418.3333333333344,-565.916666666667,-865.5833333333323,-1063.8333333333346,-201.66666666666714,-1131.3333333333333,-1906.75,2414.8333333333326,3790.583333333333,2558.333333333333,1059.4166666666667,0.0,-448.25,-195.5,-1971.666666666666,-2469.583333333334,-3324.5833333333317,-1123.4999999999993,1797.8333333333348,-497.0833333333336,435.1666666666665,-553.0833333333337,-294.9999999999998,40.33333333333121,-233.1666666666681,566.1666666666702,-896.0833333333339,400.91666666666765,-998.5833333333339,1099.6666666666683,-448.08333333333076,448.83333333333326,-960.9999999999977,-500.0000000000002,758.7500000000005,-1146.666666666667,1964.3333333333321,2843.9166666666674,62.5,0.0,-640.3333333333334,-681.5,-666.7499999999998,1328.8333333333328,3691.999999999998,1443.3333333333358,-3379.333333333331,89.99999999999898,210.33333333333348,-212.24999999999943,1339.2499999999995,194.08333333333303,-71.41666666666583,-417.8333333333344,479.4999999999999,135.41666666666663,-751.5000000000018,-1119.5000000000002,311.00000000000125,-1118.6666666666658,-430.3333333333326,-460.83333333333337,-2018.833333333338,375.1666666666664,1794.0,4021.0833333333335,774.0833333333334,0.0,-303.1666666666667,-1374.2500000000002,720.25,482.66666666666674,-620.5833333333333,1537.8333333333303,427.91666666666674,-149.75000000000057,-16.583333333334622,583.7500000000007,-585.7500000000018,54.24999999999898,289.25000000000273,-29.416666666668107,-36.25000000000114,859.3333333333314,1199.583333333331,-354.9166666666674,745.416666666667,-727.6666666666663,742.9166666666654,972.6666666666658,382.5,59.500000000000114,2232.833333333332,4693.833333333333,701.5833333333334,0.0,-146.25,-921.5833333333334,-126.5,-1477.1666666666663,260.58333333333337,839.6666666666665,-886.833333333334,1233.1666666666674,321.41666666666754,-556.3333333333336,714.4166666666672,-153.4166666666651,344.5000000000009,357.5000000000006,1273.0833333333298,-318.5000000000002,-1157.4166666666652,364.66666666666663,-1433.5833333333333,-383.00000000000057,-839.1666666666681,-1051.083333333334,348.4166666666665,-313.91666666666674,3503.4166666666697,2474.666666666666,62.75,0.0,-10.5,-778.9166666666666,-930.9166666666672,-108.91666666666674,1809.0833333333385,965.749999999997,577.2500000000014,-316.5833333333321,-262.4166666666672,809.5833333333348,-503.7499999999999,1022.4166666666672,493.2500000000009,358.75000000000136,581.250000000001,131.16666666666686,1299.0833333333353,-251.75000000000125,1465.75,326.33333333333314,220.66666666666674,724.0000000000005,696.333333333333,3153.499999999998,2928.8333333333335,230.25,0.0,0.0,-52.0,-637.3333333333334,-1228.9166666666665,514.6666666666671,185.16666666666617,-729.0833333333337,-602.2500000000005,-115.41666666666754,269.3333333333335,326.2499999999991,-50.41666666666538,75.33333333333417,799.9999999999984,355.4166666666688,579.5000000000003,133.24999999999875,667.7499999999982,303.4166666666674,-131.41666666666652,322.2499999999999,191.91666666666765,224.58333333333348,-559.833333333334,-8.83333333333303,3754.9166666666665,1254.6666666666667,0.0,0.0,-131.0,143.24999999999997,-272.9999999999998,1119.4166666666654,76.41666666666674,1427.2499999999973,2985.2500000000045,889.2499999999986,423.5833333333321,170.58333333333485,698.416666666667,301.00000000000136,27.666666666666515,39.25000000000159,-64.74999999999818,580.0833333333328,-2104.1666666666642,650.0000000000014,-578.7500000000006,97.0000000000008,998.4166666666665,-246.66666666666663,0.7500000000001137,2814.0,2005.666666666667,642.4166666666666,0.0,0.0,0.0,236.08333333333331,-1726.6666666666663,-207.75000000000006,-531.833333333334,-230.5833333333328,-954.9166666666686,-1048.4999999999975,453.0000000000007,-47.5,-358.83333333333366,-581.2500000000007,-598.5000000000009,-999.5833333333326,-1339.5000000000005,10.583333333333712,429.8333333333335,-1035.25,1579.416666666667,-206.33333333333314,412.91666666666606,1534.833333333334,2894.333333333335,551.9166666666669,1080.6666666666665,120.75,0.0,0.0,0.0,-50.83333333333334,-1551.1666666666665,1701.083333333334,-28.16666666666663,863.4999999999991,721.2500000000009,1195.7499999999986,607.9166666666692,-294.3333333333333,-144.58333333333326,-475.7500000000008,294.08333333333303,-250.83333333333303,-1023.5833333333344,-433.1666666666673,-44.500000000000455,643.8333333333335,-453.7500000000009,724.9166666666662,-329.58333333333337,1144.4166666666665,592.3333333333333,1596.75,571.9166666666667,-406.0,0.0,0.0,0.0,6.166666666666667,-1094.4166666666667,477.5,-949.2500000000005,982.4166666666656,-310.33333333333303,-492.4166666666663,-155.25,-597.8333333333358,-181.2500000000008,-167.58333333333383,-1565.3333333333305,-215.83333333333337,-846.2500000000007,735.4166666666681,-1780.1666666666692,1726.9166666666688,382.58333333333223,597.0833333333334,2389.6666666666692,1917.666666666667,535.5833333333331,654.1666666666669,607.8333333333334,-151.83333333333334,0.0,0.0,0.0,-105.0,-1801.5000000000002,-2843.2499999999995,-2607.4166666666674,-2274.083333333333,-1597.1666666666638,-346.1666666666663,110.25,-218.1666666666664,-837.4999999999999,-270.83333333333354,-814.3333333333331,744.1666666666652,-735.0833333333336,-1194.3333333333346,50.00000000000023,1260.4166666666667,319.00000000000006,-1271.8333333333333,-426.0833333333335,-67.75000000000017,137.33333333333343,2116.25,1246.6666666666667,0.0,0.0,0.0,0.0,0.0,-827.8333333333334,-1975.1666666666665,-2982.8333333333335,-2397.166666666667,-3185.5000000000005,-4811.75,-5990.666666666666,-4629.749999999999,-4024.666666666667,-4467.833333333333,-3501.0833333333326,-685.0833333333336,-91.16666666666669,-2201.583333333332,-909.6666666666665,-3600.0000000000005,-2552.0833333333335,-1810.8333333333335,-2988.0,-2756.9166666666665,-1452.8333333333335,-201.5,0.0,0.0,0.0,0.0,0.0,0.0,0.0,-90.66666666666666,-337.3333333333333,-407.3333333333333,-903.1666666666667,-1235.3333333333333,-1414.3333333333333,-1676.0,-2235.9166666666665,-1433.5,-1892.1666666666667,-1493.1666666666667,-1978.0,-1973.0,-1297.5,-1209.0,-660.0,-785.0,-786.25,-235.5,0.0,0.0,0.0,0.0,0.0,0.0,0.0,0.0,0.0,0.0,0.0,0.0,0.0,0.0,-4.0,-190.0,-137.25,-63.0,0.0,-247.5,-328.5,-161.0,-252.0,-122.0,0.0,0.0,-11.0,-154.0,0.0,0.0,0.0,0.0,0.0
0.0,0.0,0.0,0.0,0.0,0.0,0.0,0.0,0.0,0.0,0.0,0.0,0.0,0.0,0.0,0.0,0.0,0.0,0.0,0.0,0.0,0.0,0.0,0.0,0.0,0.0,0.0,0.0,0.0,0.0,0.0,0.0,0.0,0.0,0.0,0.0,0.0,0.0,0.0,0.0,0.0,0.0,0.0,0.0,0.0,0.0,0.0,0.0,0.0,0.0,0.0,0.0,0.0,0.0,0.0,0.0,0.0,0.0,0.0,0.0,0.0,0.0,0.0,0.0,0.0,-427.3333333333333,-542.0833333333333,-157.66666666666669,-224.16666666666663,-380.0,-523.1666666666666,-1489.6666666666667,-406.4166666666667,-139.33333333333337,-903.3333333333334,-1261.5,-571.5,-356.0,-200.0,-122.0,0.0,0.0,0.0,0.0,0.0,0.0,0.0,0.0,0.0,352.33333333333337,-395.6666666666667,500.9166666666667,934.4166666666666,-431.16666666666663,-1085.2500000000005,999.416666666667,1326.2499999999993,-1574.9166666666674,765.666666666667,1155.833333333333,-985.75,546.1666666666663,40.000000000000114,1097.6666666666656,2714.1666666666683,-566.3333333333334,-1670.6666666666667,-421.3333333333333,0.0,0.0,0.0,0.0,0.0,0.0,0.0,138.75,546.3333333333334,1109.9999999999998,-404.66666666666674,-70.74999999999983,1083.666666666666,13.083333333333599,261.3333333333326,-481.4999999999991,1073.8333333333326,77.58333333333405,468.3333333333336,-713.5000000000007,1034.833333333331,-1566.1666666666647,1467.999999999999,-1888.1666666666654,-723.3333333333329,-421.41666666666754,-1309.7499999999998,-3823.5833333333335,-1187.75,-239.0,0.0,0.0,0.0,0.0,-106.0,668.75,2173.1666666666674,1589.333333333332,531.3333333333344,696.7500000000014,665.3333333333335,-260.74999999999966,730.9166666666665,-182.75000000000023,628.0833333333339,-983.0833333333342,835.5000000000016,345.1666666666672,1095.3333333333342,-1172.500000000004,-273.1666666666672,431.7499999999993,-473.25,-1201.4999999999998,-312.41666666666765,-2673.999999999999,-1162.25,-398.5,0.0,0.0,0.0,14.0,-242.66666666666666,-230.74999999999997,1178.9999999999995,-1338.25,429.91666666666697,-1059.2500000000002,-499.58333333333394,367.08333333333553,302.0000000000016,598.4166666666649,-470.41666666666606,1367.4166666666622,-357.666666666668,748.4166666666675,238.7500000000001,202.0833333333337,1097.833333333328,-2135.9166666666715,505.0833333333337,-75.58333333333303,496.24999999999966,-965.5833333333333,-579.4166666666666,-385.75,0.0,0.0,-47.0,13.0,-1776.75,-288.0,927.5,1089.8333333333333,725.75,-129.3333333333336,892.9166666666658,840.9166666666679,-1026.0000000000018,158.74999999999955,978.6666666666672,-179.08333333333394,1046.3333333333258,-70.66666666666424,186.75,418.0000000000016,-1161.6666666666679,459.66666666666686,-97.8333333333344,-1446.0833333333328,-742.6666666666661,-1016.1666666666672,-2724.8333333333335,-1292.0,-206.0,0.0,-191.0,-836.0,-2684.25,-887.3333333333337,797.2500000000002,-1193.333333333335,212.3333333333345,1154.5833333333335,-1252.3333333333362,-1457.8333333333333,560.2500000000014,-524.3333333333335,760.3333333333317,-21.416666666666742,107.41666666666606,-608.7500000000005,360.99999999999636,-911.4166666666663,1979.0833333333303,140.75000000000148,242.24999999999932,-737.3333333333339,1691.4166666666665,-3740.583333333334,-7152.333333333333,-2843.5,-217.0,0.0,-31.0,-823.0,-1600.1666666666665,359.24999999999994,942.5,169.8333333333331,459.1666666666679,-797.8333333333335,-680.4166666666671,648.0000000000005,-682.000000000001,-1560.583333333333,-242.16666666666754,-665.166666666667,-116.66666666666652,863.6666666666633,-369.00000000000216,829.5833333333328,-970.9166666666706,452.66666666666777,1090.7499999999986,388.3333333333337,1186.0833333333364,-3426.333333333334,-7530.833333333335,-1754.0,-122.0,0.0,0.0,-652.0,-1535.0000000000002,1161.0,54.25000000000006,-29.333333333333258,-220.58333333333326,746.8333333333328,703.1666666666652,-2971.416666666668,-929.3333333333374,14.916666666667538,-2632.1666666666597,1155.6666666666724,606.2500000000028,207.41666666666742,992.6666666666667,85.25000000000091,396.00000000000296,-274.16666666666697,566.2500000000008,-229.58333333333235,2347.5833333333367,-826.583333333333,-4215.416666666668,-1157.9166666666667,-286.5,0.0,0.0,-386.5,-1799.25,1677.0833333333335,340.83333333333326,-75.33333333333326,-747.4166666666665,-1826.166666666667,-2418.6666666666647,-432.91666666666754,-1319.3333333333326,-1165.9166666666672,35.91666666666799,652.0833333333358,-329.4166666666679,1378.6666666666597,-328.9999999999982,1198.9999999999948,834.083333333343,194.08333333333417,524.4166666666674,-44.249999999999886,854.75,-2518.333333333333,-2023.0833333333333,208.0,0.0,0.0,0.0,-337.5,-988.75,113.41666666666666,-783.666666666667,-910.2500000000002,-1328.0833333333333,-1367.1666666666677,-940.6666666666675,-565.1666666666667,78.33333333333394,-343.16666666666674,790.0833333333314,-1051.8333333333362,2002.6666666666733,51.16666666666822,1154.9166666666654,-1379.1666666666683,-666.7499999999986,499.9166666666665,-669.416666666667,-2014.9999999999964,-4294.916666666664,-4459.583333333337,-1502.2500000000002,236.25,0.0,0.0,0.0,-632.5,-958.0,-618.8333333333333,-2153.250000000001,-655.4166666666663,640.0000000000002,166.08333333333394,57.583333333332575,-342.75000000000034,-229.4166666666672,-304.7499999999991,-264.0833333333326,628.7500000000023,371.2500000000043,-363.1666666666663,314.25000000000387,574.5833333333342,22.66666666666606,-518.3333333333346,-732.6666666666695,-2397.5833333333308,-4929.166666666669,-2671.8333333333326,-948.8333333333333,152.75,-257.0,-198.33333333333334,0.0,-277.75,-844.1666666666666,-55.08333333333334,-1220.6666666666663,-1036.3333333333335,-996.4166666666665,-681.9166666666667,-27.166666666666515,-348.75000000000136,-638.7500000000011,-235.83333333333314,1500.5833333333323,-861.0000000000025,-4.666666666666629,-278.9166666666663,267.16666666666936,354.4166666666688,-1092.4999999999977,-201.91666666666697,-3335.166666666659,1740.333333333333,878.25,332.24999999999994,-796.9166666666667,-850.4166666666667,-1393.5,-147.33333333333334,0.0,41.5,-55.08333333333334,356.0833333333333,-1540.2500000000007,-903.2500000000005,-319.1666666666671,-3.7499999999998295,-293.91666666666595,-67.91666666666708,-147.74999999999977,-819.2499999999975,1145.4166666666638,-30.000000000000227,275.25000000000114,514.9999999999955,541.3333333333351,-1226.083333333339,-257.0833333333344,-787.1666666666674,2806.083333333339,798.9166666666642,2447.1666666666683,2682.499999999999,-1368.5000000000007,-3368.166666666667,-1193.0,-141.0,0.0,26.75,1450.8333333333333,1918.250000000001,758.666666666667,1469.4999999999977,-1473.5833333333335,-1113.2499999999995,-2778.166666666673,1172.6666666666672,247.00000000000063,237.33333333333348,-181.49999999999898,207.0833333333344,-1037.5833333333385,-481.3333333333369,-1423.416666666657,-981.4166666666654,1497.3333333333317,669.3333333333335,753.6666666666654,-336.6666666666679,-1236.2499999999995,719.25,-200.5000000000001,-3670.083333333333,-1150.1666666666667,-154.5,0.0,9.25,1799.1666666666665,1616.333333333334,434.25000000000034,211.00000000000045,-623.3333333333348,1277.583333333334,-145.00000000000068,-2540.666666666667,-1169.6666666666688,-1813.9166666666638,3.416666666667652,-818.666666666667,-1183.333333333334,-1335.1666666666688,491.91666666666833,1389.083333333334,187.2500000000004,517.0,15.666666666666401,-103.1666666666664,1534.4999999999973,1214.5,-1777.0833333333321,-2969.083333333333,-382.6666666666667,0.0,0.0,0.0,1111.1666666666665,2996.666666666669,-1983.0833333333335,1679.666666666666,215.66666666666754,-701.8333333333333,286.8333333333336,-671.9166666666654,-1563.9999999999982,-1371.3333333333385,-2942.249999999992,-2478.500000000002,-507.08333333333246,-153.9166666666655,679.666666666667,-874.0000000000023,-327.7499999999993,763.4999999999995,-83.33333333333405,1927.5833333333326,1540.2500000000011,-1316.9166666666667,-3603.8333333333317,-2121.5,-160.0,0.0,0.0,0.0,213.25,2764.583333333333,-1753.500000000001,1738.5000000000018,-738.1666666666663,-670.3333333333339,-773.0000000000011,-1107.4166666666667,-705.333333333333,-356.41666666666765,184.58333333333394,-104.91666666666606,-1186.833333333334,-561.3333333333339,-99.5833333333328,1482.750000000001,135.16666666666902,221.6666666666672,43.99999999999932,-607.3333333333337,-1117.333333333333,1045.4166666666663,-1771.583333333334,-2076.75,-670.0,0.0,0.0,0.0,-168.08333333333334,2090.5,474.25000000000057,-42.49999999999977,666.3333333333328,184.3333333333337,-135.58333333333292,567.0000000000025,-201.74999999999932,-480.4166666666674,-897.9166666666679,-997.9999999999991,234.33333333333348,200.6666666666681,-1072.4166666666727,195.833333333332,1299.7500000000025,-1722.3333333333371,1721.166666666666,-455.66666666666674,-879.0000000000009,340.16666666666663,-2832.083333333332,-1239.25,-550.0,0.0,0.0,0.0,-621.9999999999999,-710.5833333333333,115.41666666666765,1058.75,392.16666666666697,-616.9166666666667,747.6666666666656,-511.4999999999968,-135.16666666666572,-284.75,-195.16666666666777,-509.49999999999966,115.91666666666447,307.416666666669,1113.8333333333355,-1404.6666666666724,193.1666666666638,932.2499999999964,-344.1666666666663,-812.2499999999995,547.8333333333331,-2393.5833333333344,-4349.666666666667,-780.25,-128.0,0.0,0.0,0.0,-1118.5,305.49999999999994,1041.5833333333344,-252.08333333333314,-127.66666666666686,604.7499999999995,-1367.8333333333376,227.9166666666673,-102.4166666666664,175.66666666666788,138.9166666666673,400.91666666666833,-671.2500000000034,-358.2500000000025,504.25000000000216,650.3333333333342,-276.3333333333319,-1395.666666666668,975.9999999999998,-263.3333333333336,536.3333333333335,-1264.4999999999993,-1868.916666666667,-178.25,0.0,0.0,0.0,0.0,76.25,823.0833333333334,1909.9999999999995,-24.1666666666664,704.75,848.9166666666654,-98.74999999999994,480.25000000000045,-347.58333333333337,-631.9999999999995,-281.4999999999999,527.5000000000018,-351.0833333333321,645.5000000000003,-1082.0833333333314,-384.5000000000007,1562.4166666666663,775.0833333333337,-893.5000000000011,-321.0833333333338,-1811.083333333333,-1313.8333333333335,-919.5,-5.0,0.0,0.0,0.0,0.0,-267.5,1009.9166666666666,1142.2499999999995,-1280.916666666667,1083.0833333333326,897.7499999999993,586.1666666666667,-1436.0000000000045,1355.7499999999982,179.33333333333258,156.25000000000023,157.9999999999999,272.5000000000016,-854.8333333333335,1003.7499999999986,388.0833333333338,-3054.8333333333317,-671.5833333333339,-1312.166666666668,-619.6666666666664,-423.75,-87.49999999999999,-103.0,0.0,0.0,0.0,0.0,0.0,0.0,-85.5,-646.25,-949.4166666666667,-1158.4999999999998,-747.5833333333331,638.0000000000003,1174.0000000000005,175.33333333333405,-200.41666666666674,539.7500000000001,-111.66666666666663,457.58333333333326,-295.7499999999999,-241.08333333333292,-730.8333333333333,-801.7500000000003,421.33333333333326,-537.25,-886.6666666666669,-400.08333333333337,-37.0,0.0,0.0,0.0,0.0,0.0,0.0,0.0,0.0,-9.0,65.5,-280.08333333333337,-406.41666666666663,-1208.25,-1510.9999999999998,-1235.8333333333335,-2934.4166666666665,-3253.5833333333335,-3224.333333333333,-5350.416666666666,-4535.916666666667,-2013.666666666666,-1877.8333333333337,-808.1666666666667,431.0,205.91666666666669,61.08333333333333,9.25,0.0,0.0,0.0,0.0,0.0,0.0,0.0,0.0,0.0,0.0,0.0,0.0,0.0,0.0,0.0,-332.0,-276.0,-7.0,-520.5,-812.5,-599.5,-488.0,-567.5,-224.0,0.0,0.0,0.0,0.0,0.0,0.0,0.0,0.0,0.0
0.0,0.0,0.0,0.0,0.0,0.0,0.0,0.0,0.0,0.0,0.0,0.0,0.0,0.0,0.0,0.0,0.0,0.0,0.0,0.0,0.0,0.0,0.0,0.0,0.0,0.0,0.0,0.0,0.0,0.0,0.0,0.0,0.0,-22.666666666666668,-767.3333333333334,-1232.75,-835.1666666666666,-513.0,-890.0,-1260.25,-1457.0,-954.6666666666666,-349.4166666666667,-1086.0,-274.0,-4.0,-168.0,-781.3333333333334,-398.58333333333337,-453.25,-1002.0833333333334,-653.6666666666666,0.0,0.0,0.0,0.0,0.0,0.0,0.0,-60.416666666666664,-383.5,-82.16666666666667,-855.5833333333334,-2738.0,-2607.583333333333,-2438.5,-3997.5,-4278.916666666667,-4385.666666666666,-2928.6666666666665,-2201.166666666667,-1839.7500000000002,-2151.75,-2942.3333333333335,-2628.166666666667,-1997.8333333333335,-1554.25,-1434.7500000000002,-2152.916666666667,-970.9166666666666,-224.66666666666666,-41.33333333333333,0.0,0.0,0.0,0.0,0.0,-175.0,-58.33333333333333,-362.6666666666667,-1758.5000000000002,-3040.9166666666665,-3964.8333333333335,-4198.833333333333,-3681.0833333333335,-3613.9166666666674,-6046.499999999999,-8055.750000000001,-5646.916666666667,-3898.833333333335,-3193.8333333333326,-4628.166666666668,-3768.083333333332,-1139.9166666666667,-1755.7500000000002,-1042.6666666666667,-1485.5000000000002,-781.7500000000002,-654.3333333333334,-6.0,0.0,0.0,0.0,0.0,0.0,0.0,-29.5,-433.1666666666666,-2601.1666666666665,-2114.416666666667,-2816.666666666667,-3286.916666666667,-2337.583333333333,-562.2499999999998,-837.5000000000002,1011.4166666666665,-2581.4166666666683,-1542.333333333335,11.333333333333087,-1485.8333333333321,-1978.0000000000005,-123.16666666666652,429.83333333333326,-170.83333333333331,841.5,825.9166666666667,1329.5,-63.41666666666666,-224.58333333333334,0.0,0.0,0.0,-97.91666666666667,63.0,-64.75,247.83333333333337,-1699.4166666666667,-1255.5000000000005,-311.1666666666666,-557.8333333333328,-421.0833333333335,195.41666666666742,-1210.250000000001,-749.8333333333335,156.5000000000001,644.4166666666669,788.5833333333339,620.2499999999986,328.0000000000001,910.0000000000005,497.66666666666663,-75.75000000000014,-641.9999999999997,1338.4999999999998,-1966.5833333333337,-1534.8333333333335,-553.6666666666666,0.0,0.0,0.0,-93.66666666666666,-158.66666666666669,642.2499999999998,1175.3333333333333,-1909.4166666666667,1022.9999999999995,10.583333333333371,-490.00000000000045,-949.4999999999993,-1478.0833333333344,-1046.6666666666665,-1508.416666666668,-2012.166666666667,-2538.5833333333308,-1408.5000000000014,-1241.4999999999995,-1695.0833333333348,-916.5,132.5833333333336,-687.0833333333335,-109.83333333333314,2856.5833333333344,-1773.75,-1171.3333333333337,39.5,0.0,0.0,0.0,-105.99999999999999,106.83333333333334,-67.33333333333337,1102.75,-646.5833333333333,-0.16666666666662877,-218.33333333333326,-38.49999999999977,271.0833333333335,-172.1666666666673,-1760.0833333333353,784.0833333333337,-1807.7500000000027,-675.9166666666682,-1104.9166666666667,-93.41666666666697,-413.0833333333337,587.3333333333329,270.2499999999998,1050.166666666666,-456.83333333333337,1028.9166666666665,-1021.0833333333335,-1338.5833333333335,-1146.5833333333333,-123.33333333333333,0.0,-351.5833333333333,171.33333333333331,-199.08333333333337,-504.08333333333326,701.3333333333328,238.99999999999977,691.6666666666674,-1773.916666666667,1065.1666666666665,-936.2499999999989,1132.416666666667,-1476.0000000000014,-1303.5,-1349.1666666666677,-71.1666666666676,-1596.0833333333335,10.916666666666742,161.25000000000023,524.0833333333326,-194.74999999999966,-396.41666666666765,-1107.083333333334,-56.33333333333337,-1078.8333333333335,-983.916666666667,-1074.4999999999995,-446.66666666666663,0.0,-272.5,-411.5,-2063.1666666666665,-1674.2499999999998,211.33333333333337,-639.5833333333329,-133.0,613.5000000000001,-1193.5000000000011,-1692.0000000000014,-508.1666666666674,19.083333333333144,-713.7500000000006,-1870.7500000000014,-970.7500000000002,-325.6666666666672,-1168.4999999999977,1083.416666666667,-832.333333333333,470.1666666666674,518.0833333333342,517.1666666666672,179.7500000000001,-2328.7499999999986,-1699.333333333334,-882.9999999999999,-256.25,0.0,-254.0,-1318.0833333333335,-2766.583333333333,-55.8333333333332,-438.5833333333335,-1121.9166666666683,239.74999999999977,-153.0000000000016,942.8333333333335,-660.6666666666673,357.0,232.4166666666663,86.49999999999932,-2175.916666666664,790.1666666666661,-1748.4999999999982,384.4999999999998,-1402.2499999999995,1013.9166666666649,-611.2500000000005,-477.1666666666673,468.50000000000057,-557.1666666666665,-356.16666666666674,-1899.0833333333335,-1295.5833333333335,0.0,0.0,-148.0,-1003.5833333333333,-352.08333333333326,-72.4166666666672,684.1666666666666,-291.50000000000045,-357.49999999999955,-820.5833333333321,1471.1666666666679,509.91666666666777,-955.5833333333335,381.3333333333345,-2773.0000000000023,-1959.9999999999955,755.833333333333,1189.6666666666667,-425.08333333333303,16.66666666666731,1181.9166666666663,-1265.7500000000014,15.416666666666742,-1503.0000000000014,-3483.7500000000023,-3926.916666666667,-1971.9166666666667,-508.08333333333337,0.0,0.0,-240.0,-1154.5833333333333,-1192.9166666666665,-2140.8333333333335,-1375.1666666666667,-425.33333333333314,1350.4999999999989,-3.916666666666174,-1523.6666666666683,1094.9999999999993,-217.99999999999875,3641.8333333333358,-246.00000000000023,-1470.0000000000016,46.41666666666765,1571.0833333333337,-652.5000000000014,-679.1666666666657,-208.33333333333343,-526.0833333333322,710.3333333333335,666.1666666666667,-913.6666666666665,-1559.0000000000007,-2204.4166666666674,-582.4166666666667,-19.333333333333332,0.0,-103.0,-746.0833333333333,-2051.3333333333335,-2851.250000000001,-227.16666666666657,741.25,-245.33333333333348,630.1666666666665,1518.2500000000018,1480.3333333333335,1644.666666666672,1056.916666666666,-1643.333333333334,-161.16666666666663,1078.3333333333376,-425.75000000000045,388.41666666666765,528.5000000000014,-897.7500000000007,305.2499999999991,710.4166666666656,624.6666666666649,-2097.333333333333,-3308.999999999998,-989.5000000000002,-667.3333333333333,-81.0,0.0,0.0,-318.41666666666663,-1270.083333333333,1625.333333333333,1650.5833333333303,1309.6666666666645,2190.2499999999986,466.0000000000002,171.08333333333485,-71.49999999999955,-18.749999999999318,2149.083333333332,-1476.416666666666,-496.83333333333485,1108.5000000000011,816.0000000000009,883.9166666666661,-936.8333333333348,1337.5000000000055,215.00000000000057,582.8333333333342,335.16666666666765,-1192.833333333334,-1803.666666666668,-971.75,-1664.6666666666667,-9.0,0.0,0.0,-108.41666666666666,-230.58333333333337,1924.5,1077.5833333333333,57.08333333333292,804.0833333333344,387.5000000000016,451.0833333333321,723.3333333333364,497.3333333333321,932.0833333333374,-1283.8333333333344,1019.2500000000009,-225.83333333333485,1447.6666666666633,599.9166666666656,-717.1666666666674,1630.666666666667,-80.50000000000034,-1839.166666666666,1156.7499999999993,895.6666666666667,-2574.4166666666647,-2179.666666666667,-263.66666666666674,6.0,0.0,0.0,-233.08333333333331,-1888.4166666666674,-1519.083333333333,-704.4999999999998,-253.75000000000045,289.0833333333337,1454.1666666666706,-718.4166666666665,1321.4166666666665,-2104.249999999997,2046.3333333333317,-497.33333333333485,1893.583333333334,1398.5000000000014,29.666666666666515,185.25000000000182,-379.2500000000007,-282.08333333333303,1065.583333333333,2311.1666666666665,98.75000000000045,169.5,-2477.499999999998,-2901.666666666667,-1937.7500000000002,-26.0,0.0,0.0,72.83333333333333,-3158.833333333334,-1594.166666666667,305.3333333333335,328.58333333333326,1557.8333333333323,296.58333333333246,-696.0833333333334,474.75000000000114,-635.4999999999998,-524.9166666666669,371.5000000000007,512.2500000000003,223.0000000000009,1270.4166666666667,1180.7499999999993,2024.9166666666715,-1897.9166666666683,-182.41666666666657,230.66666666666686,-1378.583333333333,770.2500000000001,-4000.416666666668,-3711.583333333333,-1348.5,-495.6666666666667,-125.0,0.0,-273.4166666666667,-1984.7499999999995,-1634.833333333333,-470.8333333333327,-707.8333333333321,772.6666666666665,-1088.2499999999993,1807.0833333333394,-1604.3333333333353,-1718.0833333333376,2004.6666666666679,1285.5833333333344,790.0833333333328,-403.16666666666674,-286.0833333333326,-1350.3333333333353,-1289.8333333333342,1268.3333333333312,559.4999999999986,272.08333333333394,-1286.3333333333328,599.5833333333334,-2617.749999999998,-2910.083333333333,-158.5,-72.0,0.0,0.0,-387.00000000000006,514.5833333333333,-988.75,2496.2500000000005,752.5000000000003,-964.4999999999995,-856.1666666666672,-839.1666666666663,-1921.8333333333321,583.583333333333,-2348.9999999999995,-803.7499999999998,441.0000000000024,-574.0833333333344,-42.416666666667254,-718.9166666666679,-758.1666666666681,-656.7499999999994,-1190.4166666666674,1070.249999999999,-3371.9999999999995,-1227.0833333333333,-1020.5833333333335,-1246.0833333333333,-48.0,0.0,0.0,0.0,30.0,267.3333333333333,-1973.0000000000005,-1567.7500000000002,103.33333333333337,-1493.500000000001,-1986.5000000000005,-765.1666666666678,-1630.5833333333344,26.66666666666697,-510.33333333333314,-76.41666666666748,279.4999999999999,-305.9166666666673,700.333333333334,1031.5000000000007,170.91666666666674,-759.8333333333336,-1015.1666666666658,-1486.7500000000002,-1523.916666666667,-990.25,-1262.7499999999998,-482.5,-4.25,-12.5,0.0,0.0,9.25,-698.6666666666666,-1355.9166666666667,810.0833333333333,-3061.333333333332,-2681.7500000000014,1898.083333333334,15.41666666666643,-24.5833333333332,-376.25000000000034,-616.0833333333335,-480.91666666666856,226.08333333333394,921.8333333333328,-1518.0000000000016,972.0833333333319,-142.75000000000006,368.50000000000057,-889.4999999999994,-506.5833333333337,267.6666666666667,-309.49999999999994,-1460.8333333333333,-689.3333333333334,0.0,0.0,0.0,0.0,0.0,-993.8333333333334,-1322.6666666666667,-966.4999999999999,-1298.0833333333335,-915.4166666666667,-277.0833333333333,-2444.8333333333317,511.0000000000002,-93.75000000000045,-793.9166666666649,296.3333333333335,-1026.5833333333353,-547.2500000000002,-362.33333333333417,43.24999999999943,-260.9166666666663,1816.916666666667,-419.99999999999994,2833.3333333333344,1312.333333333333,-474.41666666666674,-1360.2499999999998,-799.3333333333334,0.0,0.0,0.0,0.0,0.0,-265.3333333333333,-663.4166666666666,-805.7499999999999,302.0,-3.0833333333333712,550.1666666666667,-1206.4999999999998,-266.666666666668,-673.8333333333339,-892.833333333333,-1242.5833333333326,-11.666666666666856,-250.08333333333337,139.83333333333394,-523.0000000000005,63.1666666666672,-437.75,311.4166666666665,1642.0000000000002,-1804.9999999999995,-297.08333333333326,-475.3333333333333,-158.0,0.0,0.0,0.0,0.0,0.0,-7.0,-329.5,308.9166666666667,636.1666666666667,-722.6666666666667,2504.833333333331,1179.166666666666,-708.9166666666667,833.4166666666688,-616.8333333333333,-154.25000000000045,614.1666666666669,-1769.333333333334,711.3333333333337,-558.166666666665,-732.166666666667,59.16666666666708,-1419.6666666666665,-879.75,-1629.7499999999998,227.75,-658.9166666666667,76.0,0.0,0.0,0.0,0.0,0.0,0.0,173.33333333333334,-97.08333333333331,-538.6666666666667,-2306.9999999999995,-2760.833333333334,-2070.9166666666665,-1261.083333333333,-852.9166666666674,-2409.250000000001,-1048.0,-1453.2500000000005,-300.0833333333337,-2454.9166666666647,-1480.6666666666665,-897.4166666666658,-3660.416666666666,-3052.000000000001,-3918.416666666666,-1041.8333333333333,479.33333333333326,-351.3333333333333,0.0,0.0,0.0,0.0,0.0,0.0,0.0,209.66666666666666,219.41666666666669,-1081.6666666666667,-2138.9166666666665,-3288.75,-3703.7499999999995,-4005.333333333334,-4969.916666666668,-4607.166666666666,-5781.249999999999,-6395.500000000001,-5212.666666666667,-5528.083333333335,-4982.249999999999,-3449.499999999999,-3203.166666666666,-2779.3333333333335,-1880.5833333333333,-1190.9166666666665,-421.25,-58.33333333333333,0.0,0.0,0.0,0.0,0.0,0.0,0.0,0.0,-177.0,-328.4166666666667,-789.4166666666666,-1050.6666666666665,-817.3333333333334,-976.8333333333334,-732.0,-1338.5,-854.4166666666666,-1791.6666666666667,-629.3333333333334,-478.0,-405.0,-646.0,-585.0,-11.0,-187.0,-119.0,0.0,0.0,0.0,0.0,0.0
0.0,0.0,0.0,0.0,0.0,0.0,0.0,0.0,0.0,0.0,0.0,0.0,0.0,0.0,0.0,0.0,0.0,0.0,0.0,0.0,0.0,0.0,0.0,0.0,0.0,0.0,0.0,0.0,0.0,0.0,0.0,0.0,0.0,0.0,0.0,0.0,0.0,-52.0,-253.0,-234.0,-30.0,0.0,0.0,0.0,0.0,0.0,0.0,0.0,0.0,0.0,0.0,0.0,0.0,0.0,0.0,0.0,0.0,0.0,0.0,0.0,0.0,0.0,0.0,-22.5,-121.0,-126.0,-602.5,-1250.0833333333333,-1097.1666666666667,-1330.5833333333333,-2223.75,-2804.3333333333335,-3073.0833333333335,-1095.2499999999998,-781.6666666666665,-990.1666666666667,-766.75,-882.0833333333334,-609.6666666666666,-361.75,-38.75,0.0,0.0,0.0,0.0,0.0,0.0,12.333333333333334,178.83333333333334,-92.0,-69.33333333333333,-537.3333333333333,-755.7499999999999,-1085.4166666666667,-1603.4166666666665,-2532.4999999999995,-655.583333333333,-61.83333333333343,-416.25,-1545.25,-1624.9166666666674,1391.6666666666652,-475.6666666666663,-1298.7499999999984,-980.4166666666674,525.2500000000001,845.1666666666667,-2166.916666666666,-1167.8333333333333,136.0,47.0,0.0,0.0,0.0,0.0,-92.08333333333333,-637.0,-1284.0,-1277.4166666666667,-644.0000000000007,-1533.8333333333323,-758.7500000000005,-781.8333333333333,1817.4166666666674,-761.9166666666663,-1332.2500000000014,-233.25000000000034,-8.416666666665833,621.0833333333334,-991.5833333333328,562.4166666666679,1230.7499999999989,-1432.1666666666688,1286.0,198.00000000000023,1415.2500000000005,1659.75,-155.25,21.083333333333336,0.0,0.0,0.0,-146.0,-392.08333333333337,-1831.5833333333333,-2076.249999999999,-1890.166666666666,-206.5,273.33333333333314,-23.499999999999545,261.75,-138.50000000000028,-460.250000000001,-119.00000000000068,153.25000000000068,-1668.333333333329,169.24999999999932,864.5000000000032,1111.5833333333344,-1199.0833333333321,1629.8333333333344,-164.41666666666652,1238.666666666666,284.50000000000006,548.7499999999999,453.83333333333303,470.75,0.0,0.0,0.0,45.0,-787.0,-1857.9166666666665,-1004.4166666666672,280.6666666666665,-254.5833333333337,-1456.9166666666647,550.0000000000005,-460.0833333333343,-297.74999999999886,-525.5000000000014,-330.66666666666697,622.5000000000014,-846.7500000000005,-284.9166666666662,-418.33333333333485,-1029.2500000000002,1338.1666666666706,-125.66666666666629,-260.1666666666663,1136.5833333333323,-421.58333333333303,3294.999999999997,-623.75,-550.7499999999998,8.0,0.0,0.0,-175.0,-1339.5,-4341.583333333333,-548.9166666666667,-749.3333333333335,874.6666666666673,116.83333333333292,-1040.5000000000002,746.25,-601.9166666666672,-218.50000000000074,-249.66666666666652,257.6666666666688,-1451.333333333329,756.583333333333,-226.9166666666663,314.00000000000045,-71.58333333333303,-136.74999999999955,86.16666666666697,1305.416666666667,138.58333333333314,547.7499999999986,2411.7500000000023,-1301.4999999999998,131.08333333333334,0.0,0.0,-138.83333333333334,-2634.1666666666665,-6076.166666666667,-1917.833333333333,1092.1666666666656,-1189.0833333333337,1596.0833333333321,-310.5833333333326,960.7499999999998,729.3333333333323,-693.5833333333317,201.08333333333223,-783.1666666666672,330.08333333333314,-528.9166666666652,831.1666666666658,-323.16666666666765,203.66666666666856,492.4166666666656,-114.75,-372.3333333333343,1863.083333333334,2223.416666666665,2755.916666666665,-221.75,-865.9166666666667,0.0,0.0,-528.6666666666666,-2477.666666666667,-3229.666666666667,635.4999999999998,147.83333333333314,-517.9166666666665,-429.8333333333343,-247.5833333333344,-61.16666666666663,841.8333333333308,-25.083333333332803,-329.6666666666679,-127.916666666668,-611.4166666666647,-170.24999999999955,-415.25000000000045,-814.750000000002,108.50000000000159,-1033.4166666666677,2433.3333333333294,855.0833333333353,-409.08333333333326,1229.5833333333321,927.5833333333335,350.25,-232.5,0.0,0.0,-208.0,-1942.0833333333333,-4.75,-1090.9999999999998,-1229.7499999999998,348.0833333333335,1318.4166666666652,1080.916666666668,-273.50000000000045,165.58333333333553,1339.5000000000005,1381.416666666669,-284.50000000000193,153.41666666666572,-706.0833333333319,-271.75000000000136,-1661.9999999999968,-1423.7500000000005,-2994.2500000000064,-121.08333333333303,848.666666666667,2168.75,5886.750000000002,9107.000000000004,4245.583333333332,-44.416666666666664,0.0,0.0,-112.66666666666666,-1841.75,-786.2499999999999,128.83333333333337,1484.6666666666652,47.4999999999996,365.58333333333246,288.1666666666674,908.1666666666672,528.5833333333339,-15.583333333335077,-63.75000000000057,85.25000000000205,-298.1666666666674,-157.41666666666674,-424.9166666666672,-698.5833333333326,-625.7500000000009,-3348.333333333332,-5194.083333333327,-3023.5000000000005,1652.000000000001,3633.4166666666656,9807.999999999996,2903.4166666666665,112.0,0.0,0.0,-274.0833333333333,-566.5833333333333,-317.16666666666674,-33.1666666666668,1217.833333333333,775.1666666666656,430.4166666666674,-1044.4166666666672,1057.1666666666663,143.16666666666697,-64.83333333333394,967.6666666666697,-1526.666666666667,570.8333333333326,-1074.0,-917.1666666666661,-877.9999999999989,-1050.0833333333344,-944.5000000000041,-3596.333333333333,-8665.416666666664,-14142.58333333333,-14897.333333333334,-878.8333333333337,1836.4166666666667,0.0,0.0,0.0,-80.16666666666666,194.4166666666666,635.2499999999997,1200.8333333333335,-567.9166666666665,1276.9166666666652,-1082.583333333333,1147.833333333334,-392.66666666666913,536.6666666666656,597.4166666666677,-208.2499999999992,-770.4166666666647,87.49999999999909,-802.5000000000005,-960.3333333333314,225.33333333333292,308.5,-12.83333333333394,1734.000000000001,1591.9999999999995,-8585.66666666667,-12061.416666666666,-3005.6666666666665,212.58333333333334,0.0,0.0,0.0,0.0,104.58333333333331,1159.7499999999993,103.25000000000023,-130.50000000000023,-667.7500000000016,550.0000000000017,-116.58333333333223,1082.9166666666679,-917.0000000000014,-309.8333333333329,-764.8333333333343,603.7500000000005,234.91666666666652,-898.8333333333317,-55.66666666666754,279.58333333333417,-1108.7499999999977,65.75000000000114,-1916.083333333333,2831.5833333333303,939.3333333333333,-2980.833333333334,-3033.666666666667,-237.66666666666666,0.0,-9.333333333333332,0.0,-2.0,-310.5,1363.5833333333337,-2000.1666666666652,-491.58333333333303,-499.1666666666679,571.1666666666669,142.4166666666672,-383.3333333333344,425.25000000000045,-179.41666666666652,-667.5833333333308,-1428.5833333333344,-993.5000000000025,285.0833333333337,-1193.4166666666652,1230.0833333333323,-759.9166666666654,-565.6666666666667,23.74999999999943,-543.6666666666665,2189.2500000000014,1302.333333333333,-1597.9166666666665,-798.8333333333333,-224.66666666666666,-53.33333333333333,0.0,-121.5,-315.58333333333337,147.66666666666663,-1372.9166666666667,-702.083333333333,-1292.0833333333337,-1371.0833333333342,22.333333333333712,-777.3333333333351,-204.3333333333327,572.5000000000002,420.75,-1102.4166666666674,955.4166666666686,-1209.583333333333,435.83333333333235,-628.5833333333337,219.08333333333337,871.3333333333371,-566.0833333333344,892.916666666667,444.2499999999992,-84.41666666666663,-2219.25,-1581.3333333333333,-522.8333333333334,0.0,0.0,-489.5,-1214.3333333333335,127.91666666666674,1753.8333333333348,2934.583333333332,-1057.8333333333335,-566.4999999999995,-30.166666666666856,-720.7499999999986,-1309.0833333333394,-1332.999999999999,-1605.4999999999982,-1241.5833333333323,-402.91666666666515,126.00000000000034,-85.41666666666572,708.0833333333337,272.916666666668,-21.166666666666174,-214.3333333333328,-188.66666666666652,-334.2499999999998,532.0833333333334,-3195.333333333333,-642.3333333333334,-19.5,0.0,-22.5,-356.8333333333333,-1482.2499999999995,-194.5,535.583333333333,60.333333333334394,456.0000000000018,-223.9166666666673,-1801.7500000000086,-1372.3333333333328,-1441.0000000000034,578.833333333333,-238.24999999999898,311.74999999999795,-560.0000000000009,366.25,850.6666666666679,358.58333333333314,404.5000000000008,-441.7499999999992,718.5833333333339,347.9999999999999,994.1666666666656,884.0833333333335,-2785.666666666666,-259.0,0.0,0.0,-51.666666666666664,1119.3333333333335,-972.4999999999998,1130.000000000001,-912.9166666666665,16.916666666667084,-453.3333333333329,220.83333333333258,663.7499999999989,818.9166666666681,-198.41666666666663,240.3333333333337,-349.3333333333345,-990.1666666666677,1431.8333333333376,-572.3333333333301,-1475.9166666666633,97.08333333333178,-607.3333333333346,315.33333333333405,284.5,-957.1666666666663,350.91666666666674,1189.5833333333335,-1680.833333333333,-642.5833333333334,0.0,0.0,0.0,849.1666666666666,-985.0833333333335,-1350.333333333333,1639.8333333333337,-254.8333333333337,-210.41666666666623,-21.333333333333258,-70.74999999999909,-755.166666666667,1382.9166666666683,13.33333333333303,821.0,-335.8333333333313,-1205.6666666666656,1040.1666666666658,1421.1666666666697,180.08333333333331,1369.0833333333371,-165.58333333333383,-1391.0833333333326,1439.833333333333,735.2499999999989,-741.9166666666665,-122.66666666666669,-861.0,0.0,0.0,0.0,78.0,-1151.916666666667,894.3333333333335,-308.41666666666674,760.2500000000009,-415.50000000000045,101.91666666666765,884.0833333333323,321.08333333333337,303.9166666666681,-362.9999999999984,1160.0833333333298,226.75000000000102,228.3333333333328,-775.5833333333342,207.4166666666663,-42.666666666668334,-300.0833333333346,2365.4166666666647,1768.333333333333,1155.1666666666672,-69.91666666666674,-222.9999999999999,587.5833333333333,-524.6666666666666,0.0,0.0,0.0,-14.0,-1806.5833333333337,-838.0,889.6666666666661,-1532.6666666666633,868.6666666666647,944.4166666666654,542.166666666667,-165.91666666666833,494.3333333333352,667.0833333333335,-214.50000000000045,378.58333333333167,266.3333333333337,480.58333333333394,-974.8333333333342,1485.4166666666642,-604.4999999999993,239.91666666666674,-224.00000000000023,1360.916666666666,175.75000000000006,347.1666666666665,777.5,75.0,0.0,0.0,0.0,161.5,-418.0,227.00000000000006,2039.166666666666,1513.9166666666667,-2094.916666666668,753.1666666666671,-764.7499999999995,1585.0000000000032,-728.1666666666629,452.99999999999955,-267.4166666666662,223.66666666666674,-956.5833333333312,1940.666666666671,-747.750000000001,-1496.3333333333328,-1089.6666666666667,606.5,-525.333333333333,-261.5833333333335,647.9166666666666,900.9166666666665,855.8333333333334,159.5,0.0,0.0,0.0,0.0,383.1666666666667,-714.0833333333334,413.25000000000034,-1090.75,277.33333333333337,-162.83333333333314,1278.6666666666674,-822.6666666666667,136.08333333333394,-592.1666666666681,154.33333333333508,522.0,1093.5833333333335,-2136.916666666666,1605.083333333333,1522.3333333333328,-844.7500000000002,-1415.416666666667,-1483.7500000000002,218.25,-127.58333333333334,371.5833333333333,-319.66666666666663,-37.5,0.0,0.0,0.0,0.0,783.1666666666666,771.3333333333333,-38.41666666666667,-565.8333333333334,-940.25,-1215.3333333333333,1044.5833333333333,-611.0833333333336,1023.0833333333344,644.75,4.25,-712.0833333333339,1850.8333333333342,-356.9999999999998,32.000000000000114,560.5833333333333,55.00000000000003,-1555.3333333333335,-137.91666666666657,1365.6666666666667,1456.0,1180.75,0.0,0.0,0.0,0.0,0.0,0.0,-38.0,-239.0,-235.0,-1010.25,-2192.833333333333,-2880.666666666667,-2647.583333333333,-1826.666666666667,122.16666666666663,-362.41666666666663,-246.16666666666674,-1959.9166666666665,-155.08333333333331,-663.1666666666667,-1411.6666666666665,-1826.7499999999998,-1808.0833333333333,-1329.4999999999998,-938.8333333333335,-148.08333333333334,1.25,0.0,0.0,0.0,0.0,0.0,0.0,0.0,0.0,0.0,0.0,0.0,0.0,0.0,0.0,-26.5,37.25,-50.75,-569.6666666666667,-926.8333333333334,-447.16666666666663,-319.0,-59.0,-127.0,-506.0,-214.91666666666666,-389.5833333333333,-247.91666666666666,0.0,0.0,0.0,0.0,0.0
0.0,0.0,0.0,0.0,0.0,0.0,0.0,0.0,0.0,0.0,0.0,0.0,0.0,0.0,0.0,0.0,0.0,0.0,0.0,0.0,0.0,0.0,0.0,0.0,0.0,0.0,0.0,0.0,0.0,0.0,0.0,0.0,0.0,0.0,0.0,26.0,852.0,735.0,511.6666666666667,572.8333333333334,49.41666666666667,-328.00000000000006,-1118.25,-830.3333333333334,-631.4166666666666,107.16666666666669,113.16666666666667,0.0,72.0,253.0,21.0,0.0,0.0,0.0,0.0,0.0,0.0,0.0,0.0,0.0,0.0,0.0,554.0833333333334,553.4166666666667,822.3333333333333,650.6666666666665,1680.0000000000005,238.08333333333326,387.5833333333335,942.0,-245.91666666666669,-435.83333333333326,-10.0,1565.5833333333335,1593.0833333333337,-606.8333333333334,1786.1666666666667,1963.6666666666667,1121.5000000000002,544.3333333333334,-557.0,-508.75,0.0,0.0,0.0,0.0,-94.5,107.5,292.9166666666667,184.5,1031.5,1816.9166666666665,1482.3333333333333,-1371.9166666666665,-650.8333333333339,945.7500000000002,-538.833333333333,-12.000000000000057,-157.33333333333326,814.9999999999993,-565.1666666666667,-522.6666666666667,-615.6666666666666,435.49999999999966,-143.91666666666674,97.5833333333332,424.16666666666697,2056.833333333333,1844.583333333333,-387.00000000000006,302.5833333333333,0.0,0.0,0.0,-324.0,35.25,320.1666666666667,282.25,78.16666666666669,-32.833333333333314,998.3333333333335,-2065.7499999999995,-583.1666666666667,-1625.4999999999973,-1057.6666666666667,-1409.0833333333317,-1614.8333333333358,-1988.4999999999977,-1163.5833333333344,-13.166666666666856,-554.166666666667,-582.0000000000005,-764.8333333333333,-1739.2499999999995,-1164.4999999999995,-191.41666666666663,-1954.6666666666672,-1647.666666666666,-279.3333333333333,194.25,0.0,0.0,-45.0,-173.0,122.0,-395.9166666666665,-716.0833333333335,-2708.333333333335,1165.5000000000005,-423.9166666666665,1139.416666666666,-1417.833333333332,-210.16666666666697,-1687.0000000000027,678.2500000000002,-264.8333333333338,-272.9166666666674,309.74999999999955,361.4999999999998,605.8333333333339,1204.3333333333328,860.4999999999998,-144.91666666666674,1239.3333333333328,-2293.2500000000014,-2654.6666666666665,54.83333333333333,286.75,0.0,0.0,-16.666666666666664,-497.91666666666663,-311.25000000000006,-850.1666666666667,-1701.0833333333326,-1533.25,-183.50000000000057,488.7500000000001,-2892.4999999999977,300.58333333333314,-544.6666666666683,-391.9999999999991,-1572.8333333333344,-1403.1666666666658,-887.4166666666654,216.91666666666595,-1712.3333333333394,-831.4166666666652,-2404.4166666666683,-877.166666666667,591.6666666666674,0.7499999999999432,-2237.8333333333326,-1526.2500000000005,-239.75,357.25,0.0,0.0,-73.33333333333333,-1771.1666666666667,-777.75,-67.16666666666663,-2000.0833333333335,1737.833333333333,514.0833333333333,-81.33333333333405,-52.75,-495.91666666666777,-1041.8333333333308,-787.6666666666674,440.91666666666754,2245.3333333333317,-1919.7500000000023,-40.16666666666697,-1040.6666666666688,133.9999999999999,-120.66666666666703,249.9166666666663,-2029.4166666666683,-1118.7499999999995,48.833333333333144,-937.1666666666667,376.75,265.5833333333333,0.0,0.0,-59.0,-985.8333333333333,-545.4999999999999,-1442.5,-3377.833333333332,-413.5833333333336,-1308.0833333333344,-741.583333333333,315.33333333333417,-527.1666666666672,-346.74999999999727,-752.0833333333342,-1926.7500000000068,-2035.7499999999964,-769.8333333333326,-841.8333333333326,-2007.0833333333308,-2814.0000000000005,-2859.2499999999995,-3506.8333333333303,-3815.5000000000027,-5593.916666666663,-4585.833333333331,-1954.4999999999998,-365.25,-178.0,0.0,0.0,-60.83333333333333,-1055.75,-397.66666666666674,-1645.916666666667,-1177.583333333333,1532.0833333333342,1005.2500000000005,167.0833333333336,-1098.9166666666686,-725.9999999999991,909.5833333333333,-978.5000000000034,-790.2500000000016,-1019.2499999999993,-945.6666666666645,-2977.0833333333394,-1971.9999999999982,-2286.4166666666665,-896.7499999999989,526.5000000000002,1195.833333333333,-602.0833333333337,-4027.583333333335,-3594.9999999999995,-1661.1666666666667,-206.0,0.0,0.0,-168.41666666666666,-976.5833333333334,-164.2499999999999,150.25,-877.5833333333335,-1542.4166666666677,341.41666666666674,-1714.4999999999964,561.5833333333338,-61.91666666666697,-879.166666666667,1851.9999999999998,-227.91666666666606,-997.416666666667,-329.66666666666686,-2223.9166666666665,-1032.5000000000032,-1475.499999999999,-208.83333333333383,-928.3333333333339,-1814.2499999999995,1326.6666666666665,-2089.4166666666665,-4042.0833333333335,-2498.25,-354.25,0.0,0.0,0.0,-862.6666666666666,-417.0000000000001,1978.9166666666674,821.9166666666665,168.3333333333336,-1099.4166666666672,960.666666666667,-17.666666666666345,-1469.666666666667,65.16666666666538,-12.41666666666697,-757.4999999999995,-1583.5833333333317,1198.3333333333344,-966.8333333333339,354.75000000000034,-1456.3333333333344,25.833333333332916,-778.0,-1297.333333333332,1906.9166666666688,-1181.7500000000007,-3767.083333333332,-2389.666666666667,-254.25,0.0,0.0,0.0,-1403.0,-2503.333333333334,-1643.5833333333333,-144.24999999999977,521.666666666667,862.8333333333333,187.58333333333383,-384.83333333333474,2121.333333333331,979.5833333333289,679.2499999999995,606.3333333333334,-481.8333333333346,-476.0833333333335,58.16666666666674,1089.1666666666674,57.999999999999886,-1760.3333333333348,1227.1666666666672,723.9166666666673,1042.8333333333344,836.7500000000005,-2360.416666666667,-2143.8333333333335,-447.41666666666663,0.0,0.0,0.0,-921.0,-3078.8333333333335,-119.5,2148.6666666666665,-290.2500000000001,740.5000000000018,-1005.3333333333328,1144.8333333333337,-1652.9166666666679,-156.00000000000136,-123.16666666666714,-2111.2499999999977,1267.8333333333305,-1015.1666666666679,-537.9166666666679,-102.50000000000136,517.0833333333338,541.2499999999998,1195.0833333333328,74.66666666666629,3548.2499999999977,-39.833333333333485,-3833.25,-3241.083333333333,-790.0,0.0,0.0,0.0,-437.0,-2743.6666666666665,-941.8333333333334,1273.1666666666663,404.66666666666606,349.00000000000057,1180.4166666666658,976.4166666666667,1730.083333333333,53.500000000000796,349.250000000001,-713.2500000000002,-308.74999999999943,529.0833333333336,-560.2500000000005,317.4166666666672,1435.5833333333337,-955.4166666666649,-195.75,1808.5000000000005,-1049.7500000000007,4.999999999999773,705.1666666666667,-2594.5000000000005,-83.25,0.0,0.0,0.0,-592.5,-2450.9999999999995,-2268.583333333334,-790.166666666667,2297.0000000000005,494.58333333333394,1183.4166666666654,-633.8333333333335,131.08333333333383,1298.7499999999982,-1852.2500000000018,1826.8333333333348,-38.166666666666856,-469.5833333333337,167.16666666666697,-1393.5000000000025,-784.5000000000007,1017.4999999999995,2308.5833333333326,-258.8333333333338,-280.5833333333337,-443.1666666666665,-521.9166666666661,-3086.5,-223.66666666666666,0.0,0.0,0.0,-665.75,-1492.083333333333,-2375.583333333332,1270.4999999999995,771.0000000000002,-1164.499999999999,816.5833333333326,-455.24999999999955,2369.5000000000027,-1129.250000000001,-26.91666666666623,40.91666666666629,-204.16666666666663,296.83333333333337,-985.7499999999991,238.9999999999999,1233.8333333333353,247.49999999999966,-797.6666666666677,-489.5000000000009,-478.0000000000001,700.1666666666671,-2824.6666666666665,-3397.0,-482.3333333333333,0.0,0.0,0.0,-869.75,-2275.499999999999,773.5833333333337,580.8333333333335,-1450.8333333333358,2307.749999999999,-309.83333333333394,2219.7500000000014,504.4166666666679,-328.8333333333335,765.3333333333333,1196.3333333333353,-297.1666666666674,-401.16666666666947,-58.66666666666754,209.24999999999994,528.9166666666673,1087.000000000001,-70.91666666666663,-561.9166666666669,1920.3333333333353,-430.58333333333326,-1804.9166666666665,-2164.25,-449.1666666666667,0.0,0.0,0.0,-1265.0833333333333,-1328.666666666667,-1185.0833333333326,228.83333333333394,254.99999999999977,354.0000000000002,821.3333333333348,168.75000000000068,-211.16666666666697,1805.9166666666679,858.7500000000006,-1720.166666666671,1174.0833333333314,-194.3333333333331,-333.5,525.9166666666683,-654.8333333333335,253.0,222.00000000000114,-20.083333333333712,-210.50000000000006,-2782.250000000001,-1237.1666666666665,-1037.6666666666665,-365.25,0.0,0.0,-36.0,-1388.3333333333333,-428.6666666666664,-723.7500000000005,334.1666666666665,867.0833333333329,308.9166666666668,1403.0833333333321,1287.4166666666683,1684.3333333333335,1470.7500000000095,75.25000000000023,1070.0833333333346,204.49999999999818,340.8333333333326,959.5000000000048,772.5833333333337,354.83333333333394,-809.4166666666666,-557.0833333333335,831.833333333333,-270.3333333333335,-1909.0,-2260.1666666666665,-1116.0,-151.25,0.0,0.0,-60.0,-1046.9166666666667,-444.5000000000001,-525.6666666666669,-949.1666666666677,1156.7500000000007,-1117.0833333333335,212.08333333333303,762.0833333333328,-1080.416666666665,2491.2499999999955,-882.6666666666667,1984.3333333333294,543.5833333333335,-268.66666666666856,-42.999999999998124,-758.0000000000005,635.2500000000009,397.25000000000045,60.16666666666697,-1901.4166666666667,-361.6666666666665,-1482.9166666666663,-719.4166666666666,-189.5,0.0,0.0,0.0,0.0,-730.5,-1123.3333333333335,-1810.4999999999993,-1842.6666666666674,-155.0833333333331,1029.833333333333,399.58333333333167,354.7500000000017,1041.500000000001,571.2499999999973,1272.8333333333323,1350.3333333333312,84.75000000000136,172.50000000000216,1364.4166666666665,1079.416666666665,-1488.0833333333323,1106.9999999999993,-1120.250000000001,-522.5000000000001,-771.6666666666667,-729.3333333333333,-107.58333333333333,-28.5,0.0,0.0,0.0,0.0,-408.75,-512.5,-1237.1666666666667,-2956.5833333333335,-549.4166666666661,-873.7499999999993,-357.91666666666583,577.833333333333,-1296.5833333333335,1037.083333333336,70.5,-1231.583333333333,1739.4166666666638,517.1666666666674,658.083333333334,483.74999999999886,-254.99999999999977,1556.25,1697.5833333333328,-719.2499999999994,-2657.583333333333,-2061.7500000000005,-462.5,0.0,0.0,0.0,0.0,0.0,0.0,-62.0,-409.0,-1368.0,-2283.5833333333335,-2645.0833333333335,-521.8333333333327,-1333.3333333333333,-1429.4166666666674,-1326.9166666666674,317.5833333333335,-341.50000000000045,514.6666666666667,57.33333333333303,-1456.083333333333,265.75000000000006,-1403.4999999999998,-2153.000000000001,-1542.1666666666667,-1510.5000000000002,-1516.0,-1060.1666666666665,-106.5,0.0,0.0,0.0,0.0,0.0,0.0,-136.0,-253.0,-464.0,-573.0,-1014.0,-1346.3333333333333,-2463.25,-3108.0833333333326,-2150.5833333333335,-2837.166666666667,-3545.1666666666656,-3570.1666666666665,-2126.7500000000005,-1448.916666666667,-1444.3333333333333,-2182.1666666666665,-1617.5833333333333,-1141.0,-500.3333333333333,-178.0,0.0,0.0,0.0,0.0,0.0,0.0,0.0,0.0,0.0,0.0,-11.0,0.0,-137.0,-292.25,-297.75,-431.0,-939.0,-944.0,-968.5,-941.8333333333334,-892.4166666666666,-466.0,-687.0,-473.0,-319.0,-406.0,-253.0,-100.0,0.0,0.0,0.0,0.0,0.0,0.0,0.0,0.0,0.0,0.0,0.0,0.0,-67.0,-252.0,-79.0,0.0,0.0,-53.0,-346.0,-230.0,-99.0,-253.0,-157.0,-231.0,-350.0,-499.0,-230.0,-5.0,0.0,0.0,0.0,0.0,0.0,0.0,0.0,0.0,0.0,0.0,0.0,0.0,0.0,0.0,0.0,0.0,0.0,0.0,0.0,0.0,0.0,0.0,0.0,0.0,-11.0,-187.0,-119.0,0.0,0.0,0.0,0.0,0.0
0.0,0.0,0.0,0.0,0.0,0.0,0.0,0.0,0.0,0.0,0.0,0.0,0.0,0.0,0.0,0.0,0.0,0.0,0.0,0.0,0.0,0.0,0.0,0.0,0.0,0.0,0.0,0.0,0.0,0.0,0.0,0.0,0.0,0.0,0.0,0.0,0.0,0.0,0.0,0.0,0.0,0.0,0.0,0.0,0.0,0.0,0.0,0.0,0.0,0.0,0.0,0.0,0.0,0.0,0.0,0.0,0.0,0.0,0.0,-29.0,-10.0,0.0,0.0,0.0,0.0,-11.0,-299.0,-257.0,-42.0,0.0,-1.0,-178.25,-312.0,-37.416666666666664,0.0,0.0,0.0,0.0,0.0,0.0,0.0,0.0,0.0,0.0,0.0,0.0,0.0,-84.0,-28.0,0.0,0.0,-12.333333333333332,-97.33333333333333,-614.0,-935.0,-781.0,-309.0,-218.0,-715.0,-991.75,-710.5,-52.416666666666664,0.0,0.0,0.0,0.0,0.0,0.0,0.0,0.0,0.0,0.0,0.0,0.0,0.0,0.0,-81.0,-196.5,-141.66666666666666,-170.83333333333331,-594.6666666666667,-1603.0,-2818.6666666666665,-2488.4166666666665,-1220.1666666666667,-1056.5,-1871.5833333333333,-1983.6666666666667,-2410.9166666666665,-3140.0833333333335,-2570.0,-2671.0,-1593.0,195.33333333333331,-76.58333333333334,-220.66666666666666,-422.0,-70.0,0.0,0.0,0.0,0.0,0.0,-19.583333333333332,-736.9166666666666,648.2500000000001,564.6666666666665,-745.3333333333335,190.83333333333337,906.6666666666672,-560.5833333333331,-1193.4999999999993,-171.08333333333326,-27.000000000000227,-406.91666666666686,1.4166666666666288,-574.0,-2879.3333333333303,-1860.3333333333335,-4322.083333333335,-4633.333333333331,-3247.4999999999995,-2589.666666666667,-1997.333333333333,-534.0,0.0,0.0,0.0,0.0,0.0,340.5,1490.0833333333335,651.0833333333335,1426.3333333333335,1808.1666666666665,337.6666666666657,1442.9166666666677,57.833333333333485,1022.3333333333364,410.6666666666656,1931.7500000000023,-554.7499999999993,15.74999999999909,291.7500000000007,68.0833333333344,1149.8333333333294,360.8333333333335,-177.33333333333337,-186.4999999999999,125.8333333333336,-1371.4999999999998,-2850.333333333333,-956.5,-287.3333333333333,-194.41666666666666,0.0,0.0,0.0,919.5833333333334,2445.5833333333335,431.58333333333314,-1782.7500000000005,-274.0833333333335,1295.6666666666656,-891.416666666667,-143.8333333333337,797.416666666667,-871.0833333333335,468.41666666666663,1092.5000000000007,-944.7499999999995,-510.166666666668,1056.749999999998,-342.7499999999997,27.999999999999204,-427.6666666666664,614.5833333333337,357.7500000000016,1066.4166666666656,-396.58333333333326,-1147.083333333334,-1517.0,-275.0,0.0,0.0,498.0,491.58333333333326,2418.500000000001,391.33333333333314,494.4166666666665,-980.0,2149.916666666665,1088.3333333333344,754.4999999999991,1157.666666666669,71.83333333333297,1757.5,-1033.4166666666656,292.16666666666765,953.0000000000009,-411.7500000000015,649.0833333333312,247.08333333333326,371.3333333333344,712.333333333333,-1075.916666666668,1412.6666666666654,1140.166666666667,-1755.3333333333333,-2773.583333333333,-1453.0,-167.0,184.0,998.1666666666666,-111.58333333333331,2080.3333333333326,1429.1666666666663,128.2500000000001,-570.4166666666669,672.2499999999995,21.416666666666742,186.66666666666697,-535.9166666666661,37.91666666666674,2857.333333333324,-1105.666666666665,1865.416666666672,-410.1666666666672,394.08333333333394,1540.999999999996,521.2500000000007,325.5000000000009,-104.00000000000074,202.08333333333326,118.75000000000011,751.6666666666665,-1336.249999999999,-1490.0000000000002,-660.8333333333333,534.0,214.0,673.4166666666666,1024.5,294.3333333333336,444.00000000000057,1698.0833333333333,1300.249999999999,30.5833333333336,-130.33333333333383,837.9999999999991,-442.2500000000002,-1324.416666666666,-1042.75,1838.249999999999,-56.58333333333337,962.5,2023.9166666666638,-155.66666666666595,595.2500000000001,-357.7500000000002,1602.7499999999995,-3.0833333333332575,1066.5833333333348,773.916666666667,-144.66666666666666,-152.0,-573.6666666666666,160.08333333333334,23.0,770.9166666666666,2813.416666666667,1604.1666666666674,-822.5000000000005,26.99999999999983,-686.2500000000005,201.08333333333314,-1645.666666666667,34.41666666666731,1763.3333333333303,1276.9999999999993,-1596.75,1517.3333333333353,-74.83333333333246,1416.4999999999998,-234.91666666666742,763.583333333333,357.8333333333321,315.8333333333328,1644.6666666666665,-1262.6666666666663,1914.583333333334,-698.7500000000005,-1234.8333333333335,-1217.3333333333335,-868.0833333333334,55.5,0.0,612.5,2395.7499999999995,3306.833333333334,1522.7499999999998,298.9999999999999,-1177.1666666666663,817.0000000000005,2406.6666666666642,-1353.0833333333335,-1806.4166666666674,115.99999999999966,-1502.1666666666652,-1987.1666666666688,-191.58333333333417,1336.7499999999952,204.16666666666765,686.2499999999982,1135.5833333333358,-391.58333333333394,-703.3333333333343,-477.24999999999955,1238.9166666666656,-2111.9166666666665,-1149.1666666666663,-173.5,1.5833333333333357,206.58333333333334,0.0,750.5,1346.0000000000002,2949.4166666666674,685.1666666666671,858.9166666666671,1732.9999999999986,-1800.083333333334,-1097.333333333333,-1048.2499999999995,1010.1666666666654,578.1666666666661,-1268.8333333333321,-3223.7499999999923,-1023.8333333333364,-317.8333333333344,414.6666666666688,59.166666666665606,-1042.5000000000034,-1478.6666666666642,517.5833333333342,331.9999999999999,136.1666666666668,-2116.4166666666692,-639.9999999999999,-381.66666666666663,-170.33333333333334,0.0,0.0,492.0,872.5833333333334,1497.416666666667,-224.16666666666652,-513.916666666667,-599.2500000000005,407.41666666666697,908.75,-315.83333333333314,-1175.5833333333353,-938.2500000000005,-867.166666666667,-1536.083333333333,-521.6666666666667,-655.0,733.8333333333358,-85.3333333333336,389.66666666666777,2460.5833333333326,1086.749999999999,-706.7499999999999,1095.1666666666679,352.5,-2059.416666666667,-531.5833333333334,-178.5,0.0,0.0,0.0,-101.41666666666666,1076.0,-506.83333333333303,-1606.8333333333321,-122.50000000000091,-923.2499999999993,-1749.4166666666652,-763.1666666666654,-116.08333333333394,-1125.1666666666683,761.1666666666661,-1847.2499999999973,-1066.5833333333344,531.1666666666679,-2479.6666666666592,2925.916666666666,175.33333333333348,-281.91666666666697,-124.25000000000011,1526.749999999998,1466.9999999999998,1106.916666666666,-390.25,-1299.9999999999998,-275.66666666666663,0.0,0.0,0.0,-370.0,-442.5,782.0,-450.41666666666697,632.7500000000003,416.41666666666674,-21.41666666666663,401.3333333333344,-512.4166666666665,-3162.3333333333285,-431.08333333333337,863.4999999999989,-2003.3333333333335,905.1666666666688,-810.3333333333347,36.750000000000455,124.25000000000045,844.0833333333344,455.0833333333335,688.5833333333344,-1343.3333333333326,269.0,-871.5833333333333,-1312.8333333333333,-712.0,-85.41666666666667,0.0,0.0,-81.33333333333333,-252.91666666666669,1007.25,1090.0000000000005,763.8333333333326,-560.2499999999995,-1466.6666666666665,202.2500000000001,-2109.75,-642.5833333333344,571.5833333333385,-744.333333333335,82.83333333333258,495.91666666666583,-414.5833333333337,-374.16666666666754,1032.9166666666647,-990.0833333333353,-188.0,-710.0833333333338,246.58333333333326,-1448.2499999999995,-1248.583333333333,-862.9166666666667,-345.91666666666663,-212.5,75.0,0.0,4.25,335.75,392.7499999999999,337.99999999999994,-2566.5000000000005,-410.2500000000002,-368.5833333333338,-648.4166666666663,-1579.5833333333312,-67.24999999999955,-1710.4166666666642,140.25,-695.166666666667,-1467.3333333333323,-1883.583333333333,75.2500000000008,-354.91666666666777,514.1666666666654,-24.500000000000114,1160.0833333333321,-350.5000000000001,-4166.333333333335,-2700.7500000000005,-62.0,391.5833333333333,0.0,0.0,299.0833333333333,116.5,-163.83333333333334,406.41666666666663,-1489.4166666666663,-2413.250000000001,-3063.250000000001,163.58333333333303,-455.8333333333327,-1734.5,362.6666666666672,557.4166666666656,69.75000000000023,450.4166666666674,46.83333333333326,-803.3333333333312,597.0,-2279.250000000002,634.5833333333334,443.16666666666663,-1247.2500000000002,-2375.750000000001,-3269.25,-646.9166666666667,-673.25,0.0,0.0,0.0,0.0,-432.0,-1701.25,-1983.1666666666665,-1498.9166666666672,-2555.666666666666,-3401.7500000000014,799.7500000000001,-2525.1666666666674,-1185.8333333333328,-61.83333333333354,140.5833333333336,-1477.5833333333337,182.49999999999977,-657.583333333334,-1958.9999999999982,-1329.666666666666,-1808.2500000000036,-2085.9166666666674,-1734.5833333333321,-1456.3333333333328,-2397.3333333333344,-1455.0833333333335,649.9166666666666,2.75,0.0,0.0,0.0,0.0,-730.3333333333334,-2631.8333333333335,-2742.916666666667,-1229.666666666666,-1215.0,-2860.7500000000005,196.41666666666595,-1163.8333333333342,-123.75000000000136,-651.0833333333348,-680.916666666667,228.8333333333327,-913.7500000000009,-1101.9999999999984,476.41666666666674,-652.5833333333328,-548.5833333333337,-1673.8333333333337,-1422.9999999999995,-2026.5000000000005,-2435.0,-1809.3333333333335,-241.0,183.0,-53.08333333333333,0.0,0.0,0.0,-1109.5,-2811.916666666667,-3670.666666666666,-415.16666666666674,-2221.4166666666665,-42.08333333333326,388.41666666666674,509.16666666666686,238.2500000000008,-1478.9166666666663,1274.6666666666647,-594.1666666666677,132.2500000000001,1148.833333333332,-500.5000000000002,-1172.999999999999,-957.1666666666656,359.4166666666671,-810.7500000000005,-2798.083333333334,-2654.833333333333,-2253.1666666666665,-385.5,92.25,-1.1666666666666665,0.0,0.0,0.0,-1053.6666666666667,-2344.7499999999995,-322.83333333333337,-582.3333333333333,412.6666666666672,2189.9999999999986,-2089.8333333333344,-1392.4999999999989,735.083333333333,-954.2499999999993,-1386.75,6.499999999999545,-1542.416666666666,-762.2500000000005,-370.50000000000034,432.1666666666665,-1066.666666666667,-911.8333333333339,-1377.666666666667,-3714.916666666668,-2505.666666666665,-2519.1666666666665,-245.50000000000003,-4.5,0.0,0.0,0.0,0.0,-1006.1666666666667,-544.5,416.33333333333337,2282.166666666668,2150.0000000000005,-1564.8333333333321,55.99999999999977,-1638.9166666666665,-777.3333333333326,-286.75000000000045,-1309.1666666666674,-97.08333333333348,53.83333333333371,813.7499999999999,-108.33333333333348,631.7500000000008,-1893.083333333333,-214.83333333333326,-650.416666666667,-1051.1666666666658,-543.25,-1737.7499999999998,-585.6666666666667,-205.0,0.0,0.0,0.0,0.0,-188.33333333333334,366.5,118.33333333333329,-363.4999999999999,-1267.5000000000007,-240.41666666666646,377.66666666666623,896.8333333333335,-1011.9166666666661,545.1666666666667,1323.0000000000002,-142.83333333333331,-294.74999999999966,-548.2499999999998,-459.0833333333337,-284.75,85.25,-708.0833333333335,-1001.9999999999993,302.4166666666665,1297.5833333333333,-592.5833333333333,-92.5,0.0,0.0,0.0,0.0,0.0,0.0,0.0,-882.1666666666666,-1989.8333333333333,-2136.583333333334,423.0,357.08333333333326,503.91666666666686,319.33333333333326,383.58333333333326,-810.6666666666664,631.0833333333336,320.83333333333314,665.9999999999997,430.5833333333335,333.66666666666686,1145.0000000000007,1231.0833333333333,-435.3333333333335,345.9166666666667,1315.7500000000002,-490.66666666666663,-7.75,0.0,0.0,0.0,0.0,0.0,0.0,0.0,0.0,177.0,299.3333333333333,-61.66666666666666,-251.33333333333334,-293.5,1343.1666666666667,-356.08333333333337,-267.25,1206.8333333333333,1446.5833333333333,910.6666666666666,833.5,810.9166666666667,531.0833333333334,678.75,391.9166666666667,1049.8333333333335,1389.5833333333335,349.3333333333333,0.0,0.0,0.0,0.0
