0.0,0.0,0.0,0.0,0.0,0.0,0.0,0.0,0.0,0.0,0.0,0.0,0.0,0.0,0.0,0.0,0.0,0.0,0.0,0.0,0.0,0.0,0.0,0.0,0.0,0.0,0.0,0.0,0.0,0.0,0.0,0.0,0.0,0.0,0.0,0.0,0.0,0.0,0.0,0.0,0.0,0.0,0.0,0.0,0.0,0.0,0.0,0.0,0.0,0.0,0.0,0.0,0.0,0.0,0.0,0.0,0.0,0.0,0.0,0.0,0.0,0.0,0.0,0.0,0.0,0.0,0.0,0.0,0.0,0.0,4.48,5.08,3.06,7.17,1.7100000000000002,0.0,0.0,0.0,0.0,0.0,0.0,0.0,0.0,0.0,0.0,0.0,0.0,0.0,0.0,0.0,0.0,0.0,0.54,0.48,0.0,0.0,0.02,2.49,7.630000000000001,9.81,8.158333333333333,5.614333333333334,4.983666666666668,0.0,0.0,0.0,0.0,0.0,0.0,0.0,0.0,0.0,0.0,0.0,0.0,0.0,0.0,0.0,-2.8949919713748193,-2.0137775794404247,5.966222420559576,6.001144513907381,-0.6131757358900146,4.790531965523396,4.483944097578388,5.175092321240896,7.549761904761908,11.185198412698416,2.1181587301587297,-2.2952619047619076,-9.951380952380953,6.1974841269841265,14.096,4.184,3.312,0.16,0.0,0.0,0.0,0.0,0.0,0.0,0.0,0.0,0.0,0.0,-1.240370799802219,0.44884359213217556,4.118843592132175,6.044843592132177,4.74551025879884,4.813797204968646,2.1046769254655096,11.547837779577792,1.50283554940413,-2.981354926786347,-12.429753423050563,-5.89080282623711,-11.129504807213383,4.85052380952381,11.80161904761905,10.231404761904763,3.8873571428571427,6.964571428571429,4.55,0.0,0.0,0.0,0.0,0.0,0.0,0.0,0.0,0.0,3.727030627419199,4.158264347375784,0.2692057687457792,-1.874794231254221,1.658327386353113,-2.9258230745344918,2.647343592132175,7.379073750862334,-2.058545296756714,-10.896259582471004,-18.36068021739164,-5.60463259834402,-9.529949046269042,-4.943255766495762,13.999444444444446,20.1759126984127,3.633833333333334,4.06702380952381,4.4975000000000005,0.0,0.0,0.0,0.0,0.0,0.0,0.0,5.61,6.026,0.3139999999999999,6.2219999999999995,-1.6839999999999997,-8.650666666666668,-9.157756764785335,-10.170995539652676,-0.57202270501413,-0.5211326975126918,-0.5057092660606913,-14.721616725328149,-7.516124661836079,-15.840965931677351,-1.8930373602487789,-4.167836151018999,5.379646644912365,0.587968253968256,-1.54645238095238,-5.375666666666667,-5.237833333333334,-2.48,0.0,0.0,0.0,0.0,0.0,0.0,5.28,7.65,1.0200000000000005,2.073167112701399,-1.7855432649204035,-12.522587867945012,-9.93161492708635,-1.2341959559816678,8.324357142857142,-0.9214365079365077,12.192576681819535,4.910560695532126,-9.946169463198034,-13.146379847871282,0.4986547938605181,-4.252100852312272,-17.289571676268796,-16.85626739160453,-4.057047619047619,-4.457166666666667,-0.7618333333333333,0.0,0.0,0.0,0.0,0.0,0.0,0.0,6.510000000000001,4.59,-2.8434067796382068,2.4113702052387844,-0.27673297641582273,-3.3881415401929584,0.3304760631017859,8.311380952380954,11.1661746031746,20.04342063492064,16.51183333333333,2.3196507936507933,-5.102523809523805,-9.253865079365081,2.3114685796800107,12.278957499774657,-19.338013550724977,-26.261447262130112,-7.700831103159674,-4.413333333333334,0.0,0.0,0.0,0.0,0.0,0.0,0.0,0.0,6.510000000000001,0.45613648528219947,-6.37885548609262,-3.9651564078678243,-4.052050550004823,-3.6450811774240233,5.299790068412927,9.560626984126984,12.849952380952377,15.185269841269836,15.572111111111095,0.7001428571428583,2.103468253968254,-5.1570158730158715,11.176031746031747,7.054730038407184,-15.466963807723793,-22.057656407867828,-15.050929824466955,-4.08499821586107,0.0,0.0,0.0,0.0,0.0,0.0,0.0,0.0,6.250000000000001,-3.507345524799807,-8.319156407867826,-5.029156407867824,-12.66576360383502,-13.484128456657018,4.870166666666667,7.015817460317461,8.997071428571427,17.32065873015872,6.616269841269845,6.794388888888888,11.878865079365085,6.855150793650794,-4.983214285714283,-15.823023809523807,-11.979792213520774,-14.234823074534493,-10.984323074534492,-2.0949194171394128,-0.6333333333333333,0.0,0.0,0.0,0.0,0.0,0.0,0.0,4.12,-6.569844186695611,-9.694535236295224,-8.689156407867824,-24.29248974120116,-23.80306720181862,3.7555873015873025,-4.087547619047622,-4.834428571428576,19.452484126984125,7.552642857142856,26.3708888888889,15.45366666666665,3.7488015873015845,-17.15916666666667,-27.023761904761905,-2.8896226370512026,-10.961489741201163,-12.169656407867826,-7.927565863714424,-2.043559024664737,0.0,0.0,0.0,0.0,0.0,0.0,0.0,1.81,-5.65,-9.950370799802219,-15.539156407867827,-26.99382307453449,-16.558394835869116,-11.528968253968257,-10.771555555555556,2.1296428571428567,16.6943253968254,26.444952380952383,19.569484126984122,19.139023809523806,0.15257936507936332,-35.00501587301586,-15.77892857142858,4.00525831532975,-19.00748974120116,-19.605823074534495,-11.085823074534492,-4.581662206319344,0.0,0.0,0.0,0.0,0.0,0.0,0.0,-0.020000000000000018,-6.562423431452002,-16.162568539922816,-22.709156407867827,-20.83648974120116,-11.287617058091342,-20.003753968253964,-4.636436507936506,-0.3160793650793644,15.749031746031742,32.56168253968255,25.236428571428576,20.24830952380952,-9.488253968253973,-45.60290476190475,-3.984214285714284,-4.403632258529394,-19.859156407867825,-14.479156407867826,-10.835823074534494,-6.281887897650748,0.0,0.0,0.0,0.0,0.0,0.0,0.0,-2.5500000000000003,-10.950225691331404,-19.192944692141825,-20.317378630090047,-14.406100852312273,-20.790196090407505,-20.65161380142237,-5.146150793650787,5.86666666666667,21.903484126984136,40.756071428571445,17.16082539682541,7.320412698412695,-30.692611111111095,-29.554198412698415,-7.382119387433673,-8.685373263570394,-16.799156407867827,-11.899156407867824,-10.827565863714424,-6.044846862904004,0.0,0.0,0.0,0.0,0.0,0.0,0.0,-6.08,-13.66,-17.001676627959476,-20.63859738320309,-12.29171196342338,-26.56229926501069,-13.528125985837416,-3.038420634920634,6.818833333333334,27.531904761904766,24.87170634920637,21.51531746031747,-4.354190476190477,-29.062936507936502,0.672047619047618,-12.280358268521123,-22.311442122153544,-12.949156407867825,-7.899156407867825,-6.226853801122367,3.407777777777778,2.6975555555555553,0.0,0.0,0.0,0.0,0.0,0.0,-7.470000000000001,-12.65,-14.414833333333334,-10.255628456657025,-12.16791831262973,-21.81074370945512,-14.528557474120321,-5.03462754343326,7.536238095238096,18.781515873015863,6.621428571428577,14.044396825396822,-12.266119047619055,-16.78951587301588,-3.3151947311490106,-13.706478335584045,-21.53965640786783,-8.255823074534494,-1.9251442164013515,-0.3053315491944051,12.09911111111111,11.863999999999999,0.0,0.0,0.0,0.0,0.0,0.0,-8.24,-10.950000000000001,-2.4282777777777773,-7.231065863714426,-18.90446593167735,-16.884553233264658,-10.583894503105917,-3.4254785409728266,10.02215873015873,4.436317460317462,-0.8248571428571444,1.3446507936507923,0.846444444444445,-9.935151246736957,2.4758867437810403,-17.64737069358211,-11.669156407867824,-5.332489741201159,-2.40302884328027,1.1313333333333333,13.172444444444444,13.176666666666666,0.0,0.0,0.0,0.0,0.0,0.0,-8.150000000000002,-11.21716666666667,1.5049999999999994,-2.475255100969382,-12.542823074534482,-0.6833389475503648,4.05942295721154,5.368427771476349,-2.584834451945883,1.3043174603174592,2.331246031746029,1.4300999320370762,-0.05018624238623781,-4.208548426051271,6.102843592132175,-4.60582307453449,-2.7412019029618913,3.6494751710323197,3.6448486470429353,6.804666666666668,14.792444444444445,12.202444444444442,0.0,0.0,0.0,0.0,0.0,0.0,-7.900000000000001,-7.847,5.718182539682543,1.4167711723226053,10.652625731088598,7.8520023222909066,0.5919943857829651,-5.471973868185287,-10.979671034896747,-5.348134920634919,-0.25238285684285555,10.926788043628054,3.588399147687727,15.410232481021065,20.91484359213218,12.085510258798845,18.036326494283646,5.698666666666665,3.958,8.761333333333333,13.582444444444445,8.029333333333334,0.0,0.0,0.0,0.0,0.0,0.0,-1.064,4.391000000000001,17.394555555555556,13.85740476190476,18.402299789059786,10.494502322290908,-2.653743709455129,-15.038656407867826,-13.175337715666272,-3.6921852440966627,2.596736282893434,-1.2125929158043343,1.2105420048305895,13.740858459807047,12.927055307858172,5.8135206661263865,18.38015224502653,8.574333333333334,2.8760000000000003,7.054666666666667,12.30311111111111,4.072,0.0,0.0,0.0,0.0,0.0,0.0,3.6,8.365833333333333,6.036833333333331,0.7649285714285705,6.746021459027175,8.117678603384327,-3.3458786300900485,-14.752592915804337,-27.609204026915446,-6.997815138026561,-8.31603736024878,-11.073116725328143,-8.860438879587441,5.811183764515196,11.122666666666666,4.228,13.179333333333334,7.621333333333333,1.202,1.8206666666666667,2.2186666666666666,1.29,0.0,0.0,0.0,0.0,0.0,0.0,0.4,0.026000000000000023,-0.4044999999999996,-8.71402380952381,-5.022515873015873,16.72781600189029,-3.0892450405078957,-18.569847436313136,-10.787395048309335,-3.8556577389205895,-5.7548958341586856,-1.7056894849523365,1.6656055180483764,7.380666666666668,2.6753333333333336,9.046666666666667,14.773333333333333,4.71,0.0,0.0,0.0,0.0,0.0,0.0,0.0,0.0,0.0,0.0,0.0,0.17,-0.4900000000000001,-1.2799999999999998,-1.511071428571428,2.3197380952380957,8.095714285714287,-0.6401190476190495,-3.7558015873015855,-0.9079126984126982,-12.286357142857145,-6.086761904761905,-0.6893333333333331,2.360666666666667,0.010000000000000009,3.7,0.38,0.0,0.0,0.0,0.0,0.0,0.0,0.0,0.0,0.0,0.0,0.0,0.0,0.0,0.0,0.0,0.0,0.0,0.0,0.0,11.463888888888887,15.716611111111112,3.8200000000000003,0.36,0.0,0.0,0.0,0.0,0.0,0.0,0.0,0.0,0.0,0.0,0.0,0.0,0.0,0.0,0.0,0.0,0.0,0.0,0.0,0.0,0.0,0.0,0.0,0.0,0.0,0.0,0.0,0.0,0.0,0.0,0.0,0.0,0.0,0.0,0.0,0.0,0.0,0.0,0.0,0.0,0.0,0.0,0.0,0.0,0.0,0.0,0.0,0.0,0.0,0.0,0.0,0.0,0.0,0.0,0.0,0.0,0.0,0.0,0.0,0.0,0.0,0.0,0.0,0.0,0.0,0.0,0.0,0.0
