0.0,0.0,0.0,0.0,0.0,0.0,0.0,0.0,0.0,0.0,0.0,0.0,0.0,0.0,0.0,0.0,0.0,0.0,0.0,0.0,0.0,0.0,0.0,0.0,0.0,0.0,0.0,0.0,0.0,0.0,0.0,0.0,0.0,0.0,0.0,0.0,0.0,0.0,-0.98,-4.8,-4.24,-0.44,-0.22,6.357279531751318,20.46189738678693,10.758463391276702,0.0,-2.46,-4.88,-0.8,0.0,0.0,0.0,0.0,0.0,0.0,0.0,0.0,0.0,0.0,0.0,0.0,-1.46,-9.073,-17.176142857142857,-16.162714285714287,-16.093714285714288,-15.511666666666668,-32.84668757986241,-29.660833353245668,-25.925649726278788,-29.487920646604863,-22.05074250881769,-26.27691892001954,-30.096,-24.012268641884003,-23.047865602614046,-4.757388034030021,-1.87,-2.39,-0.36,0.0,0.0,0.0,0.0,0.0,0.0,0.0,0.0,0.0,-3.5580476190476196,-13.62042857142857,-3.4183287775130515,-8.901941628219301,-11.221710992949031,-23.774439581293908,-21.371472426195403,-5.007992135709786,-17.662243898504983,-6.568290307525784,-10.918068302424729,-21.72862613263104,-30.222623388792528,-22.143548538066526,-28.62469759654356,-34.833561694161695,-13.632888887532571,-11.4448761590931,-5.40085569134435,-12.175122306157245,-3.063475848712691,0.0,0.0,0.0,0.0,0.0,0.0,-0.043333333333333335,-3.6620014573011335,-2.5471804561731206,11.469782958067654,8.584339056506227,-20.320532483558274,3.2777140158169056,-1.6894277457697107,20.499223852532634,-3.934194117527294,5.42428977807944,-20.774167288665506,29.361024991997336,1.5712806598572058,5.170938517269716,5.1255478674009725,-2.720683616139787,17.779580675833845,-5.596418267664841,-26.132335212939733,-17.454377433934088,-0.9777050580997948,0.0,0.0,0.0,0.0,0.0,-4.092230844614058,2.0847007284170953,13.257475249250376,-16.4579813712627,5.253846495855468,6.196801979097562,16.834358507081827,16.116938835255866,-26.861429223129175,-1.699275232211384,10.448647024296267,-10.476426619031166,-0.36104207083841716,2.785642320964131,-1.7658207585833843,6.0994066112834195,-2.8754324811907686,-0.27634471898380947,-0.18913913765995663,-23.560102925643424,-16.86999231509741,-19.928388221847012,-2.565403760609403,0.0,0.0,0.0,0.0,0.0,-7.285457890452736,12.226907926413308,1.5708013757506123,6.428338616957033,4.519769426931408,-43.24460304662598,1.6074748461626074,-6.301953183622634,-5.2761178520243055,7.806780103081751,-1.7396876673876795,9.245988940026011,17.599220653035246,-11.046222856747672,-4.664647227999946,-17.44502639470998,6.365845405583799,18.096156137221925,5.612060938849741,1.4265567773420134,-40.0084248367157,-33.10596627896769,-7.937630950300198,-2.489191976052757,0.0,-2.143912419488731,0.0,0.0,-3.7771640309392565,7.787894345192299,25.27128996210913,5.449070139075853,-31.595140090354544,10.128173762386957,6.445346616216623,-9.723799133338945,-0.9478418391667226,-5.431123621509052,8.863950100891476,-30.201744200335636,-2.141136366809603,26.832064239940824,16.9535100449278,24.680625853270307,-0.34619149590336074,-18.660148873696095,-10.487319565493245,16.85771891954106,-24.57713912900805,-53.48373994853659,-17.919772167979275,-3.0317081759616933,1.8650952380952384,0.0,0.0,-3.3200000000000003,-11.37374024948201,-17.492233509161668,6.676463985005788,2.4663496986155264,-0.6384526906597555,15.94084315167941,6.855312488319478,-5.441982121107118,14.149310033147982,14.107460760707113,23.48829236765184,7.788229023667168,14.525581180144673,-6.373313171363259,5.600668808397356,-27.34153180548514,5.149885589471545,1.3071298915251899,16.500817070871467,10.488750649229162,-29.54881257513557,-47.13483634736766,-13.645333333333333,-4.693333333333333,0.0,0.0,0.27,-5.000000000000001,-15.56559797992647,-15.018259106219308,2.8647266107170313,18.172884160519324,-8.081326370070684,-11.530238603747987,15.606315400471804,-3.0247011857592883,-13.874436747051059,2.0417735326352453,-9.546227133297666,-24.350744639605995,19.013528003895043,8.196547628599118,-6.149301648464582,25.79597369498831,14.724873974535697,-3.1860982389002133,-3.4034552592049083,8.482775599500586,-18.144704546081886,-28.40857873165704,-18.98966666666667,-7.003333333333334,0.0,0.0,1.3900000000000001,-2.9399999999999995,-17.642250463715236,-13.582340212324173,13.881915902797994,18.35364861349971,-16.84811934780284,13.87185874176077,-4.1335232801689115,-20.182241947625144,4.365253258314937,5.144302584646583,15.117896090389248,11.74706581758203,14.70247079388303,11.431184074022566,4.896152736735805,-17.698052232764788,4.2985454212415934,13.11556517817827,15.203727358383484,-3.206766559980874,-32.50646257373453,-51.709118909959784,-37.44783111032752,-4.583333333333333,0.0,0.45193489173325396,0.0,4.850444444444445,-12.691835890073067,-21.52813311343116,-5.52710915344795,10.863945038173593,7.076209629325867,-12.918877597850612,6.653585426525137,30.807966611146213,-36.41094666689864,20.485609452289413,-29.12727508206759,-9.549556565136484,-15.628044923537926,3.297941077310195,-5.016799022870125,19.781037139430687,-14.373009140536064,-11.16729568575565,-9.062589413958525,7.354850096796687,22.122069649114177,-15.197704969384747,-9.590308927517805,0.0,0.0,0.0,0.0,2.93073015873016,-8.212075804017752,5.26560824131291,13.721559053036614,-32.02938469335126,3.1248125600488073,14.424809127721348,-10.831761659647325,-18.537138687264324,19.253761336470422,22.997218565258986,-18.119502808985107,-15.950599315581568,17.118262024528924,-7.64794464741557,2.292769797575709,15.441716093269438,22.616822106053082,31.922752682355554,1.8634288977307039,7.318454165437484,12.122058619781251,-8.33930467351553,-8.304819817534957,0.0,0.0,0.0,0.0,-0.5399999999999996,11.756471597776113,-3.0206301661094628,-4.745293255899997,19.4810982727338,4.250821483953219,1.6274860107395563,0.19922113159188287,13.57427502060706,-8.757714822351021,-41.44451260937872,-10.175485987290749,-7.093011288720824,-6.070552361624392,-8.848924493489674,-6.844638677977213,-18.073451689070144,-40.062602273780655,-14.69675365282467,24.423887063728667,-9.748541409481025,-21.586683583018832,7.729451122590998,-4.152409908767479,0.0,0.0,0.0,0.0,-6.644647962009575,-11.896899556195399,6.733486473573807,8.924698577743774,15.222405037203938,-6.740519434123114,-20.118328827476603,10.904896243142758,-8.443637582658711,16.616364131389254,28.502573884346415,-17.765010328926877,-0.4057086806530933,-35.892535975200566,-6.227628310310584,25.247432340465917,-16.905091365788437,22.715449443781797,1.2102405440964852,4.468153436011991,4.661973577111349,11.796800647549674,24.592883086836267,0.0,0.0,0.0,0.0,0.0,-13.953363821385334,-9.455091510164072,7.23811331096822,-16.57614055919893,13.468390905955605,19.22352855001763,4.910756029303143,24.9180095544757,-12.523154647666882,2.1273167498652783,-37.57855031966486,-51.424358813898074,35.1003958802134,-41.36211306008299,3.6798209301573164,-7.261847301086267,-9.729262787552589,18.256000665824505,-2.159562500136456,-9.357783383721893,23.50918055812042,20.462591390363407,6.650267424893658,-2.86,-1.9433333333333334,0.0,0.0,0.0,-24.568629770444293,-12.837125674873407,2.6587492116119407,-6.600052560704282,3.8757428192262466,19.850759241640056,-2.284409586068082,-19.16370036024053,21.45130716259296,4.972230277462739,-23.460676054855888,-17.275540462062555,8.379489256846316,-17.851871715338255,16.813892929525363,-3.1949533569820394,0.0633638795342384,2.6884089322016855,-20.19706902287101,-5.6488294420347716,4.068075006095961,4.701282049921324,-27.28139743137029,-9.416666666666668,-5.047753246753248,0.0,0.0,-0.64,-14.131909445753442,11.935401280629328,-0.6896553497401893,10.306246028376398,5.446558928060465,-15.836730948807318,19.295548912871762,7.1447347138656365,-36.15262468550654,7.261901252030607,-8.239380569376046,-13.220770730713063,3.4938908163859717,-15.37381577914249,-5.051185939253323,-2.7137776170573082,-9.093438706090874,23.711599105791002,-2.626943037533601,-3.989140677634066,-7.991298899629164,-25.41953665296746,-26.209766415687703,-3.4966666666666666,0.4172496392496393,0.0,0.0,-0.7333333333333334,-24.537783406555203,10.615037898798704,18.415071696135243,-7.742351691848196,3.7329694659518693,-13.79372251957066,8.02849028202374,26.459085294099307,-9.527127769084109,21.948627105073598,-45.556442750095535,8.568956860276172,-10.722990725515753,-18.001599092414324,2.1870131842989293,-0.6226799021642451,0.08042381739596816,-26.978475526212556,10.22351873132206,-8.269131488055802,4.244558173751111,-8.366218969416447,-18.716460785383266,-6.477777777777779,-0.32,0.0,0.0,-4.873333333333333,-24.275651564237897,-5.344009362025581,-16.58577496476634,0.47664330005210587,10.939634989725015,22.665477250227074,-4.907439461996732,10.250542215106954,-14.960729194283337,11.41171630794673,-0.33726542103434637,7.374587578840556,-10.68811599555955,12.169349577980151,-30.357713098663,9.67480204595117,-7.528416659272388,14.903321998847476,4.874024134848166,6.983667616686905,-14.08865211478463,-14.980593305667547,-22.182591782307387,-4.0,0.0,0.0,0.0,-1.4233333333333333,-24.74418294429459,-19.55701437884437,-9.338616854331269,-0.8312761398701238,-25.19328629105858,3.5533262127311755,-9.457451902303811,4.773791051579564,25.802186207512104,14.810161549529997,-6.822677099612702,-26.821529760682836,22.815530518860477,-25.5495949680953,-3.432716571195921,12.990653050408488,-13.566543381040468,1.5001127599729098,25.427816156543557,-12.517017684848936,-20.00503150128851,-29.506982083891632,-17.669587301587306,-3.2066666666666666,0.0,0.0,0.0,0.0,-11.359358769571251,-14.758183881728522,-6.0549416422679,6.709968832056025,-7.3937114180990235,4.786859410343903,4.537110973979422,-3.323887736577058,-5.351217756058448,21.877371924455623,-8.890409268997923,-0.5008174461518287,-7.193140399956515,24.974985236374767,-37.69683117790223,-14.163762776385264,0.2936513542312455,-34.34150402719009,-24.252516648426937,9.50829247539991,-4.90068311560909,-17.98585907486624,-4.8356666666666674,7.323512384220861,0.0,0.0,0.0,-3.6253333333333337,-2.949093719488478,-11.55152043768431,-3.2029327890905273,11.75571347362331,11.134207026643823,-3.5038210031964834,12.292943495081307,2.915804589392037,-10.677002235721197,-6.0091472472025185,28.482530355884162,-8.390391536425476,-3.619515116151051,6.331809330113597,9.187680568167897,-14.734338276605913,10.604175167058695,2.56893272196147,9.868717562677595,23.58942573382915,-4.801526519526308,-20.927817789172575,-1.26,0.8774755035279235,0.0,0.0,0.0,-1.9853015873015873,-4.391119047619047,-10.6191425923548,-19.722806426035707,-0.6970189735885899,14.927842831258191,-21.72327360548711,-5.77064212461268,-13.291983124610654,6.152748873442376,-10.389704483407577,21.17591756683497,-13.674855937397124,-1.7125564062560996,-10.97596072762879,7.066485345699532,-15.301812407354996,-11.087271526115364,-2.8837447892248957,-18.165034134358113,-26.69967973707729,-30.175422028901654,-21.731640359663817,-1.3800000000000001,0.0,0.0,0.0,0.0,0.0,-0.15915191543206883,11.115605749938736,9.331553878191011,-18.734738055145215,0.018534038322413657,-11.688556318569734,-15.660031926404166,16.876285310261352,-5.468043190855047,19.232672780356673,-6.416606410204566,-11.175142477935008,20.741387348982837,-30.87227647949218,20.210798272485867,2.804860476916906,-12.77414847451742,-29.54164519988861,-32.18631128971477,-19.96010145438856,-18.192959760898642,-1.1564849726029713,0.0,0.0,0.0,0.0,0.0,0.0,-0.47248224893895435,-1.2582948313847946,-5.020072609162571,-9.378997364968047,-12.163659727114574,-28.99900078262589,-32.33199591102945,-26.63222663159893,-16.728150713340227,-41.67491549868905,-56.51381125318558,-42.07067855338861,-33.21960339159322,-49.58479664987906,-47.237726384076296,-38.466346635984,-21.72164332428345,-11.243333333333334,-15.072388278388281,-18.415527139527143,-7.98,-1.3253333333333333,0.0,0.0,0.0,0.0,0.0,0.0,0.0,0.0,-3.08,-3.349,-7.029833333333334,-16.186416666621394,-26.551214102505362,-33.80532307689336,-33.345337179483245,-43.397420634920636,-39.19009523809524,-17.48215873015873,-19.28013492063492,-33.129185592185586,-32.100380341880346,-27.20363950331436,-16.06409300220957,-6.263333333333334,-8.583652347652349,-14.844652014652016,-0.6072812187812189,0.0,0.0,0.0,0.0,0.0,0.0,0.0,0.0,0.0,0.0,0.0,0.0,0.0,0.0,-3.0,-7.4,-16.2,-5.9399999999999995,-0.3868247863247864,-10.831094017094017,-11.991568376068377,0.0,-3.66,-1.08,0.0,-5.330579587079588,-17.13882550782551,-3.9135900765900766,0.0,0.0,0.0,0.0
0.0,0.0,0.0,0.0,0.0,0.0,0.0,0.0,0.0,0.0,0.0,0.0,0.0,0.0,0.0,0.0,0.0,0.0,0.0,0.0,0.0,0.0,0.0,0.0,0.0,0.0,0.0,0.0,0.0,0.0,0.0,0.0,0.0,0.0,0.0,0.0,0.0,0.0,0.0,0.0,0.0,0.0,0.0,0.0,0.0,0.0,0.0,0.0,0.0,0.0,0.0,0.0,0.0,0.0,0.0,0.0,0.0,0.0,0.0,0.0,0.0,0.0,0.0,0.0,-1.8249940673817093,-1.763575997806363,-2.5131023849338527,-11.138174415710951,-8.93250928238502,30.00231523744243,5.369261518683369,6.981325864869154,21.922272823707587,23.025629857252223,5.906789464828014,15.895835375373151,-4.08514697883246,-0.9299999999999999,0.0,0.0,0.0,0.0,0.0,0.0,0.0,0.0,0.0,0.0,0.0,-1.7745,-0.7323333333333333,-3.2396637806034145,-7.173210439332828,-0.14988751770270425,-13.124980932798117,-36.435074618369796,-14.872917925978744,7.033652678186607,14.016258793551177,-16.618568766464623,9.1457457121913,2.8419261036385897,-2.897814561113,-8.117216987487724,-20.847661550103062,-4.43051112192403,0.42304327233215533,-3.26,-7.590000000000001,-1.7999999999999998,0.0,0.0,0.0,0.0,0.0,0.0,-3.9771718646700753,15.872715783361489,3.404466443248499,-17.829065683989977,-3.921471952188835,15.574506095642061,6.550782089749318,-1.939460751905953,-13.84263703319214,5.989742556192598,-2.012881548375872,-6.245639087403125,-3.8946382111766753,0.4160964539906706,-18.09814131189743,6.423332491639341,6.389304258222685,-20.804850706981977,-11.710208483991467,0.7934404759059211,-20.684773553743163,-6.13323348873349,0.0,0.0,0.0,0.0,0.0,-0.5670568337684475,-4.058089415189979,17.093222400716467,8.02683942139767,-15.379490916478533,-5.077278507201557,-16.172180606428917,5.72388411717593,-21.783150933780437,-18.712985655611373,-10.964578036299935,6.820039194854769,1.2117307336725334,-8.318473623413889,-3.795339801892917,-0.5663591465784943,-3.128279909678862,-12.141930832071358,14.245200523573631,9.749069785085029,13.990711150012565,-24.46613880117018,-35.363747674880386,-2.2800000000000002,0.0,0.0,0.0,-3.54,-10.546648951599076,-10.918304831164352,2.742737022379191,11.88210059102202,-1.3335060442340951,0.9971653481390172,-18.486283733036995,13.966574625242654,8.003536009374617,-12.688424578247245,-3.5148080362855763,-16.692440631852357,-8.13311739810855,-22.548478802535715,-5.160193140108173,-2.0435324638445573,-13.261292943888087,0.3106014060546041,10.751004615735518,-25.41376671003239,-3.161277875962568,1.3460664170543868,-23.867198079553713,-0.12,0.0,0.0,-4.141858046524115,-1.9000000000000001,-10.20274314942299,0.5947391429123625,4.302580006907119,-17.357144459018553,4.069184854276402,-25.37875116663372,-9.172206913328601,-7.326534857824275,-9.919657541326274,14.00753412806392,-5.486404820986969,-0.09488271372694024,-4.204940791632254,26.67986500629257,-10.08053292308802,0.8536666344068249,-0.07398492190012948,10.365277287606117,1.3623762591042465,5.575019457030703,21.640452655136624,-16.07699097422937,-27.8713321897571,0.0,0.0,0.0,-3.3887929471560954,0.0,-11.936141785145209,2.2418714391677326,-2.7392162413350962,-19.38794054124399,-5.281514114572702,0.5202934952938932,-13.630244993284968,-16.033747042413825,-13.855517551637469,10.587657542939551,-2.6390759969078013,0.5544431751101458,7.306135248049695,-22.915481280501435,12.4669999285506,-6.282753351055085,2.34590761230609,-27.49461233662218,12.688069914791697,6.266346160299383,-7.004710683773124,-16.57623949908217,-16.304392588449613,0.0,0.0,0.0,0.0,0.0,-2.928946458967727,17.761255036250102,-2.6040339607827856,-10.474111960881185,20.67808331913313,27.005561894932512,6.550877090604152,6.356677654398857,-3.991060900159813,-21.993761687260942,0.25954469540199576,5.650495658300904,-0.6663163813177408,-15.783987055856867,-9.29080639786961,-0.13616883034956015,-10.800899022992327,-26.84599279663638,-7.203181791343019,-8.164301754567745,-4.507136123825394,-9.914879794042163,-15.194235816830389,0.0,0.0,0.0,0.0,0.0,-0.93,16.838271695306748,-10.497144293095886,-29.7652141682512,-7.394732906185964,5.687054610321295,-18.448913769626536,13.653651337983622,1.9949832717500922,16.629800698822944,3.2653117834310437,7.199869347248937,18.8716089149601,3.627802636168425,13.213675867541275,-10.84347270381328,16.54523147776961,-26.591456074013905,-14.57882524638779,-15.522153969740764,-21.289156435525825,-25.567651261656113,-7.660822361763513,-1.6705873015873018,0.0,0.0,0.0,0.0,0.0,16.48827171970324,-9.547009339456617,-18.408915274241078,-18.194701667110206,-11.979113561970582,-30.784958437678142,5.679851952788591,3.90287376179373,-5.290597514390268,16.07973011917528,16.44777377278583,14.255892942674933,21.60977908998472,2.7925933311974673,2.6480535996997303,-4.629002500200667,33.90717936334616,1.8511685244657818,-17.232425790262237,-12.534562110362248,-23.873776556776555,-9.688249626147911,-6.315634920634921,0.0,0.0,0.0,0.0,0.0,16.532506195321602,-8.172619983367339,7.458117225711514,12.23847384764226,7.217942639987606,4.889880416145471,-11.145673496974164,-6.06941240691253,-16.38161831612893,0.5606178228310629,6.068316483394021,15.747869905272,-22.267656285362897,2.3115404323502675,-6.210185485248486,-11.041752729152188,8.986499590755773,-9.429288743150925,-4.685551261836297,2.2852246577230577,-3.6474285714285717,0.0,0.0,0.0,0.0,0.0,0.0,0.0,12.508770217243088,1.6725772470136475,18.651518088341017,9.931249961960907,-6.76706624055852,-1.3316375145190231,-38.868165534007765,6.992359105591848,-4.004713058537862,13.977247707901123,-11.372850623482393,12.468508303938794,8.536274468444375,29.441427383290133,-15.96307416270986,5.3450782822894904,-3.914690052561748,2.2598578022100635,-2.930817396215643,-0.9000000000000001,-3.44,0.0,0.0,0.0,0.0,0.0,0.0,0.0,8.132234202766314,4.498221373996887,-8.356544757627185,-21.625306799092687,17.227374601800317,8.895255362026903,-7.491724563200654,-6.243042644505841,1.5989749070952548,1.5730381705790213,-2.4588598137965727,1.638608866254716,-10.791468364314145,-6.84862837288549,-0.937512226080003,-1.495613637993604,0.3545022176000609,-13.28771932615691,-8.11522042980641,-11.451868198434065,2.4336354090695407,0.6836764974624725,0.25569890635680115,0.0,0.0,0.0,0.0,0.0,-1.26,-7.043801496087722,-19.88520087580064,-14.324997673385997,1.3796052538111578,3.346858908088207,3.146814686664136,0.6378998169975822,-9.85112232895022,17.39184634089637,-0.041942354096730444,4.275655292104965,13.126893952229327,8.789610622564469,-14.764344753770542,-20.91512691070079,-17.758283614525297,-19.58849041630637,-13.7659558658584,-20.629060654035246,-6.484474795449392,0.2619853533350643,0.10227956254272044,0.0,0.0,0.0,0.0,0.0,-4.0600000000000005,-4.21663150782749,-6.535737778092597,-5.326463786434221,-8.992073262331246,2.513742423251049,-19.315163264800425,-10.453246889909488,-19.424094697870853,-2.1249150878578265,21.095748626179063,-15.606752666473339,4.128984676690375,-23.75208699704047,-25.088747026336907,-16.408093767544898,-10.654536789693855,-1.38855109276939,-11.598579658081047,-23.225782692183916,12.09270095057105,-2.418342413606346,-3.9000000000000004,0.0,0.0,0.0,0.0,0.0,-3.105333333333334,-8.326836627132607,-20.986332398768393,0.5861700199746182,11.245914578735702,5.975372850468148,-12.276378115625487,0.6871391258686701,18.76327706856251,-2.0702480295574057,-5.067605311372966,5.591313479496421,-3.548176303799819,-5.020247322607675,13.547731892695465,21.916047379475156,12.1857703758615,-4.718966284811208,-7.941606908147169,-15.233068363187154,21.541640345475248,-3.6553459499052803,-6.82,0.0,0.0,0.0,0.0,-0.42416606550065145,-2.96,-1.829041552946104,-41.019238677928605,-16.86711582893033,-2.9390969766025066,7.3471951601304815,-16.306752119544868,7.4893531431546245,-1.6289091494302015,7.420567779910197,11.08108742173189,20.8771887269987,-19.835763972432954,-11.441506830945091,1.4197752685764764,-13.186717601167462,8.984144243600834,-2.0392210709258203,-17.283121704646987,-6.571960327708639,10.000435225509113,-3.38610933369029,-4.12,0.0,0.0,-1.4586751050230775,-1.86,-5.642211479306352,-16.50499525662384,-23.278539672928304,3.5889930400072663,5.615510843415482,-21.86927151175332,17.847617358912398,13.397835013609898,-23.812406975447022,2.597053172940384,-9.963587993672837,-10.67800786888215,-16.903900595746833,24.801982550424086,-24.69071838996942,10.186888173500256,-5.4396917538422604,-5.881557805062409,16.603501732222355,10.13106054713541,-4.23470999553761,-1.8960610416150658,17.685662817416667,0.0,0.0,0.0,0.0,-2.1399999999999997,-7.7337076786872965,-11.791589022101283,-21.810300963641573,2.2485328421750634,-1.0318912833855483,6.795599977529394,-0.8191590651638031,3.8526635683694908,6.255390741601341,1.9072542660386609,9.79922779304314,9.211671654452216,-7.306602334604589,-4.091682465423283,3.9084401583942783,23.535009223456655,-8.19594274628522,-7.220921996028619,13.74763343797839,1.852200191879891,-26.16241983031279,10.30536950270256,14.727489288408849,0.0,0.0,0.0,0.0,-0.04,11.581789710289716,3.3427687888901274,18.08966457643209,-4.035654644683097,13.728646061287614,9.557269065028597,-11.068813012324323,3.9402059220795547,-8.687679942502925,-1.6833541567427095,-1.5065543953942961,1.3455173161412055,-1.7376099438875523,8.77112532961942,-3.753319980083765,5.074194624991911,-13.079673343969139,9.161108680730297,3.7220889615238875,-26.804981350320595,-20.216783464145788,34.10731127100778,23.616172551734195,0.0,0.0,0.0,0.0,0.0,3.302539260283606,3.1114321472816093,27.343746708974304,13.599748911395604,-4.677699250589156,-12.779680704846767,17.177123381255612,2.3112790646822408,11.84382310964235,-11.459391422084032,-13.263061594347445,3.6701446210320183,4.376050908892973,-0.08594607593050929,2.0863262382910133,17.678385442440565,-1.0464080371394717,15.447178117124722,9.793274966914199,-14.100481535046656,-13.333886979359976,4.685055891018426,6.429626927474578,1.0808436563436563,0.0,0.0,0.0,0.0,-10.989413266915642,-28.564538473498068,-13.748046267050213,18.424900663050213,-4.32180600229106,-4.833702486387714,0.887615732675534,-15.798496187658811,-15.324786739789703,11.539701831039656,9.809529385243964,-13.906025097015926,2.5689071316969394,4.899532474772672,1.9694989710954258,-10.10512979732626,0.45181057339596525,6.073349452730542,5.020128596266653,2.0671517359495324,-10.174010228852074,-7.29,-5.390000000000001,6.004686979686979,0.0,0.0,0.0,0.0,-6.216000000000071,-18.62392051185458,-16.47139633011118,-4.621155760881448,0.9981983398813389,-10.643177782534284,1.7990239347729646,16.83425401944669,-8.00699276146109,-15.157614164101455,-12.633922959355143,-6.365296347826669,2.9505137730977418,-33.50647168231835,11.92357928466409,13.857181705661176,10.698719638596241,-30.307731562372417,-12.662411300656041,-5.6550868476500895,-3.24,0.0,0.0,0.0,0.0,0.0,0.0,0.0,0.0,-11.561337478913867,-4.030751432094809,-1.8230401268860514,-23.395018177840466,-22.84403384753065,-14.241598091964718,-42.452422460381165,-59.05988679939002,-18.26139051207469,-1.3436052524216033,-10.074715035904068,-29.239244981937745,-44.931335496208014,-41.67036652236654,-24.350870918936135,-28.319820678717416,-18.323024192975627,-4.718819890609531,-0.041842484165882585,0.0,0.0,0.0,0.0,0.0,0.0,0.0,0.0,0.0,0.0,0.0,-2.8175000000000003,-7.353999999999999,-16.903235811162016,-17.326202787557268,-4.638,-6.333030303030304,-18.407636363636367,-49.035754767534016,-37.17122839286442,-17.180971672070527,-15.06958598712825,-16.160000000000004,-7.65,-11.918222222222221,-14.744222222222225,-4.5569999999999995,0.0,0.0,0.0,0.0,0.0,0.0,0.0,0.0,0.0,0.0,0.0,0.0,0.0,0.0,0.0,0.0,0.0,-0.66,-4.24,-0.28,0.0,-6.74,-11.29,-2.81,-2.49,-0.56,0.0,0.0,0.0,0.0,0.0,0.0,0.0,0.0
0.0,0.0,0.0,0.0,0.0,0.0,0.0,0.0,0.0,0.0,0.0,0.0,0.0,0.0,0.0,0.0,0.0,0.0,0.0,0.0,0.0,0.0,0.0,0.0,0.0,0.0,0.0,0.0,0.0,0.0,0.0,0.0,0.0,0.0,0.0,0.0135,0.657,0.8261814771174958,-6.534878749851531,-6.9558132516629945,0.9413171897627102,-0.9587573252504428,1.65690187992418,8.110151950072844,-2.5141044782477167,-10.926920287555168,-8.568611111111112,-0.845,0.0,0.0,0.0,0.0,0.0,0.0,0.0,0.0,0.0,0.0,0.0,0.0,0.0,-0.03,-2.2199999999999998,-6.109765347494985,-2.045464270671442,-0.4635848254250075,-1.7202144894773475,-15.76314147470101,8.634350150382033,-9.539762129439668,-2.9111297037743373,-0.3684851472325849,-5.975626218028196,0.6597673941933547,-6.093479506051543,-13.356412467116717,-6.944243609673725,-9.583729733845981,-5.905462835538362,-1.8349446260360052,-2.5092513788309514,0.0,0.0,0.0,0.0,0.0,0.0,0.0,0.0,7.157568311924937,3.3073737431901087,0.37544198303867193,-4.908946833698452,-6.160848671166406,19.62519901520663,-4.037568174318898,-5.009079231825806,7.39954050125954,0.6738809865518552,-6.889294305505649,6.927945764565716,-0.9817653991604062,-3.9443457105082107,7.42986847941062,-2.6640966434413316,14.620139041588438,-9.781071705366902,-17.80408383810228,-7.190694052475833,0.0,0.0,0.0,0.0,0.0,0.0,0.0,-5.16960120542436,2.5435925610526873,-2.6590941463876123,6.857248771342938,-13.400699517284709,6.7415948591701405,3.019551803670057,-0.9961000853046355,3.1144001467345808,-0.7858612347088753,1.1290756301867573,-1.0632843085953132,3.3493085256052817,-3.4058544024526562,2.3094953122029933,-6.1944714082309424,-0.5826662783929819,-6.2394489975244385,-14.593094294159535,-25.901386918204512,-17.41569404590229,2.0584419034761487,0.0,0.0,0.0,0.0,0.0,-0.02808345763508334,-2.3125969565156685,-3.385377010547138,0.2510862873893004,-1.8811537297423055,9.394117235612859,-6.46250100350932,1.6499395537419388,1.574852490308788,1.043803776330699,-2.8460588358002723,2.935576821271712,0.3986067524709058,2.0423765738103956,0.037421974904209454,-0.7973109452154316,-1.1270999067008634,1.7956529688814007,-1.6109103755558478,17.365081152160958,22.636120752382272,-19.9743195624194,2.180041440757663,0.0,0.0,0.0,0.0,0.7440725930211315,14.530109924046627,-0.5804765593265868,-4.970768965518833,-3.9239444703356954,4.118924602180164,-4.545154805947625,4.144498788950671,-0.4378772183696822,-0.28990151114898755,2.8616266878680636,3.480139213447231,-2.4975900433485823,-0.5749398463940933,-1.45077365232135,-0.17479913172871586,-0.3414140883783604,5.019859095771005,-5.253988337976844,2.851138396825802,-10.980011870964638,-15.001045442649849,-12.008710328680197,-9.09117950401643,0.0,0.0,0.0,0.0,7.993919409292978,12.774399768146605,3.845201757801463,5.2947706040447295,-1.2728215295770673,0.909627902117297,-2.027220016524068,-1.3194387117648847,0.04548288068825038,-1.0741158824055672,0.3793982593302568,-0.30469213612620705,3.3665846802984727,1.8753457071930948,-2.4210442705154005,3.547520641436157,-2.108990085917621,-5.412661356262064,-0.7335204307101018,-4.1154353619352575,8.620419747101707,-12.231392707049427,-7.519595192757842,-5.26298487216822,-2.67,-0.1,0.0,0.0,-7.0149830207052,-19.196024616235377,-9.744932761023774,-6.689681773756272,1.3605276580829206,-3.6255165827592863,9.265326176687294,-2.1853753885278433,-0.4009006813057166,1.1819262274139728,-4.172755726624042,3.487414020188412,-0.92576803252988,-3.7802741895897007,2.731653054757598,-1.7843222806792849,1.0647310013700302,3.613062310591877,1.742766066971785,5.272133320734422,-11.324499502212888,10.360035855260277,-44.155923618520994,-25.357926419927228,-4.55,-1.78,0.0,-7.042419491143168,-9.897329506247875,11.296178691007546,9.137032176503036,18.562366322834503,-6.928178697554227,4.631714969896963,-12.634397002365322,4.112800404272763,3.4383945713069313,1.0959601369447323,0.866808216890424,-3.011559217371736,-0.07224383636093554,3.1312936275885463,2.4490197745525135,-2.8310921069900914,-0.410767711661254,0.36663888218358615,-2.1097147307956168,-3.672668087225587,5.0589235258385346,7.617566665316406,-50.10021175886859,-7.360370365483891,1.6690234261167325,-0.02,0.0,-11.563478917556068,-2.3494244101441053,6.305278039043312,-16.56336203128913,6.085056788923191,-1.9181661394235934,-6.214947867111989,15.972651537877816,-5.732999304289917,-0.44366536597095707,3.2005727886592177,3.8545470454596447,0.8047899111559556,2.5304000460977156,-2.0097289850580777,-0.36889035509094326,5.597505475109151,5.864472314895179,-2.14211825450111,3.8928055250157496,5.619744872225952,1.3839931072151304,6.105940208945367,-8.76336969159918,-10.923290219131495,4.602647882290081,0.0,0.0,0.0,0.0,-18.18460153380994,-6.277234210063011,4.925221741471077,1.027666724864616,10.218246201058383,-19.591648066064426,1.3231827989028158,-5.987561272075678,-5.597921474663692,-4.594455336022895,-6.191678034162055,-5.150999238153035,-4.049382432168972,-3.9919867819020087,-4.1313047042002795,-3.585877179232143,-5.845234088204956,-6.757796023947664,2.6466738600400905,-16.460679908896925,1.8517596391985849,-4.4261604623357105,15.343551721684662,-4.053936757608595,0.0,0.0,0.0,0.0,-13.832679665675021,12.528554628326868,8.336905405569352,-13.756359333821953,-6.894784322000821,-2.750422628267723,2.216670454642222,0.6183965642282863,-5.617955606050269,-2.099745042324269,-0.940618399551022,-4.346899059412982,5.084286368061291,-1.0956302685397408,0.31672240733143836,-1.3142820669593047,14.057408745613778,0.7147914385641532,1.825835343708558,17.01317481273451,-24.10087583833538,1.612116232996648,11.036055520381682,5.600274120580183,2.32,0.0,0.0,0.0,-1.9084566343553626,-23.531005056522172,-4.133907368696877,9.409907044862148,-9.59373809388088,5.823065195883693,0.35735175130992963,-5.1328242609613755,2.6006647482053493,0.5204435381726136,1.413331452097548,-0.3327509639966889,-4.413408999186932,-5.782995954656834,6.294438842516689,-6.430915352136485,-3.901754311963237,-7.797359570259505,-2.093325649043013,-16.957920638004197,5.769577159136462,7.736045333428888,26.43873631482877,24.356247408212884,9.72,0.0,-2.4255675232435765,0.0,4.837291016784668,-10.721116281389165,-23.420603065225357,-13.132292350441501,6.828136743401938,-14.339425530628608,-1.2933852353453075,-4.057504890453489,4.140785538693013,-3.2934438892591458,-1.8604228280663768,-1.0295001506183674,0.7113722222591649,0.016160721780338512,-1.6284558500603665,-0.2193845666513597,0.8439654468305957,6.934091697661788,1.5155478263151791,10.09079211952666,-12.580325188859792,-3.8559843822358606,10.974477992008506,30.803324262619682,1.08,0.0,0.0,-6.730869821147176,1.812405120239917,10.865014633671047,24.883582463231555,14.565208652662411,-8.813365274805452,3.338673223003922,0.7101565429393893,-0.12305669551861548,-0.6614975118456905,1.836767938136218,-0.12252058929762646,-0.9785688016205776,3.5241104488157324,-2.631448537307466,-1.411912100425855,0.1953926840334846,-1.2966525367873836,-4.743521230942036,-12.369021422342524,1.750018871630192,-6.448155996424659,6.244932754888001,2.3447537417230873,36.77776410513547,0.0,0.0,0.0,-19.63446823666888,19.53201707135758,-6.223347840082161,-6.342205174938991,-6.6480560307101815,8.620548586334227,-3.1974446291975047,-4.605930326203047,1.0033796657281044,-2.8704577881316258,2.18382718181185,0.5131968911973681,-2.6538167615070316,-1.8220781351873079,4.362389972048149,-1.9087715790281452,-0.6859531369507054,3.3049905800334156,-1.2682880659193332,15.34577571574158,-9.63143399029038,15.990780238773874,-14.997179072390676,17.37222069944826,54.122321455997074,0.0,0.0,0.0,-13.380876732116013,22.653654869490918,-2.680063164543284,-5.666451273372312,14.226098457755,-7.776168625733367,4.700841207222845,5.923181385718993,-1.2264453407217417,0.014170019926616408,0.05472106985422582,2.5344927682534864,-0.4280671217001556,2.7958225030686976,-0.7848123670359092,-3.1567215392166537,6.105776464194801,-3.7710878694932135,-3.7887656175005113,-0.8802997223596808,-1.930231560332045,-2.3757702719709552,5.070943707966731,18.541498467545598,12.643057695497818,0.0,0.0,0.0,-25.564321842096998,10.530757158004372,1.5169105931939924,18.923598324272024,-10.94145082253744,6.9962327321686555,0.11968593902230279,-4.034672492841799,3.2443950991145747,0.5585135464658193,0.9185317106795904,-0.08993095938318799,1.8999092483301383,-1.0473698368555182,4.335040513702272,0.48652147356223074,-3.385493012460213,4.058432943356677,1.5934921607663932,2.936118726942255,-2.662144157554767,-1.9253241530896816,5.886292626215516,7.700531277082157,-3.3679333945390404,0.0,0.0,0.0,-20.535860985919346,-16.68000393490324,-3.0739485986058512,-5.900062338737926,3.8533702482461,-0.6070433827673091,1.586767210360299,-2.44893381236382,0.5203889400374818,-1.2212768071603675,1.6734704900720276,3.1675187602529977,-1.1520878395735417,4.131645373228026,-3.0095522549021836,0.10547069345925236,3.6376810050627273,-7.353728153060024,-1.8793717639261642,2.0839232835237462,4.660532944759338,7.463463019309919,-11.640534511360551,8.951100104020966,15.062603134612464,0.0,0.0,0.0,0.6527790705108851,2.546272737337008,1.8102044756982663,-5.890862251469523,3.9746398662684563,1.777363611006776,3.3434028642863094,5.569831048090194,0.0003140963074851552,3.260937475217343,-2.3524053967451453,-0.21549015585131406,-1.1999883740223474,-2.6106513425146636,3.325137912413892,-3.4840701380603534,1.2847759727387866,2.9882497025396493,2.707736164809596,-1.0264598465284434,4.301896033246787,-7.685273565376916,11.451753540009747,-10.95688490762996,5.357820962885062,0.0,0.0,0.0,-4.020256874438365,5.5532947031603515,7.988088453097884,6.118889045338104,3.8219703784665664,-1.470113558714712,-2.302630115954075,-2.4692682408809095,1.0281885210672692,-0.11096628612964296,-1.1565195515592765,-0.8779253677622038,0.3108506464920007,-4.196620977282707,-0.027855121073079192,2.617935257291113,-4.464442303821139,6.677483661472182,-6.292415592430938,5.079101562498068,-6.271376960375165,18.11701260310514,4.885341535503583,-4.336460107238829,-0.588153325240227,0.0,0.0,0.0,-12.89639238299563,-3.4396383406339903,-4.2679886657930295,-11.323573873609906,2.647141108315619,-2.2579885866122864,2.7101066772183744,-0.6442933010078985,0.9888255991718502,-0.15532948772199745,-0.5362874503341221,2.3051173680761776,-1.641015460624795,-3.2592731360167724,2.9585567633197414,-5.858572116585009,5.049762915403919,-5.787371334309265,6.721390941808445,-2.7157882194690144,3.744054305822652,-4.809874324014329,-4.958599581108585,-5.153119154931057,-9.827851385060661,0.0,0.0,0.0,-6.938952080568899,-4.292776402021552,5.9510440493151116,7.890366824708456,-6.394722505645089,4.027885903616752,-4.633367671289807,2.43118414659415,-2.927742071375106,0.6787348942273942,-1.3754444182775694,-2.2199821165859674,1.1331739446256803,-4.504235679397387,2.346940962053572,-0.9665052450328127,3.9347127819555263,3.0073316005330026,-0.28948411823568665,0.32734448163597596,2.8033284540832715,4.696527327917854,14.409453059373304,-2.7106088289689825,-6.017357920461959,0.0,0.0,0.0,-3.8500000000000005,-11.729340696226771,-14.211207775655298,-27.036068899005773,8.12155413303097,-0.12938121684873435,0.9899040449066838,2.2955397869229204,-5.862048816339276,-2.022494602542683,3.501005762624325,-6.162181990270804,6.678700223423563,-7.69219161325276,-8.536495221534357,8.804088482676484,-2.208217315115338,2.3939364819636477,2.599871561759561,4.6390996232592805,-6.792124095299777,-5.006463298189095,22.96524491273759,10.875276710824448,0.0,0.0,0.0,0.0,0.0,0.0,-11.321666666666665,-35.082634199134205,-23.90627928202161,-27.627553211092565,-48.39983146305077,-38.11609802301489,-18.44489919145223,-8.467541474142752,-5.898522390080463,-4.007821126715663,-1.7791554509977088,18.585256047578994,-4.984575958344825,-1.1989733018380826,1.8093079919159585,-11.939154684013355,-6.2147273694462735,-22.917375373216036,-6.134745916667686,-12.385290496491178,-0.98,0.0,0.0,0.0,0.0,0.0,0.0,0.0,-10.625000000000002,-7.166666666666667,-11.991666666666667,-22.346666666666668,-25.523333333333333,-17.78,-26.19,-26.748,-19.900111111111116,-15.84737280019478,-32.35036523870791,-37.649377099414885,-33.57992929292929,-20.8434191919192,-19.369199855699858,-24.692303030303027,-21.412000000000003,-13.60362941739519,-1.3280621324224995,0.0,0.0,0.0,0.0,0.0,0.0,0.0,0.0,0.0,0.0,0.0,0.0,0.0,0.0,-0.52,-3.7,-1.02,0.0,0.0,-1.53,-7.195714285714286,-6.647352092352092,-8.760817460317462,-2.8400606060606064,-3.7766666666666664,-5.096666666666667,-1.0266666666666668,0.0,0.0,0.0,0.0,0.0,0.0
0.0,0.0,0.0,0.0,0.0,0.0,0.0,0.0,0.0,0.0,0.0,0.0,0.0,0.0,0.0,0.0,0.0,0.0,0.0,0.0,0.0,0.0,0.0,0.0,0.0,0.0,0.0,0.0,0.0,0.0,0.0,0.0,0.0,0.0,0.0,0.0,0.0,0.0,0.0,0.0,0.0,0.0,0.0,0.0,-0.3991159114260748,-3.5013350411469277,-0.8889399845398938,0.0,0.0,0.0,0.0,0.0,0.0,0.0,0.0,0.0,0.0,0.0,0.0,0.0,0.0,0.0,-1.5226363516934827,-2.813567171607522,-3.655631690697151,-7.3046697800284015,-7.694880853624327,-4.699190930786726,-17.105827994736686,-12.73428151939038,-1.8122284237771498,-3.162356961088357,8.920115077046583,-7.353560151443178,1.6245338984771045,-8.136929713187318,-7.641325814392315,-3.5144561403508767,-4.281714285714286,-0.7080000000000001,0.0,0.0,0.0,0.0,0.0,0.0,0.0,0.0,-0.9552777777777779,10.027707950094285,-0.010246230150193117,12.569517046496294,15.507332148099405,-8.429057141546954,-8.39096261570371,8.273042494159206,0.7437990346786291,-6.8247025994283534,5.461243916999636,3.1300265620409977,-1.4360162453599745,1.5975611137756116,-0.23809592865602414,-2.7643745241109388,6.821755562873407,-3.590797509400662,-9.426279787702628,-1.107,-0.47000000000000003,-0.11750000000000001,0.0,0.0,0.0,0.0,0.0,-7.987207463720868,-16.36452468660751,14.137059216705909,-6.163160689715806,-3.984104733791869,0.34783377936312176,0.746279484260237,0.8198313748393553,-3.048371437302696,1.4113996605318915,-1.4123581474735434,1.8314590241485833,-2.449045966287437,1.3790032808168686,-2.0966879541650343,2.217107230679152,-2.965038954032521,4.052874067397569,-6.133768263637101,5.690869775377373,-14.490779351946,-10.951011961899255,-0.28,0.0,0.0,0.0,0.0,0.06373130045229679,-6.012967963548681,-13.105563867226493,13.837711194907184,5.768493143435279,0.3967638533954139,1.8284715016921043,0.0662063867817864,2.474221871787527,-0.34291878067749654,1.492416520764632,-1.1149448343695805,1.6880983986101883,0.1144722540085596,0.9921779543857616,0.8194965199264657,-1.0518469300471425,2.3789982070483915,-3.488807050611253,-3.1837280935240826,2.4558439881101797,-0.3410903306685288,-5.1095977539789335,-0.6731700527876513,-1.26,0.0,0.0,0.010224173155270248,7.232735579240095,25.54786302956284,4.656641154279566,-10.766568504819768,3.3983888575102603,-3.269655958204792,0.4001040301507389,1.335373314911993,-1.7207176417798722,0.18428918516570653,-1.69065428150415,1.8119460735098998,-1.0525851015222731,-0.6523054403328874,2.0724789188709183,-1.363194362037834,1.383466002244829,-1.1835932794454225,-0.3711985162763193,0.7284963034473229,4.786107519568509,-10.984969957345756,13.608478125886284,-9.251407900936684,-4.24,0.0,0.0,0.4422197314058387,3.11580748490247,5.900437611427162,-4.958764450376458,0.07646906505698174,2.069370398027543,0.8279909146393286,0.7053714339086126,-0.5102496129799323,0.4559505130676853,-0.5356243984622935,1.4867860944437337,0.28692272991343426,-1.3967357387446049,2.9268731877403344,-1.4728334272380603,-0.04066951996589545,-1.1170517157116244,-0.8170030320143244,0.3875725588017167,0.047220301759228374,-10.031217867537187,7.275909678673658,-13.12384131084356,-23.108691774551968,-0.32,0.0,0.0,-0.39733453385766376,-9.987392667314767,-1.6311913360227834,4.408125178843432,-0.019501715912134614,1.4137211430986358,1.1395937624336725,-1.9119384187677984,1.0732028183352555,-0.7359076143702572,-0.28257898566787604,0.17942833964621138,-1.9384128734810537,2.659970739679309,-0.659061122599688,0.24031276754936637,0.976702742245213,2.463392192115344,0.9052381507686053,-1.7941977715409163,-0.3032119484769447,3.7325463285238274,-3.5344336982799702,-54.67057351544306,-22.862931461301297,0.0,0.0,0.0,-3.707353765400863,0.19165027861741898,-0.5153279268132985,3.605678144163441,0.12008512285859449,-0.7779297070764939,-4.631561072400658,3.157222838446107,-2.161133829029463,1.4338642410485514,-2.8964386873258463,0.7696994197012581,-1.2202632574172712,0.39542682518485456,0.6767805263166524,0.7400617328838741,-0.6283715479486366,-0.7583075454765505,-1.1557148929936016,4.314625534888669,2.1897095830070032,9.279835574273124,3.777269676192802,-93.8426984537899,-33.48693238030016,-3.666666666666667,0.0,0.0,-7.480223437758724,-14.824274696609665,-5.599176099387812,-10.586743211645535,4.692083046908049,-1.5721688020511373,8.783986833509196,-5.265038604842707,0.3488648060729058,-2.8181977027742233,1.009876964734366,-1.3346931143144773,1.851255894698871,-1.3651211853766496,1.6532091852441075,1.3220736940801334,1.9400979787271972,1.3865693803889405,1.766458646816352,2.1879857075324964,0.5498314361747606,-7.770495282668613,24.396515704938803,-44.13441253878284,-17.499572726617686,-10.053333333333333,0.0,0.0,-3.3751638543563973,-14.828517793018971,22.495872538142265,5.888320631619556,-5.556968418647259,-0.45796774649290795,-9.547712128449863,2.178874319953273,-0.3591178388140512,-3.6919754372095768,1.1404603711445371,-2.955545863779056,2.50218849364543,1.4297192725166759,7.738831569164412e-05,-0.5320293310622868,1.9389685054234933,-2.012210284328851,0.3603982890185558,-4.571092795282015,-6.06893460200885,-6.9126525984848355,-19.335123587032676,-25.055073577899837,-5.65642246987487,-5.9,0.0,0.0,-0.03978956848441339,-2.772630064729936,-8.555630254618018,-10.88190384680969,3.735647650976955,0.142505584917776,4.279474407340667,-7.278658860878523,-0.8277472015023173,0.2769532432660363,0.07897349528280644,0.19508960585063126,-1.2481210647947716,0.761680510024423,1.2396729333395742,0.7152727991306593,-2.130812873964114,2.917626273382906,-2.580905314040076,6.623767708815674,0.6158614815219419,12.992943820255745,-27.350970262635613,-30.496597682797013,-2.163556293026057,-1.2,0.0,-1.1413333333333333,0.0,-5.066268590740123,-2.15116750923868,18.605951539996568,-10.577972159364869,7.250484189660877,-4.86768019223553,4.5932145025982685,-1.788818773939185,-0.2942227454246693,-1.6533373967063714,2.96678741689725,-0.6410737999679696,0.6954990139931281,-1.2541856495947041,1.0699018408755376,0.8876245846812303,-0.01955366504580736,0.46467549641489136,-0.06842708470448056,-11.05584468256946,-17.926412888389947,4.99751379869479,4.265220792787379,1.148345105424178,0.0,0.0,0.0,3.3504314305901715,0.7818656571811637,9.455460452089538,-1.861159173668878,-5.477438436837547,-7.856836692708617,-2.485336099981783,-0.4103894514354216,-1.0137686063085882,-0.25006657366313817,-1.107281837780866,0.5533640479183217,-0.04384172110860679,-0.839430922362047,-0.034537157991628036,-0.2224039019134407,0.4406559409007254,-0.39297642299375474,-3.451450397510897,-1.5762056964181137,7.637887179686718,3.838603571978555,-6.375225015750961,11.624221900112293,-3.829157549800336,-1.4516666666666667,0.0,0.0,7.64845962942807,-1.5544317445961675,-6.378819258724627,-7.464977442710772,7.198720619550332,8.849874561801537,-1.670992138569268,-1.7899712670523495,-1.9773703235465667,0.7771211115522516,-0.7260066906832428,2.275279824068982,-2.1970514782352133,-1.9019625957460726,0.5237209968070058,1.1235128657001925,-0.2222478765051058,-2.4316966062567658,2.711262624762069,1.8461178740586799,-3.2062139816833604,-0.865353735187535,11.788887095567658,-14.504564869228524,-34.10114252871064,-5.146080529587544,0.0,0.0,3.6211733643752364,1.6429336018069007,10.427766460525524,-4.835367550968191,2.243888655101732,-16.178149493860992,2.0940225972866315,-4.145967597332032,5.243731740837397,-4.533158653236907,1.553564664873451,-3.600986189016216,4.423319374644435,-1.2250396744356074,-0.43682320418195736,-3.3486649906099686,-1.4467801522011987,1.0139631238452789,-0.29329885494678304,1.5461503933181842,-0.9370153123921676,0.2228669228730242,1.174340016898583,14.739563157414894,-43.03760345531561,-4.222190476190477,0.0,0.0,1.252181443755923,-3.2203021570643293,-2.81648777992114,18.63059738899602,0.3880965252776443,3.7312184704427827,2.8704102167938865,2.369907604880789,-3.9817812258240157,-0.41625467131276983,-2.1951867694057956,0.042600919477489285,-3.296076234274699,-1.5436079038169137,-1.611379481863744,1.0693705429779827,1.3520020312800323,1.1824375937634768,1.46780363840254,0.0003426597016486458,-0.017485139687662125,3.1004723262023397,-4.385081955693512,-6.47796361167361,-27.700646371358175,0.0,0.0,0.0,0.0,-3.611108349299953,-2.9296792073853792,-7.291417506044319,0.6092795032644764,0.2343137717248076,-3.952429982659768,0.1499897854739994,0.27888021000332874,-2.709595751395466,0.5667020082228411,-1.6995357758327307,-0.8796079117592254,-0.57485164676873,0.1950788255805147,0.2021022526339474,0.004438522063687542,-0.13715230820156102,0.8577575134341946,-2.8466846254672884,5.9989508611202815,5.115392276904616,4.40359593363978,-13.601035824333838,-17.429616609820748,-1.7778484848484848,-1.4185703813735422,0.0,0.0,0.04377348761259857,11.160694585242018,-2.2753946878024855,6.574928357267732,-3.478453442409152,-0.12842676628549143,1.5696475148968392,-3.3797557724161638,1.902691419786313,-3.636895063535096,0.11622998034319112,-2.142613037519306,0.004188374672889167,-0.5367975367055483,0.6102378300011474,1.2585616716695127,0.6557256655737175,1.2098583691279727,2.6415066254788133,-4.057087506067418,-5.537828745724426,-2.3317220648173174,8.98055072405487,-18.109561053059295,-0.8681212121212122,-0.6079587348743751,0.0,-0.955522653471772,-7.809796948697017,7.177118721039107,-4.968417473641716,-0.05901069311697222,5.99462360420053,0.947508489636124,-1.461867351056307,2.972223132414706,-3.731055607296399,0.13077225751206759,-1.1457792890839542,-0.6813689584914536,0.13910466732262328,0.0007071251946445672,-2.059191063547643,0.9467792776970424,0.02617153785714691,-2.114626365965438,-1.2298217434475962,3.91986078323442,-2.058615601313899,11.717954854063915,-11.23551300666116,-12.475118794873596,3.330912783927609e-10,0.0,0.0,-13.597822376329061,3.913357975845506,-17.21582464070939,11.691891284558652,-2.358358850955046,0.16479316153599527,-2.4618479886360145,1.5160536585313413,-2.765714169396486,3.0631466299692325,-1.6983191901959513,-0.2886949700027951,0.5824111173383061,0.0601374340114593,-0.30248374472499806,2.6545431185753983,-0.9930433043268341,0.9214375329022687,4.72755401811198,0.6419740622895365,-4.2871592632486655,0.04482090931929329,-6.127525455731512,-33.63804975558591,-11.623863333100033,1.4092323316616806e-10,0.0,0.0,0.0,10.038811281019736,6.751437711259298,7.032446384921678,-4.0886252520929425,2.3406087350529643,-0.6581009543766732,0.41067413336052416,0.7334847007807608,-1.5278714252255108,1.854916006949658,0.3372104626912114,-0.7957351092801638,-0.08431138649145967,-0.6024871692185457,-0.8517126520671189,0.4430584844942637,0.07706340064337323,-4.42120579238033,1.252286928065629,3.7662693521738486,-6.702238509671481,4.726114024419297,-24.164095595600543,-6.7661152694035795,0.0,0.0,0.0,0.0,4.3677056851597635,7.975410677739068,-8.010309669643393,1.1983344719837694,1.0760386026903834,2.5124866146964,-1.3375252990550361,0.2688678848830384,-0.061501708381626975,1.4234403862167229,-1.4534984708382268,1.852354397561745,-1.6736716171484889,1.4665334902254552,-0.35177755736490607,-2.1667176968385227,5.872111680855952,1.7380126760644623,-6.804950045745172,8.648251713692881,-2.8138476320890575,4.3595806794562595,-6.864999394117862,-1.8863953387086665,0.0,0.0,0.0,0.0,0.7893444009324867,19.806173341516555,12.109488900673378,-5.504880880296717,11.537183040287466,1.1378273377800876,-1.1507374902946041,0.5510178926260343,0.9995890031423641,0.6931268798119968,-1.261745976584137,0.156659896844569,-0.5338417860980323,1.1681601550575171,-2.756088405957206,7.0611668251982165,-7.792659550539431,0.8490075273881461,6.387237629142026,-8.739788021595539,1.3948704437947448,10.07002690235775,-3.0947533643553977,-0.011111111111111112,0.0,0.0,0.0,0.0,0.0,-11.365241329038055,-14.78430272433992,1.409777591204247,-0.36426983144284697,-8.726025076790881,11.26555251995798,-3.8783521393176166,4.799703612806838,-4.962099998352419,7.304963491113996,-3.037541717795815,1.842179869935754,-0.44520230111696885,4.449000941347901,-5.900414388425395,-5.407759462941358,11.000462009358035,0.35092304413492276,-5.113568811760328,-11.823175868722997,-0.8222222222222223,0.0,0.0,0.0,0.0,0.0,0.0,0.0,0.0,0.0,4.76276805127599,-9.40839961988651,-1.8600666562024568,0.3850383613049679,-2.5476865082580145,-9.751829569700687,5.780856067571879,-18.741445716626657,1.234774968797579,0.941776826669023,-26.30703260110515,5.972231965903569,-0.6485292487807901,-10.676289805145375,5.835339378980512,-0.235116065483451,-0.08070260257400913,-0.9422108665954394,-0.657448047903665,0.0,0.0,0.0,0.0,0.0,0.0,0.0,0.0,0.0,0.0,0.0,0.0,-0.5933333333333334,-1.6866666666666668,-5.293333333333333,-8.176666666666668,-10.91,-9.43,-5.26671078661049,-12.199999996659663,-17.15385442343827,-4.9599171336039,0.0,0.0,0.0,0.0,0.0,0.0,0.0,0.0,0.0,0.0
0.0,0.0,0.0,0.0,0.0,0.0,0.0,0.0,0.0,0.0,0.0,0.0,0.0,0.0,0.0,0.0,0.0,0.0,0.0,0.0,0.0,0.0,0.0,0.0,0.0,0.0,0.0,0.0,0.0,0.0,0.0,0.0,0.0,0.0,-12.854714285714287,-19.519880952380955,-4.095339105339008,-14.883270562770107,-8.728133477633172,-6.180619047619048,-18.539857142857144,-13.874896281706231,10.596488279945715,-3.2333333333333334,-5.1499999999999995,-4.17431746031746,-12.60253174603175,-15.964730158730159,-2.6360714285714284,0.0,0.0,0.0,0.0,0.0,0.0,0.0,0.0,0.0,0.0,0.0,0.0,0.0,-11.502119047619045,-32.04797619047619,-35.91859235209216,-24.381618853368376,-34.68668906093879,-48.16706809856813,-53.906138806957756,-7.526710280191796,16.44820695739274,-32.26899946220664,-27.161689569091575,-27.848690581565304,-46.02580767288798,-25.24440762213355,-16.608488621859532,-17.094291570574548,-16.69681340616775,-13.02929120876527,-3.6097222222222225,0.0,0.0,0.0,0.0,0.0,0.0,0.0,0.0,0.0,-12.604479033320658,-19.010893188616073,-30.148462245318775,-30.706463477567695,-5.823589466527739,-23.33893447346733,-43.73854335068584,-55.23004973601905,-12.408037171151138,-33.498612999738626,-5.584207817869003,-9.256318772425763,-37.44924457206096,-22.6729363322289,-7.108748044002431,-4.467688036042442,-9.568319975726721,-15.653595784131376,-10.052076231254393,0.0,0.0,0.0,0.0,0.0,0.0,0.0,6.829676859727475,7.401846541555839,-14.098603762935547,-1.712466491017786,-20.89934143599963,-12.872201842461909,-1.1924177888351921,-13.566155477727259,2.8238933273733897,3.673383821949817,-6.140976549920472,4.220575375067408,-14.705922897800816,1.7988412464254555,10.35607558750762,8.460370049305606,-7.73904614958309,0.30135818756730565,9.687981054985599,11.170797843437652,13.590678615097595,-3.8975322628922435,-4.320079383494556,0.0,0.0,0.0,0.0,0.0,-0.8905170240051501,15.835356197770937,15.750842517776425,-4.684282991676239,-7.99812316743323,-2.9634152921888295,3.8427380911526217,2.049421919092962,2.257867186845066,-9.02839778379586,7.044639372064198,0.28327164830967366,2.481601559356709,1.4318614280869575,2.437906030576433,4.524425721662639,-2.9452260876672636,7.69862025777412,-3.228046487484495,4.9152077138347305,-6.595773638776689,-22.6665854321784,0.15142857142857144,0.0,0.0,0.0,0.0,-0.22180802940397104,6.486097710747053,16.656536533052453,1.7516502363129096,-18.29757569426852,6.390095285523674,-16.62139222988889,-2.241088810131262,-12.834688086732761,-8.343951390793732,-1.2138230891568904,-19.657308756546417,-0.6462728979607322,-9.019132034226018,-7.23825223543676,-15.719553435494475,-2.461819942253379,-11.177156803837363,-5.003175384954527,-5.827534698734199,-2.4247328270721242,0.6986039276047521,-12.943649876294021,-3.4588930840064367,-0.32075821626043144,0.0,0.0,-0.34815260591576924,-1.3848590977161321,4.152974883926363,5.699429306601226,16.1648427145122,13.046524335742884,-11.285771468591516,18.612705957129837,-19.85405185590667,14.611837603108981,-10.841639516753496,-11.134449190282313,4.562354406992683,-13.836192131345447,-5.478902956431269,-0.593599171479837,-3.4872898763270905,4.62674637099639,4.126009791883628,12.071408655792732,-10.544672380423584,15.61657106391062,6.425667467317767,5.873138033938836,28.98201740919392,-0.5869469707335273,0.0,0.0,5.350984614990102,-7.041617201891156,23.582227326729868,-18.78044996351815,-19.1994617112725,15.896643854617533,-14.539244212971706,5.13343757602744,1.6278307430388128,-3.970781444048542,5.394158641576123,-6.1147759463656595,-3.3487218556240177,-1.064031233731579,0.3399666363220883,1.8207179033329157,1.2441764131582769,-5.081862120426909,-8.949069725182689,-5.009448442876446,-0.74868028802688,-7.5648179447034165,-1.5422074995177542,-6.690716612402258,-3.2236659616829018,-8.717505700439911,-0.4088888888888889,-0.3488888888888889,0.19338963578865023,-13.900420491335266,5.0682621766159315,-8.959186481478667,13.240253835641191,-7.4064595856162345,-2.7467459451413014,-13.596704271488468,-9.386080364045412,-1.006335868730768,-8.672246483262358,-4.760252900542062,-18.48092916902802,-6.521383284668564,-1.692202182548952,-13.200097741840938,0.7922860039136319,0.30717495967082753,4.178249686457732,10.516608220844207,-17.26160223538287,14.426580075103114,-23.872644703646973,-11.217341013159343,-10.090920719392068,-0.09794950225213384,-0.47555555555555556,-0.08666666666666667,-7.612296571073018,-24.950201364534976,8.054978026538453,4.45353270811911,-10.449159581454001,0.5548786853593364,14.895940517386649,9.845825615214183,-6.52404668953868,-3.0731890343701087,11.877960805282598,-3.4039514896149274,5.463999289902086,-2.473444222851662,-8.062701136408688,7.509546259814844,0.17212042765139965,-1.5510759879798581,5.638303468281439,-5.218038193577549,3.000054925820801,-6.566813148945093,8.123521928952488,-3.8662412211098913,-16.236815964526944,0.0,-0.051111111111111114,0.14132570328480198,-4.4529256822120145,-7.254857584257813,-0.5286091569127581,-0.1598537601949636,-6.384883680078453,7.508987310570685,-22.658409930600737,9.165770413161193,11.876265065557694,2.3298632409176023,7.774903626457084,-18.449383643211718,-15.0432711780333,9.41921257037116,-7.853104021119009,7.088491926904949,-9.686299578066546,-2.3410089979419277,-11.822195371638486,-11.955069663990313,-8.17997022168019,-13.21326250128687,-3.9571163339395374,-28.67993248603434,-20.840871205083502,0.0,0.0,1.3915146169580506,7.989767148966902,-4.18661017408722,-33.879762520421075,-1.7041185017970926,-16.711473491182446,-0.35718888058633297,12.851473557212477,-13.462808621712202,-8.005082647917773,-8.128637168213821,12.56841992135242,4.872610497808106,4.45704694532054,11.262976725952573,3.222373639368481,-7.05040811834855,4.266855477995929,14.148522995296878,6.191630510914566,18.561221518035406,4.7865960395374785,-2.991083457857061,9.303423082330578,-10.884225799962628,1.6009138930507198,0.0,0.0,2.750415610081147,1.2194268190701987,-13.55543487958557,-0.47731710551324485,21.96078633196848,8.76735486499644,0.3787402493916812,2.325126442397492,12.989554232438193,21.977803126378465,7.671847615332611,9.777317469956131,-6.266537427231452,-5.52297942248388,-6.460212405485673,9.999696691668625,3.0762092239571612,2.556929509594742,-18.22297566170634,-10.450988271340758,6.16433158361779,-0.5024460328629907,7.3142625520184446,-11.76503381105985,5.35045181342692,12.66146778711485,0.0,0.0,1.3154161613431574,-1.089584389918853,-16.408014143896157,11.034600383764309,-8.400287941993252,1.7828618466701251,15.920887347726111,-0.3353293519878251,2.3551725002677455,-14.308649202947022,4.750505821866065,3.7655689624254736,4.098612137344026,1.412102159657906,2.576357879883996,0.8788576187349474,0.4528382056833707,4.665047953035097,8.902987034416842,16.800392802047227,-7.970270108145947,10.499801409589976,-18.866766188440653,-0.16616485021988703,-8.472248177611542,3.5395725496503796,0.0,0.0,0.06522724766990863,1.8603022618771985,-12.885956347353689,6.710474363377057,15.67567154045262,-0.9703027703174618,6.41496075941943,-1.3042759618592754,6.295218608511612,-0.23641169071352158,20.48900518058814,-13.103642877606745,2.8449047040202085,-6.112307185763447,4.149906071949932,-0.2196398320644626,14.173350204309505,-13.066924841989339,4.870590771885276,-7.231940114398873,-9.858734232007613,17.616311606739902,3.510318376196187,-15.447191586506372,-4.0970005867341195,20.90515589653263,0.0,0.0,0.0,1.9997404320540877,-7.251338966998837,1.7971152556422203,-10.688902678776385,-13.246038213459572,3.6200774084317815,4.794049175304753,1.3569113968526907,-1.4723233351071254,-2.440061101376243,12.32337091732916,-8.09576388879507,14.646594437472292,4.663245521121573,1.5646249357973165,1.1933258692990687,1.7687813356265116,1.9781840740911678,12.952667557539698,-2.7368381498898384,14.00512107847873,5.898514270375172,-33.06880943075532,-4.274139009305963,-8.749051902363192,0.0,0.0,0.0,8.6981477579912,-8.91416493025936,-6.857103053522068,1.2616316788398965,-7.292190411586329,13.170900952982441,-1.4686853752237463,-6.661721245348669,3.3456685524842458,7.285096648396591,-6.2715903951411756,1.774371945098276,-2.8594051254166075,9.838691820945344,5.7435387411215055,2.610651875195071,14.05806516102674,-26.02206828729856,8.110039092778402,-1.7534052927841954,-17.581882127028226,13.270319876316563,-10.521860428218856,-25.320950759077164,-16.028797512537878,0.0,0.0,0.0,6.172215223886764,-5.565984854445004,6.6483311533540395,-0.07043220302569113,4.957017099838919,5.977979752575895,-1.9071762043517655,16.517198811661306,-17.38025321440965,-8.17645752200169,14.085797471471011,15.372203373085135,2.583318568545731,-5.30732645320195,0.01472955633799761,-14.537834898220915,1.0073993024409758,13.882726245240027,-6.684327447661145,10.1486418435657,-0.7161219510518648,13.522415961596382,16.562860735687636,-30.70884813959995,-2.7511642623477335,0.0,0.0,0.0,4.081946495950169,14.836040648602284,5.768437201684831,3.712275171929137,2.869581761185644,-21.10658223787199,9.748477870084109,-6.484224009375359,-4.7085690479793225,16.09624634991833,-24.25221203833709,15.849008650590171,-0.1602101501011324,9.395959716757417,5.930017185114995,9.318739576278471,-4.584667995565446,3.857068465646537,-11.401404760664372,13.991191537423774,-26.82776191779301,2.656018588680031,-14.973783137440178,-23.172487424168793,0.0,0.0,0.0,0.0,2.374950688552826,-1.4459070296023617,-12.020204819850433,-22.28338725063118,2.643739550234906,-2.204458899580427,-16.064923081578474,3.9563483320260886,-20.949894319339023,4.450715043525987,1.2452567561006984,-16.56269699840709,14.181739074542664,-13.619848381124338,5.12094958352103,-9.544718843943874,9.129862887546356,-11.926820512918049,-2.7471852341425356,-3.5199796866315376,-17.277983214862996,-10.282947164028023,-34.81426205801867,-12.429616708059145,0.0,0.0,0.0,0.0,0.05566290676295686,-2.787519822756052,-12.967811416915435,27.14358139139816,-16.472632355088912,-19.445853697395126,16.37459363414329,0.4798401745724276,3.904627846266294,1.5863096710538884,-7.336894125540698,-2.10177357340583,-8.45804936836531,15.20897348164469,-9.19587230728393,5.038504806458224,-6.10483970021811,3.6855025386492364,23.78114782059074,1.7421739608279603,12.862279893983484,12.902552584977355,-8.261043680783203,-4.317638353080789,0.0,0.0,0.0,0.0,0.0,-0.9407804254467843,-14.852530539293953,-13.063245553417485,-13.710934296106371,-6.557816308775824,-2.9520331669408715,-3.3964362183228465,-5.940040287890681,-1.270385400343336,-6.373461384265681,4.2420941631193,-2.2978936501614546,-3.502270633059728,1.4534473314838574,5.871409110368617,8.585769300068245,4.785825517359303,-9.764541333996224,11.894414503767528,25.08481874535651,13.54567359022507,-2.9997624198918116,1.9740283135858783,0.0,0.0,0.0,0.0,0.0,-0.9006162861005333,-11.016125565940227,-14.402066624347148,1.2482556731550551,3.884832097758292,-4.921759093083218,-10.925355426716402,-4.3459120874150186,-8.194378928467893,-2.495719706766493,-6.322451221657488,2.9181224469465294,-3.802127644919502,-7.818008715924277,-2.425719990033182,-4.011480011379353,-0.7689638609256797,-7.206139525880831,2.7689367700417953,-23.46253020705298,-29.988446947758952,-11.804884177201641,1.8974591054429841,0.0,0.0,0.0,0.0,0.0,-0.14661195355124965,-10.419733060094519,-4.487901479224005,24.11583089936537,-0.00727138182110872,13.475486708791138,18.89527843529982,-6.577062492467856,24.45488004222762,2.767863243733564,-1.13421500017074,-1.6889191763330298,5.893701614174223,5.320485804072281,-0.999796760338561,-8.07802811680235,3.6765227067560815,13.884996820836996,1.413198277827733,2.91904100500698,-13.122897655556722,-8.490294180899392,4.562774494417463,0.0,0.0,0.0,0.0,0.0,0.0,6.154895397446616,-1.4743064848795797,-3.800553058789428,-22.58671431138725,-10.108848864052552,-0.9325333864041395,-5.11929636268956,-18.96775183565871,-11.036530749708744,-2.6551132051628428,-7.667927441162641,-5.068513570233246,-14.660045187797886,-3.710568509039254,9.581624544792886,-18.23902763154822,-18.36749648899637,-41.51265196685693,2.089433797374636,0.4578315288230477,-2.9994175714248783,0.0,0.0,0.0,0.0,0.0,0.0,0.0,7.0548334239898844,6.635892404099608,-9.018778037462063,-31.368069378442247,-17.931464138182875,-36.50164306221975,-28.11351623354861,-23.557289538022633,-18.937425605521778,-20.2007490729741,-29.467915324385704,-18.632398719441827,-30.5776843314984,-29.413096485546465,-19.90973437853878,-37.69127853415557,-36.507091979553266,-38.74192802076105,-11.637877874178585,-0.1,0.0,0.0,0.0,0.0,0.0,0.0,0.0,0.0,0.0,0.0,-4.08,-6.1000000000000005,-0.71,0.0,-2.2800000000000002,-5.1000000000000005,-8.303825396825397,-6.76,-5.72,-2.06,0.0,0.0,0.0,0.0,-0.5567520078969803,-9.464784134248667,-6.023044449067331,0.0,0.0,0.0,0.0,0.0
0.0,0.0,0.0,0.0,0.0,0.0,0.0,0.0,0.0,0.0,0.0,0.0,0.0,0.0,0.0,0.0,0.0,0.0,0.0,0.0,0.0,0.0,0.0,0.0,0.0,0.0,0.0,0.0,0.0,0.0,0.0,0.0,0.0,0.0,0.0,0.0,0.0,0.0,0.0,0.0,0.0,0.0,0.0,0.0,-5.13,-6.840000000000001,-0.48,0.0,0.0,0.0,0.0,0.0,0.0,0.0,0.0,0.0,0.0,0.0,0.0,0.0,0.0,0.0,0.0,0.0,-1.59,0.0,-0.64,-7.185977780961554,-11.093217624528496,-14.607097908723572,-20.2125604437786,-15.386234097799509,-7.86212009031255,8.728791657775924,5.7388446809983975,-6.8513091760084945,-13.668806383293296,-13.560747392121637,-3.721329700341847,-2.8454418539506534,-0.35997619047619045,0.0,0.0,0.0,0.0,0.0,0.0,0.4149902014111697,5.986954074308112,-0.030403846153846153,-0.88,-8.447125987378893,-18.455003668402266,-7.113621302900523,12.426306026555926,-7.63200960012631,12.123129434601157,-7.952659310137689,-1.1805360264627045,5.297137566505261,-6.782118530038322,5.628339016856033,-6.387829501668058,1.7952822969589057,0.9387797643471963,5.746123701056003,-12.807073488656226,10.535449125782185,1.5047594521336256,-1.5093176005246254,0.0,0.0,0.0,0.0,0.0,0.7262328524695468,-0.9633847355492153,-6.469879650090219,-10.434355274706855,-7.46596891409634,-4.286477997512309,3.414057634622154,-3.748868238592985,-0.6174111643774467,2.832409395893426,-6.528749665041093,2.227970373731978,1.8228054843750399,0.39872660503819424,-2.4526018146645545,4.504596025017954,3.324266508720309,-10.85564386029934,12.036959879606563,0.9167149388426058,-7.372461950170835,12.747087370943335,-4.568093486002632,0.0,0.0,0.0,0.0,0.0,5.020660723949039,-6.837213780588862,11.044361796833831,-16.841519189205176,7.029379632528615,1.423507741755419,-2.4303357702485893,0.04527587545727349,-1.501011878265145,-2.0820941490911804,1.2574813216631942,-0.9676613206615925,-0.881347182262456,0.2683872473296962,-0.32528275595320744,2.9065891641748314,-6.247252830873037,7.0885050194277,-4.545470127721086,2.497910306895728,3.6757267966070493,1.6411632772014728,5.2528894346698864,4.569337741946051,-0.12470563064267792,0.0,0.0,0.0,-13.210909090909091,5.437162474695898,12.098239517019676,8.493179622193473,-4.701793607978413,-4.761341973677493,4.2807663396159255,-0.28735366360105097,0.1821663562339674,0.3225144934179049,-0.17970117248657508,0.4093294529367699,0.8539400923276881,-1.504262568454582,0.935650395184341,-2.1126620310399153,6.723846333730451,-4.180734253386578,3.6186693593844175,0.3288248543384219,-2.4986673527073866,2.988618623658685,8.277576676773599,7.656608940458275,1.8,0.0,0.0,-0.5700000000000001,-33.03,-9.082130342007162,-21.461187467030673,-8.209667083240378,9.177716761862776,2.142998718428373,-4.956722150526452,-0.15839369470813913,-0.48300940895456296,2.9150966910878124,-1.3091000683664502,0.25790848262450616,-0.7984878650516024,-0.03411894696053082,-0.6717189720446645,1.7885985780399407,-2.7295996594625476,0.05434084771754296,1.6033957384457804,1.2553101599959182,1.0817970919317372,6.185716906302114,4.696640401642494,-2.153634321221234,2.3200000000000003,0.0,0.0,-6.16,-32.10000000000001,-14.456549597226237,9.755614633617068,9.208297004450376,-7.332647777234441,-0.4153483590829524,2.0341833295153986,2.577995181976909,-1.6093520556780991,-1.8054720386459677,-0.0046373044734806385,-0.25728400759263564,-1.2106443220848198,-0.7774584744788173,0.48129314641600446,-0.36314608402716836,0.44002963947661194,2.2937259177811087,0.32634138054838563,-3.69458320744026,7.428593700595155,-4.1150921546479635,11.801842167649639,7.913347888054747,-0.2823677190507906,0.0,-0.04,-5.930000000000001,-35.37292669632873,-26.54506363982828,1.366607857634997,-2.770778848744169,3.8551576443520563,-2.2383130172422425,0.2325989341420684,-2.580978642285208,3.2994535932371285,1.103237911442241,-1.465435401641677,0.856141001316842,-1.299438541824872,-1.3744351954476586,-1.3980243113213264,0.08890365623555625,-0.6837970216646192,-3.466942908740812,6.251902367537619,-2.836150371680306,4.202395602142319,4.245248180784461,2.9565056918862784,-0.8343282414508413,-10.916260266615941,0.0,-0.5810000000000001,-6.321,-18.85492432577718,10.994150607568098,-4.8447587120371916,-2.476602939748438,0.7603160389062628,4.697643567576512,1.1712618029436144,3.3210813622510083,2.389460927452661,1.3563890655887783,0.4221703713388422,0.956881610528613,-0.25745499724544163,-1.6677824288397816,1.809596495752835,-6.249387810792416,1.0950261630683125,-2.9585600979603344,1.980583959000455,-1.568445183486683,7.462494085485331,13.949423227526484,-0.7718001603377398,3.572808052621696,-4.843117764379066,0.0,-12.7795,-17.169,-22.09838920345021,10.126254489257997,7.024129219411077,-0.23684460465099072,-1.5352583289417217,-0.47006783993140056,2.024170474050083,0.40659323573190886,0.7037396619561062,0.9359197425771303,2.147668111588273,-1.0848871423769515,2.691322323352991,-3.588023873135661,-2.235950133951173,3.0430840710837397,-2.6590425654607657,-8.397365689691265,-2.0425169942594867,-29.816326156074542,3.371518519578362,51.48669583819633,60.934578497061,22.08223988181713,0.0,0.0,-2.438,-9.3965,-6.829480500029795,-0.5006387405394248,-8.436726247345922,14.778183361513312,4.638731348551752,-2.6650739839223285,0.8342638648433804,0.08837023710584567,2.7180934761277116,-0.6513616549110132,1.329560535573705,-0.018600345463594632,0.7329877059288172,0.8136109132503112,-2.2004881510150684,0.6382015814720912,-3.508824161302839,3.2031952162271398,-12.683811401971283,18.822831282904847,-30.674262130726646,-83.78986237500372,43.79822609986488,44.95340727603227,0.0,0.0,-0.837,-2.611090909090909,-1.9300772643196538,1.3269407291066433,3.046064544291905,-16.326346138122485,3.534163003515176,1.3853805101038599,0.6316637279350876,-0.5776243923116671,1.377133491075933,2.1712858961861747,-0.11446214108591174,-1.4455783099586483,-0.5165688292404069,-0.38588107469529165,-2.173100185970861,1.0713019279997689,-1.1700349541421726,2.329913233156931,-1.2908072075857049,2.9991450978272223,-11.449514859898729,-30.656374217744652,1.1581965872203912,9.40103688069294,0.0,3.1702356090611596,-0.018000000000000002,-0.324,-6.827399462418113,1.7708371643552228,-4.425730765049639,7.117589027731712,-7.665259835050358,0.6583536353553154,-1.6463638369676263,4.684012638523437,-1.4300722773725751,2.5362861552193148,-4.2708953989063225,4.652875335938634,-2.4129554440659144,-1.9598768341540422,-1.099361833436879,-1.3713814255297736,-2.342669102386628,-3.6926058584141273,-0.053590221610687126,-9.315937297879788,3.8548184342643874,24.571741089325002,-21.474644390379144,-2.215008658008658,0.0,1.038041748099672,0.0,-2.091,-2.4916974262551266,15.268835069309942,-0.6968893462697449,-4.805231508877745,7.7951271080683275,-2.672053394073987,1.5119361431706269,1.0783106828957807,-1.5978250379677001,0.07470707698976259,0.5278723599972326,-2.5216553275142317,-0.6253556345126134,1.379280898047437,-0.894903836023824,1.0999784714987777,2.3083367993323867,0.2082630045563954,1.2042462891628043,-1.9923245932509042,13.145637296595922,9.545298016756304,-13.500406660901326,-14.857906926406928,0.0,0.0,0.0,-11.697904761904763,4.60992219769717,-6.110071047528268,9.217518055339227,-3.633310415694833,-5.972222887458476,-2.5887782042088725,1.737116215834438,-4.303017050085469,2.581643838798637,-1.5828312324213147,1.6728910752578656,-2.3815175902182744,-0.21040586563646071,-3.272593099431359,-0.8576021942721198,-0.6982301524672518,-3.5077820288656745,0.4169266502944536,-0.21270834778210795,7.9018986688706,-16.073454709521585,-0.8752351107467988,-13.828481108944434,-11.838262626262628,0.0,0.0,-1.28,-14.745428571428572,-2.1526315414162176,-11.078622897210312,-3.5491618647253764,10.673915866038476,-4.273134398271059,5.627422384432201,-5.664049442393559,0.7899687291306898,-2.2733584664248423,-3.9189666351223496,-2.980437510398251,-0.9942759972081101,0.19875023400180025,0.04143593545545799,1.7464651098468884,0.8598458124926354,2.158103011794875,2.1499556451498645,2.8953806539983433,-16.759562686478844,17.68672844514016,-10.518212714122047,-12.14856515688659,-6.384666666666667,0.0,0.0,-0.84,-3.749142857142858,-4.404405051152818,16.75083681645613,0.5674490406403703,-2.4430498865197583,1.4773364720035598,-4.648022700382931,2.382659846145094,-6.0151047300294245,0.8456544720031469,2.0212823319247715,-0.8529269256397136,1.8397723597240208,-0.628877641511896,0.9095349918207819,-1.5684801954199628,0.6645588668759665,-1.8706036651718112,-1.6567576905450287,-2.6341681940000634,17.555960198058113,2.3422106043233835,14.625222033757723,-28.001763037336097,-2.0333333333333337,0.0,0.0,0.0,8.446535765864818,0.5825119967369029,-6.10680084063266,-1.3547506879440376,0.53528455250884,0.09346376778466697,2.285061859533828,-0.00632868573894832,-0.49113385456997866,2.375792229801133,-1.6362913279105455,0.5243765864993304,-1.4346892054410145,-0.8707596462616516,0.13753203721880955,-0.49808831096451894,-2.2491567702425215,2.9828453727209605,3.8774449145557357,4.702271617280482,-8.09450156843144,-19.956578658302224,3.9045860267352888,-4.907357073098023,0.0,0.0,0.0,0.0,2.101392820633383,-2.102936611860929,3.7755761727560997,-2.261474836241588,2.2346478005287587,-1.720755050473557,0.07829802860124478,1.6880763587220624,-3.002835471073903,2.7808188871249975,-2.604280374028703,1.525151479675309,2.002886251600342,-3.5736869959860464,4.062581864329531,-0.07368931324264019,0.43803689714088695,-4.303611290545531,-3.2947203894576904,-6.875012565699939,-0.6616654948941846,26.769623627071102,-6.169402575030372,9.316733971287167,0.0,0.0,0.0,0.0,-13.540161830762385,2.655827217965816,-1.166567047844635,7.820261828272225,-0.8599068286783562,-1.3647530942439607,1.415229449237306,-1.09601568246491,1.8854386925038942,1.9713450111667645,0.31110724945171137,-1.611906818247152,-0.29786821597033863,0.8188743326676621,-4.062504801518522,5.335878483631906,1.5159011244175564,4.523868422063221,2.7494919736619434,12.41296349304095,-3.118893100409355,4.869782739245492,-14.047067725725508,12.641397310611314,1.5337570848115152,0.0,0.0,0.0,-3.2844133476119555,-7.0738758095358705,2.841434278903488,-10.671831507218032,-3.4935420995867714,2.8615841636911044,-3.795090455583689,2.3887022779497924,-0.3226897615825368,-1.1140636083667588,1.4010940118995807,0.7470073284467587,-0.28863119477916904,0.572754805533838,3.359459503761817,-9.355737761155828,4.620570307927484,-3.6491411213740665,1.1089860271469554,-7.217624163534592,1.619945049353461,2.535950458239476,-3.2928479728090796,-4.316153091528003,8.18003778566141,0.0,0.0,0.0,-1.6375427339386739,-4.918838886907153,-1.4362717012668993,17.474152760388588,-3.2417304243844542,-3.7301571000116365,5.854618632595517,-4.562188555719473,2.9882943145130425,0.9464447923566993,-0.6066768184377372,-1.087023851124963,2.3086018732524796,-2.802481312078551,4.927782927324743,1.7906018973052982,-7.970339638831082,4.08826160570533,2.0291020619050313,7.455977746318989,-4.932407102113944,7.845622832660408,-2.5221442973392283,0.5806888389402567,4.942106162170439,0.0,0.0,0.0,-0.23159526196802213,-5.916121872292006,-13.187450975398233,4.943033293512662,-6.792789258474974,6.9830218365337,-8.049977799863829,9.374383593080378,-3.4602048656912827,2.1829335192166157,-2.5446388043463744,1.3646337240252602,-0.527958606646527,5.428064449883705,-9.149824612761435,11.514468097900137,-7.005178297061222,5.011169544763313,-3.0721236072335314,-11.086633162761663,-4.589976347805982,-6.957346045083397,-12.593547640280198,-7.058427238534207,0.0,0.0,0.0,0.0,0.0,2.594042548378749,1.6224084474943514,-2.711373976979799,-8.437023596657506,4.710754642223161,0.1615552618713375,1.33658484106424,-7.4793435111267765,4.25593134220113,-0.7050084596563796,8.287766992618886,-13.541941845646473,8.572115969583939,-2.663220289334701,-2.008334771537115,3.2637002665122736,-3.7812225201377823,-3.057462145064025,8.67131475216336,15.343123011759458,19.13803345597125,10.600556443556442,0.0,0.0,0.0,0.0,0.0,0.0,0.0,0.0,0.0,-17.359254252401342,-17.495460668976115,-9.508054995975872,-2.4845299158154104,7.710530765770385,0.644528247754523,-6.784530593285683,9.38230913441861,-10.859969566140235,7.501038131922611,-0.13603190440225083,3.4826239378135426,-7.867416687005561,3.071637214480588,6.719277649778156,-14.933115564233118,-0.9823934300820574,0.0,0.0,0.0,0.0,0.0,0.0,0.0,0.0,0.0,0.0,0.0,0.0,0.0,-2.4,-4.48,-0.44986053208672,-4.4258733589350605,-5.395379347139501,-3.976432488659266,-6.1177304358201186,-20.775351736759674,-30.176436361447184,-15.333021436648021,-5.584121212121213,-0.02,0.0,0.0,0.0,0.0,0.0,0.0,0.0,0.0
0.0,0.0,0.0,0.0,0.0,0.0,0.0,0.0,0.0,0.0,0.0,0.0,0.0,0.0,0.0,0.0,0.0,0.0,0.0,0.0,0.0,0.0,0.0,0.0,0.0,0.0,0.0,0.0,0.0,0.0,0.0,0.0,0.0,0.0,0.0,0.0,1.8805417844113619,0.420356398868422,0.0,0.9400000000000001,12.085061742729103,1.3422714708744272,0.2575627071265944,0.0,-9.315705128205126,-6.24700226244344,0.0,2.2600000000000002,1.46,0.0,0.0,0.0,0.0,0.0,0.0,0.0,0.0,0.0,0.0,0.0,0.0,0.0,0.0,2.38,5.101260415737409,14.445745530920604,32.14439806534586,19.620902630622982,5.483502434723278,9.588725294847833,21.029476422562905,15.753522322088008,7.599243662836594,0.41592117116832544,12.520749816801107,17.334855837636464,26.393325957736224,29.40657142857143,17.472380952380952,0.45666666666666694,-2.2928571428571427,0.0,0.0,0.0,0.0,0.0,-4.357397114817282,-1.4124755035279237,0.9500000000000001,2.991376486996988,12.24185547105644,11.361340988205615,-0.5153041086061493,-6.930363193868903,9.04879984222404,-7.313493629197071,-1.8986239958171922,-0.6808691544887038,-3.731452589361971,4.408273036904654,-12.683781128326261,-3.9303270337552676,23.773196686399285,-9.47242716595985,22.258875654978223,-21.335425857054,-6.322346153678633,17.165476605767402,20.780047788737235,8.565008539864248,8.735848989751116,0.0,0.0,0.0,-14.939647250802109,-7.441164262347733,-1.7616631092036628,-3.3498782856384524,-7.671397824508558,0.7914840159201154,12.557519477564503,-21.947565739536955,-13.394127115384178,-3.390018768622722,1.2048019945943305,-11.213285427462466,-2.0534695220342636,-5.296985107150495,-3.014382123227799,7.461644912133556,-26.638637992952365,-18.194579321024893,14.99456788813563,-16.09109706056897,10.765597719691748,10.227516246218354,-21.54257551071469,-25.415045198597014,-11.451788731189335,4.4461033234592024,0.0,0.0,-2.074951007055848,-9.868737751763973,-14.801124825656206,-6.051835375741218,-17.594002500024395,-11.154554413155617,5.529470637902467,-17.337378402731524,10.028029590664433,-12.477973374136901,-2.060682093114253,-12.251579476673658,3.2567066192487086,-1.9521061550194563,-12.743233669751339,1.0974528828301042,8.664553593556642,12.751208458725024,0.48456828200471924,1.7497906293044174,0.6825800999789257,-5.052385637951934,5.758619853296454,-22.316457108987752,4.266490581874902,7.7660882713798856,0.0,0.0,0.0,-8.842094478874234,-19.40454353988552,-11.403789856892848,-15.512155998578331,7.099910456528078,9.842235346977247,2.595090297092771,9.805540409502386,-14.803598788194924,7.743362815528876,0.6626941738640254,-11.941009342657214,-6.841244454990602,1.9268561545776497,-12.689303060912053,0.712422201129595,-24.210203013949247,9.791015691747186,-8.363484270418478,-21.91120624310227,21.191542075724758,-8.580549616744165,-1.7561072424329578,0.8133577391488578,1.508691072482191,0.0,0.0,0.0,-11.292019950812836,-4.080249500997311,12.232323297072673,-10.997023727158119,-0.15060048484653385,-17.42248662535246,3.634896074432819,-11.651774361661024,-5.388798056771012,-6.539973608421936,-5.664496361706889,3.3690943360415435,-5.049608004795502,1.9723870392317933,-8.073996045853738,-3.7409603562546185,1.7299427360310686,-16.26303448637878,9.862138301255412,-13.694925292844996,0.9051173336404137,14.49650339421131,-9.664001239716889,-0.6584535926878836,-2.3023506168486123,0.0,0.0,0.0,-9.300635965671958,-5.113252279616069,-11.403322003198902,-0.5106212479177099,7.816106410646889,12.947906588000077,-29.53615003858216,1.7772786138640566,1.5246207183230465,-6.592079178822925,-13.42108412093248,18.279241050905615,-4.981111875639289,-12.48399679045851,16.204513036163014,-23.165767252769534,-1.379276829187955,-14.85192139573138,5.258496070170453,-1.980397994109134,-18.111463192792787,-37.7558659311305,-22.47036453390886,1.4216666666666669,0.0,0.0,0.0,-9.882,-13.561451665872136,-4.160065869693838,-2.611536305233469,-5.9490794144397885,-0.06112154003683392,2.590654377092666,3.3545126517292307,6.980798705836771,-5.020567881644959,-6.764338100546465,-7.891045032487176,-26.652906092156883,-14.455265845298214,-25.846154026155382,-17.06830574810533,-3.1111708632779433,-5.916979561753457,11.698800988045734,-7.411824099433462,-16.294005707202224,20.205571732966927,-26.423853162411707,-21.41439397617502,-13.181007484926448,0.0,0.0,-0.03863051329475478,-10.960298383814328,-13.820416716353131,5.578627625252074,6.356659401155085,-8.644699875601582,-6.916856395848912,-0.5805664318161086,15.866019695356028,-8.288344707703788,4.076719859970376,12.5185110704151,10.58359888154421,-3.5601483141682575,13.504021018307036,-1.999634748399733,-1.5685187629380524,-8.80591807861633,-32.43677515271116,-3.300943532046341,-16.61961361934413,-20.976078741816064,-2.7599554445186114,15.221784397726372,0.19074334521800043,-19.23124705142731,-9.423654154668862,0.0,-1.6482352339095374,-4.274506621190987,-11.200624953729788,15.631638163709313,32.5668008745843,-20.12670596054181,19.52620519353918,-17.764307020930094,-2.826241388619499,-1.3209239390396785,-5.446275998792556,-11.99109148555359,0.8257414147418556,-7.204921477762274,-12.215817544932762,3.237790407746751,-4.3123035380313315,5.701855798570105,20.335598672166835,-7.314536024154468,18.497748189170476,-17.66987432690323,2.3455269155101868,3.2214921799191925,1.220016686346201,-18.06903765366462,-8.909799520882105,0.0,-2.8329043082820173,-3.2578399545243197,-7.873108808916908,22.927902919928393,-2.4769387677149046,10.23180080296498,-12.343109467950732,1.4587893043115774,7.487018260919046,-0.8630998158392912,3.9099777256328303,-0.888380313340289,10.408133793528801,4.66945152857033,1.2400181546090554,-15.676092044390817,7.325562846759982,-8.634851627798573,-22.46328377633597,-24.05312219041269,26.488002687153557,2.2959235333306443,12.145498355274249,-9.7383833786694,-25.096950726997736,-18.28140668886762,-8.114256907925402,0.0,-0.3219209441229565,-0.6180882127160765,-3.8942297829611623,1.988076887468375,-8.42946333533112,0.025789001546522992,-1.2326947046905774,8.353566875437709,-16.114663183057328,5.625970540798708,-8.218797091260912,11.260369885121403,-8.539090438939459,3.4966567019071886,7.103410459443664,-1.095587048593595,-5.34088979369683,7.852183562123708,2.7229052244641965,6.696439254921951,-5.4202666371869785,1.8552729900426728,15.901027543626647,2.747954117291384,-9.574023842817132,-8.609186084968023,-1.02,0.0,0.0,0.0,-7.212124542124542,-33.43322228475254,5.295314949968656,10.27754512507319,4.182644705397861,-1.6242516866841212,30.07108537491379,-0.7176403634834384,11.223730065138973,8.542215929016034,-4.564416594838294,-23.196024140928447,3.1955085533551433,5.041132222188977,-11.523979150615354,-6.382395346041879,-0.8096779366269037,-3.5473752663634217,4.562053599797197,15.690095869658053,4.484407982890002,13.276155779496495,20.888830542183403,-16.666797413405927,0.0,0.0,0.0,0.0,-10.170569014319014,-31.05897548197875,-9.057333054096567,5.416444840768241,-2.7913953348878087,-3.5803064296046023,-10.87880484932376,4.263901048456787,0.7446825987748303,-4.228004329483517,7.837560577606288,23.058988084272443,-7.813548474918367,1.70179868018525,-3.8767535957764663,-5.273514102481036,-3.9221641156075,6.804554638334414,-6.2918876519674845,-4.884812103093496,-7.908133593151102,-28.99526316776501,18.73195896753053,-14.144970411601834,0.0,0.0,0.0,0.0,-1.0927831335331335,-7.664676419872393,1.2449866344264517,11.786552351989767,8.138422074320292,10.02860936046926,3.1309645476001804,0.6150422612373985,8.164705368092763,-14.098590315501779,-7.608773849946614,-7.63659024373744,-0.8667013172602915,4.1056044768766,-9.766932227926194,16.88334662227824,8.594299937029948,-6.9320254187893315,14.436663525032357,12.942461377466147,7.758959168439961,-11.960825413065773,-16.26126645952111,-6.939356195730555,0.0,0.0,0.0,0.0,-3.9085641025641027,-19.610551217390586,6.452990392138159,-3.46500954236211,-13.577534941757655,10.005325750886552,-2.914369255984258,12.528864195315464,11.416157196300173,18.31131459015137,-7.422591884427857,14.191441186037023,-2.2306157265704103,-14.435694882312504,12.901072418499467,-13.860416207661087,4.578200247770411,10.98206659072152,-22.820309411773128,-1.870534399696245,6.395497860944355,4.731281993405816,-11.30895092770361,-4.520565717456805,0.0,0.0,0.0,0.0,-4.072415750915751,-29.02246053476634,-12.72896812715723,-12.97805188299136,18.494529285137034,-14.140797990979816,20.472779306000497,-3.5635101927317407,-9.837660439459214,11.438538473371116,1.4543268579841668,-3.68505253193514,8.681604205667393,13.336451755708325,-8.704018886618153,11.356953017584987,-11.310234786226761,-2.3589659040262596,5.493880349971571,-12.729154822912832,0.38360815409675986,-8.490110116787674,19.951693338466498,-0.8228449836280998,0.0,0.0,0.0,0.0,-1.614533383283383,-9.858389213103898,19.903771690159157,-0.9918067773836245,-5.875016627769127,7.0383666920339545,-15.898220052970231,14.8332148559896,16.981362906239497,2.1073595938353855,1.551357058097429,3.525622315522062,-7.038033060442031,-2.3756661949787814,6.118936526512334,3.0697784403802406,25.739410748421456,-9.457719975012255,19.742138771524687,8.947981573631377,-8.414187483224516,-10.270292882018193,-7.286808490990994,-8.838000000000001,0.0,0.0,0.0,0.0,-0.9563636363636364,6.495721120766557,-0.6036160306740501,-16.69932844092242,17.770865092902817,-5.40954633070554,36.8417436040566,-3.6480613181994332,-4.186460601443982,12.69797368155244,-11.087752003426697,21.91430475702429,4.958761049992906,11.45998300683417,-6.534548899320136,-15.153873334013964,4.4196627853767465,-7.576408210459071,1.757731951922731,8.030416471807975,-6.349344824147611,-11.884894327011994,-13.421731939363264,-1.556,0.0,0.0,0.0,0.0,-0.05090909090909091,-4.327068918257462,-9.270319731414665,-6.480004486528663,12.961686763073454,-9.124901974506251,-9.794858492058287,-3.257093294874379,7.48301257062767,20.523414723484375,-4.36939853466038,7.84362559950509,-5.758717759011991,-1.2672621164798974,8.306333582373144,3.287932553308347,13.284696949562335,-13.8606706283016,-13.25349737924177,9.125280094543305,-22.165940320256723,-4.6262092069859895,2.604949927834391,-0.009000000000000001,0.0,0.0,0.0,0.0,0.0,-1.6,-18.441448156182805,-41.47002239315002,1.310535080906191,2.149189963309782,7.048987079920415,15.525410220527885,-3.1314189171067635,-4.185660527619973,-4.397070248226812,6.484736135641395,3.4730290704875046,7.442419759029946,1.7575816706541785,-15.413227483344253,17.366930226374752,7.988917589395875,34.818701113058665,-17.314616126656965,-10.290074022468975,-3.5917387843940753,-0.41647832810254265,0.0,0.0,0.0,0.0,0.0,0.0,0.0,-0.9266666666666667,-13.895651372657179,-20.12171959338172,-1.5415740338612416,0.7611753551460669,-24.80602553642755,-0.4959468949698107,0.4217320116129449,-0.7245720040919296,11.577502598529776,-9.67929710152051,0.21040578218820455,-0.7971786402238984,-2.847878782225187,-7.794113022521138,-8.290467615758047,-3.2464788827892104,-13.244906569792647,-5.158650278737351,-0.659075436640654,0.0,0.0,0.0,0.0,0.0,0.0,0.0,0.0,-0.49061432749159545,-0.8635533637696918,-1.0752964984182074,-4.812174564103022,-32.28354199805042,-42.96685291197945,-25.865335376792274,-14.27041684472076,-15.69147354113909,-18.212687579765003,-5.915863507855123,6.586759903859593,5.95000182601272,-15.306247291800064,-14.979362041043203,-4.02635331651778,-5.594312029674709,-12.079482304387767,-2.00528955250706,0.0,0.0,0.0,0.0,0.0,0.0,0.0,0.0,0.0,0.0,0.0,0.0,-0.25,-9.508333333333333,-13.891666666666667,-8.854999999999997,-13.279999999999998,-9.72,-11.701666666666668,-10.576210256410258,-12.542671794871795,-12.046348717948721,-13.262833333333335,-15.299634532134531,-6.3499211246270075,-4.01057910501412,-9.548997869081235,-0.3342149254178432,0.0,0.0,0.0,0.0,0.0,0.0,0.0,0.0,0.0,0.0,0.0,0.0,0.0,0.0,0.0,0.0,0.0,0.0,-1.8783333333333334,-2.6550000000000002,-4.5,-3.66,-2.44,0.0,0.0,0.0,0.0,0.0,0.0,0.0,0.0,0.0,0.0,0.0,0.0,0.0,0.0,0.0,0.0,0.0,0.0,0.0,0.0,0.0,0.0,0.0,0.0,0.0,0.0,0.0,0.0,0.0,0.0,0.0,0.0,0.0,0.0,0.0,0.0,0.0
0.0,0.0,0.0,0.0,0.0,0.0,0.0,0.0,0.0,0.0,0.0,0.0,0.0,0.0,0.0,0.0,0.0,0.0,0.0,0.0,0.0,0.0,0.0,0.0,0.0,0.0,0.0,0.0,0.0,0.0,0.0,0.0,0.0,0.0,0.0,0.0,0.0,0.0,0.0,-4.3,-2.74,0.0,0.0,0.0,-4.32,-2.1,0.0,0.0,0.0,0.0,0.0,0.0,0.0,0.0,0.0,0.0,0.0,0.0,0.0,0.0,0.0,0.0,0.0,-4.770691101938847,-3.286381657961549,-5.0600000000000005,-5.88,-6.9,-7.753333333333333,-10.673333333333334,-5.646666666666667,-2.1100000000000003,-5.62,-1.0,0.0,0.0,0.0,0.0,0.0,0.0,0.0,0.0,0.0,0.0,0.0,0.0,0.0,0.0,0.0,0.0,0.0,-9.279654994946723,-8.453666666666665,-12.445888888888888,-20.458111111111116,-27.087777777777774,-12.973333333333333,-10.341666666666669,-7.500000000000001,-10.165000000000001,-5.09,-0.38,-0.64,-4.92,-1.1,0.0,0.0,0.0,0.0,0.0,0.0,0.0,0.0,0.0,0.0,0.0,0.0,-4.99113933327117,-8.4350526665157,-20.212067594077496,-24.142669431387006,-30.840444444444444,-42.516999919453,-19.795980199286127,-7.6326510326812596,-11.634260742487946,1.396000061033186,-34.7061576951459,-51.21609873558915,-41.98993348482583,-39.35511332375442,-39.45791861701708,-13.773109856921716,15.652672752978518,-4.4848649436394,-4.392,0.0,0.0,0.0,0.0,0.0,0.0,0.0,-1.1,-5.2894725979571655,11.329878643830893,-5.068354352690536,-9.285735356046782,-0.17382263304024395,9.987269284769296,-4.862959068289353,0.5714782650192431,3.5278439923201796,3.393245916174616,-9.73317753214954,15.086080873186235,-6.731809527892034,-4.975943607357051,1.8738523931881834,-8.900178394484358,-25.71456108543534,-13.473560495418923,-21.850608845859693,-18.852562452851984,-3.514754412254412,0.0,0.0,0.0,0.0,0.0,0.0,12.933609893068253,-3.4193807183124463,6.308741811571887,3.6916142045358207,-3.224375187731932,1.4160985335280323,2.8469790305024234,6.527657622690633,2.707533602546312,2.630613431728057,1.4435313767860318,2.7462157338067144,-3.0805403252409422,6.759253369155247,-4.626200477493974,5.746578149712323,-0.3303549747428069,0.8884512004036463,-3.6748897274335213,-3.7711765339487604,-18.660164674529558,-8.682611851433434,-10.718858858498963,-2.4393571428571432,0.0,0.0,-0.6743454773150502,-2.694133563597809,11.206610072575666,7.7824200349206185,-14.461890262039036,9.495060292095124,15.804127118739613,2.3567298708679716,4.467998581084048,0.9293357589485969,-1.3610742966965754,1.0817335797396772,10.85121505036761,-13.662912399714077,-0.18798151273495273,5.426500980185286,0.3436316214011299,3.7673275212187862,-7.546357055459917,0.21529877475709838,14.818869221139067,-2.5358701940192794,-1.0208975623222791,-0.04215496003494553,-8.257018007985613,0.0,0.0,0.0,10.510080973105868,5.3640559474725205,20.35740480942163,-5.9846060776792305,9.153005145525686,-10.078857325703385,7.2616590903599585,-4.211132234014224,-1.1552709754147779,4.6357569196643755,2.9823467189444366,1.8846922937856294,1.8553047411330572,-2.0252705627594745,5.051675098166424,-1.2021089536894152,-0.7329183020518517,2.5279135317105417,0.1441744218962011,8.714258673825213,-11.594201745573711,10.78283277858037,3.1546999629546555,-7.358067135033621,-9.907912246307838,-6.03,-5.16,0.0,14.7,14.07,8.534704427218028,0.7696660547624504,18.266675376683175,-6.378102941242096,0.08693771947316321,8.267828716460896,1.280998380495831,-5.679838977590112,-0.15193240359665972,19.09768126251467,-15.468602767445866,9.798790665933645,3.1346106898205606,3.470736704597928,5.434376206426462,2.6555908339007157,2.39202732740721,-6.401797164176337,10.06609927498175,-15.590405385042558,22.55718564916113,-18.765696469712907,1.4387473996960267,8.644337109298544,16.554001473643435,0.0,10.6,23.326943703442506,-3.6705463558810814,1.0602150899192557,11.932239648876413,1.0655278710887217,9.29817410727396,1.1751878195015588,7.385739340629189,1.72631439412414,-12.422559481029111,-1.55452020580298,18.54056790118832,0.9041916173003365,2.4957746233491918,-0.21743654112511163,-2.6059241020240735,-5.9180283770213835,4.691817852631482,5.809291891489695,4.382327058333485,7.0542678340446265,-9.903483375519983,2.2501750002252794,10.69798365285123,7.229624823562416,5.244951377697986,0.0,6.930000000000001,30.663333332877507,1.0709291786266666,-2.5791566502060976,1.4631298850996046,-14.37947304327478,3.1511101628292706,-22.136057420446086,2.0492971213408144,9.939515685191667,5.575925824901484,-2.0678235793961153,-2.5990823449203946,9.472146714073135,8.409163735286274,6.371368961408687,2.704927757266067,8.406711958747083,-9.201139286321421,10.043343920268274,-11.196415591355661,10.863330205307868,12.120437849012124,-17.749194598274514,-24.54477738738283,-13.117994269047095,1.8674559063502636,0.0,4.880000000000001,27.80282973915515,18.661726311077704,-6.054021466610607,3.525857246113422,-0.25905725633896715,3.2068515890692195,34.00740601262418,-9.385548463851785,-10.356819276950565,1.0088853497075139,-18.928172297469324,3.0817553134698916,-4.58474331797278,4.017167641116489,-1.4757299904427186,8.522913035451676,1.3240336271396709,3.5615170735388593,-8.88024505005804,-12.001848131356375,10.511583725320257,-29.516413748083227,-7.703155958837851,-13.643473030781793,10.622938788472483,6.951085873637092,0.0,0.5,15.255387690714544,35.83981671828153,-1.244258651738804,9.787178698701064,13.290489997703006,-20.681038698838957,-22.36103787679307,-5.501248016133882,6.7018858492655005,-2.421634828234113,4.018276191481477,-17.926628008913987,-11.554943904645757,5.979930782977066,8.254872585848677,-6.594943612497902,0.9593128498525444,-10.363624454375891,15.375191120017513,7.166751010920633,6.928922290619966,-5.635397376274655,30.361260518282457,-2.5890713112553363,8.908050571806438,0.0,0.0,0.0,7.9056133222481675,44.55612153332897,-4.145233637538557,6.806198040854805,-23.178466990654524,22.840291702832776,9.833133021698735,-3.3464491461341623,1.0060107267247795,-9.820937079014852,-1.6408233329926536,-3.154833969419748,-4.262725371124489,-10.071462814402445,-5.136536813753382,1.829786723548026,5.996181362956891,1.7835507783303568,6.980160304820067,-14.113299942075942,-1.6939713955777531,6.8478636466271485,-25.1180861286747,2.2619445773683178,-4.1075,0.0,0.0,0.0,0.9252531805271756,21.289635593700975,-14.891342874766101,-0.05333154884311255,2.2889399285651013,-13.225151928900113,-6.543219933873599,-7.125314846788596,5.336112896995864,-7.080943579646451,5.859650065278255,-10.486139509215622,-3.1445777110670416,6.417722203507156,-0.4185436933265217,-1.7582173251498203,0.5857850524165986,7.722910355683187,5.944758990831024,1.550679883883883,11.607680245787149,-0.6309423388334265,-12.429978123823615,-11.50894482999981,-10.776666666666667,0.0,0.0,0.0,-1.1458639486786546,-11.45241266966489,3.4940808193290773,-5.4562939596224975,6.132182775027262,12.753616429158235,-6.244373576870418,5.151126260730473,-3.648721950253795,-9.376193933857259,-4.840842062913381,4.002426928044883,-0.33678938159159666,-1.8404415038546116,-5.202763426297155,13.589372762522165,-5.678041462845344,-8.601919043337002,-0.6045063470068545,-2.5349864816177905,3.850919373903651,5.703308799357831,-12.975692406707429,-20.172436693523437,-2.870833333333334,-0.6124686054430593,0.0,0.0,-1.440838826556328,-2.413498877640372,9.910524080324173,1.2086367924032126,-8.580303890194017,3.6014553982354047,0.12654402924272512,-5.419365902080343,2.6154209591006587,-8.129255568793889,10.71526966357262,-5.22754038333917,-6.097682709610621,11.026291574231356,-5.607752069349763,-6.948835270900625,7.886357407342487,-3.1172175894945124,25.58371922469363,-18.729960881154458,-11.879274492351314,23.203228995753072,-5.307901413730974,15.784157978727077,11.309756594488164,-5.308061247173176,1.8703052636664834,0.0,-1.440838826556328,-1.5409271430201104,4.623168480899615,2.865143651298988,-13.14239530035304,-17.53590924902615,-0.4204968399616952,-4.4023628022327275,-0.031283432103471086,-0.6005157390760487,-5.765872056981116,4.049567250995724,-5.654847200735764,-4.3948318266515916,3.7817726105609464,-4.488402370408191,5.512167479595734,-11.976608144650754,-10.488102697597721,7.890511121180644,5.671891920394839,-6.905888344723681,-12.947989620269269,-1.9629404494248912,8.238509379863993,0.0,0.0,0.97,-0.8189262344399066,-0.34678525001198823,19.19276759260573,-8.214339189392302,9.048800466098818,14.069330302372096,-1.2836138100564056,0.3996745948624499,-5.010515317507515,-0.1911927091922965,12.541213981710031,-5.718234661301293,10.855709232906484,-8.909098970269364,2.1822663616726405,9.214974949554426,-13.016556832672173,20.28226976145061,0.8496062419453249,-0.02039276805858071,-3.506237590294359,-23.509477881243264,2.6684714062971895,-11.384428315826797,0.0,0.0,0.0,0.0,0.0017582417582417582,-20.01740897256845,-28.886574742314853,-6.116631263832833,-13.778464996776608,-30.479371781022657,-2.389774670667023,-5.676869074873743,3.6455802394535954,-9.968383759843045,-1.1544093994033324,-7.305332773311311,-9.130234087471823,7.070631240229852,-19.52123594949287,-16.331826969346086,-9.630364113704733,-11.897828497165765,-19.223397311338715,9.193021524848037,-14.89912341634407,-4.592842915264654,7.83101902698399,4.006900965723874,0.0,0.0,0.0,0.0,0.0,-13.606000000000002,-9.897412773896798,-0.07452400786373764,-4.150324427132159,-13.67215636632654,9.413358825929786,-20.272950767154324,7.350748108983588,10.066925671110116,11.660923754033867,4.173957722968341,5.086126320572711,-10.124584229279058,8.471132628838916,4.109061826092013,12.69894048641346,-18.780374640692365,1.6190143771193115,5.5900925110132045,-28.123594360233223,-19.259419878448984,-11.041120625942385,5.3902391554472455,0.0,0.0,0.0,0.0,0.0,-1.6166279274637345,-18.76391326038586,2.197250931907892,10.678945240404927,-4.349154625197753,10.229220602262789,11.316297551770738,-8.010466856389076,-15.553767725960599,-10.790039841693133,-5.967395954595649,0.7290212390223204,14.495141365420501,-9.831273650997623,-6.781586928656677,-21.524118475329093,2.618706598629534,-10.104201584905416,-22.321657366226944,-19.85711972418614,-34.36884974587495,-11.23880737233372,2.717210721803323,0.0,0.0,0.0,0.0,0.0,-0.39168342015039315,-4.117929690614491,7.641155094582924,-10.726155807639298,-1.8678384489642927,-21.061692535382157,-7.615709172956363,-1.7575997680854905,8.461874719712664,9.826064975214056,-1.2672107449763537,-17.382050376577034,-9.888105188777816,12.442366335685891,10.909857154544577,-0.461736947649148,13.500103043968082,-13.888051952359563,-4.401698553582303,-2.880746877594044,-31.998301338900628,-5.42399483024656,0.574369746072247,0.0,0.0,0.0,0.0,0.0,3.8296424832114737,6.21378883368485,16.234585472714095,12.671500035539601,9.810802337367877,5.182049009922093,-4.364885105182563,-5.3607788024556635,-7.176811847315484,-19.046196117645998,0.6933648960923908,2.0614352211255786,-1.573530552471326,-16.97001540448288,-2.5076488346421186,-20.19768663994811,2.7803801233639196,-12.877253116575147,-6.837057358215401,-12.333555252968731,-27.057087558304374,-5.969666666666666,0.0,0.0,0.0,0.0,0.0,0.0,5.254747900765456,21.350372999635656,11.010259788828966,2.762986927056518,-3.331165143550629,2.004809488463025,4.721421161506183,1.660418367742541,5.4560087933484,16.210418133830977,4.2822618741670215,10.161251580006882,1.3639616766001783,0.5533405600617127,7.114975038654681,7.272310223651239,-1.6383067613414732,-0.5793174781119259,21.97028993168328,24.142283853240595,-9.858870918956674,-1.8881318916071306,0.0,0.0,0.0,0.0,0.0,0.0,0.0,4.16,-3.1616243178003804,1.387735051895263,14.026353398598427,5.948856540747608,-4.30615260367673,4.648701868423237,0.5425025255873074,-11.607718877845139,7.611197779604919,-13.88090838266324,24.19751222913899,-3.472971383620648,1.4410751645001814,12.009088102322048,2.1326967172743316,-20.54613742756513,7.677303223749268,8.899746215255725,-12.913409210891944,-0.2798999307215092,0.0,0.0,0.0,0.0,0.0,0.0,0.0,0.0,0.0,0.0,0.0,0.0,0.46540524997877936,6.350922841864019,11.219758293759673,-2.527847616865403,-3.758337115959525,-7.091075039107858,-5.441823172822304,7.868455643427641,5.004301590214667,-9.665992330962732,7.669446682242243,9.454824482544385,11.232774352655005,16.809333333333335,2.842,0.0,0.0,0.0,0.0
